{
  "layers": [
    {
      "type": "dense",
      "in_size": 32,
      "out_size": 128,
      "activation": "sigmoid",
      "weights": [
        [
          0.0777701735496521,
          0.03581998124718666,
          0.11162464320659637,
          -0.051280099898576736,
          0.06797485798597336,
          -0.3064354956150055,
          -0.2708699405193329,
          -0.11102502048015594,
          -0.09404893219470978,
          -0.2508140504360199,
          0.07787996530532837,
          -0.06892150640487671,
          0.03731398656964302,
          0.009839511476457119,
          0.07076442986726761,
          0.2053351104259491,
          0.05464351177215576,
          -0.1330428272485733,
          0.12350070476531982,
          -0.11143597960472107,
          -0.09103015810251236,
          0.031230704858899117,
          0.3299255073070526,
          0.26048576831817627,
          -0.2742522358894348,
          -0.15807630121707916,
          0.28628677129745483,
          -0.11398498713970184,
          0.03919503837823868,
          -0.1611618846654892,
          -0.17615267634391785,
          -0.179524227976799
        ],
        [
          0.1225452572107315,
          0.2760913670063019,
          0.15671685338020325,
          0.1618698239326477,
          -0.07182402163743973,
          0.20147742331027985,
          -0.10996083915233612,
          0.10247300565242767,
          -0.16531239449977875,
          0.20243221521377563,
          0.21440240740776062,
          -0.15902140736579895,
          -0.13059452176094055,
          -0.05610894784331322,
          0.0196447242051363,
          0.11381443589925766,
          0.1089402362704277,
          0.1034550815820694,
          -0.10415845364332199,
          0.17700518667697906,
          -0.103384830057621,
          -0.11186710745096207,
          -0.04724318906664848,
          0.07199083268642426,
          0.10001280903816223,
          0.045842189341783524,
          -0.14393621683120728,
          0.05474396422505379,
          -0.018215376883745193,
          0.01616196148097515,
          -0.30462250113487244,
          -0.09145878255367279
        ],
        [
          -0.16491292417049408,
          -0.05698062479496002,
          -0.3758496642112732,
          -0.20230095088481903,
          0.18147023022174835,
          -0.13681554794311523,
          0.008034206926822662,
          0.03978833928704262,
          0.13864801824092865,
          0.10798441618680954,
          -0.12830328941345215,
          -0.03610828146338463,
          0.14043039083480835,
          -0.18849381804466248,
          -0.20104369521141052,
          -0.026841286569833755,
          0.016824737191200256,
          0.14079317450523376,
          0.007740151137113571,
          0.08012998849153519,
          0.22629082202911377,
          0.07939551025629044,
          -0.22604283690452576,
          0.2534891963005066,
          -0.06154549866914749,
          0.038691312074661255,
          -0.18116061389446259,
          0.016860386356711388,
          -0.0020318301394581795,
          -0.099514901638031,
          -0.1883675456047058,
          0.08071887493133545
        ],
        [
          0.11629839986562729,
          0.1325521022081375,
          0.161476269364357,
          0.08438508957624435,
          -0.27096477150917053,
          0.17698639631271362,
          -0.11217497289180756,
          -0.3391105532646179,
          -0.05986466258764267,
          -0.10750043392181396,
          -0.14975599944591522,
          -0.07119826972484589,
          -0.1285582333803177,
          -0.007648878265172243,
          0.1281370371580124,
          -0.14702478051185608,
          0.25531744956970215,
          -0.28254154324531555,
          -0.056502457708120346,
          -0.1343274563550949,
          0.26931124925613403,
          0.15023468434810638,
          0.1407138705253601,
          -0.032274067401885986,
          -0.035796474665403366,
          -0.1714007407426834,
          0.04179985448718071,
          -0.1288306713104248,
          -0.07093846052885056,
          0.17255711555480957,
          0.019701017066836357,
          0.1352192461490631
        ],
        [
          -0.06705603748559952,
          0.008480596356093884,
          -0.17315185070037842,
          -0.072159044444561,
          0.14254653453826904,
          0.15087470412254333,
          -0.1965482532978058,
          0.00960649736225605,
          -0.06285087019205093,
          0.2735886573791504,
          -0.0005159518914297223,
          0.24307186901569366,
          5.524372681975365e-06,
          0.25196996331214905,
          -0.12999823689460754,
          -0.14812445640563965,
          0.00017226545605808496,
          -0.13801610469818115,
          0.05780168995261192,
          0.012827025726437569,
          -0.021332642063498497,
          0.1561974585056305,
          0.02523914724588394,
          0.2289063185453415,
          -0.1337476223707199,
          0.14981521666049957,
          -0.0637199804186821,
          0.14008262753486633,
          0.2179734855890274,
          -0.15467938780784607,
          0.026902426034212112,
          0.022148270159959793
        ],
        [
          -0.1032823994755745,
          -0.10641844570636749,
          0.03735261410474777,
          -0.21156461536884308,
          0.008074185810983181,
          0.13981513679027557,
          -0.0012919235741719604,
          -0.1973365694284439,
          0.04153180494904518,
          -0.18609385192394257,
          0.10426749289035797,
          -0.008754156529903412,
          0.062051717191934586,
          0.20569415390491486,
          0.03845927119255066,
          0.07236725091934204,
          -0.18926501274108887,
          0.021004678681492805,
          -0.07644283026456833,
          0.16381357610225677,
          -0.24747921526432037,
          0.05142008140683174,
          -0.015658991411328316,
          0.16194309294223785,
          0.24536800384521484,
          0.037253912538290024,
          -0.07166767865419388,
          0.2517339885234833,
          -0.1520586460828781,
          0.025482729077339172,
          -0.21435542404651642,
          0.1572989970445633
        ],
        [
          0.060983143746852875,
          -0.14262346923351288,
          -0.04056321457028389,
          -0.14304102957248688,
          -0.24864715337753296,
          0.05462367832660675,
          -0.24622395634651184,
          0.06975721567869186,
          0.09045235067605972,
          0.05268608406186104,
          0.07860206067562103,
          0.04660221189260483,
          -0.03169921040534973,
          0.2707197368144989,
          0.12143942713737488,
          -0.19610923528671265,
          0.025965824723243713,
          0.21703486144542694,
          0.3218308687210083,
          -0.2030804455280304,
          0.12195906788110733,
          -0.15073727071285248,
          0.003869833191856742,
          -0.024253172799944878,
          0.162522092461586,
          0.03413241729140282,
          -0.06506485491991043,
          -0.22382628917694092,
          -0.22428764402866364,
          0.046507734805345535,
          0.14524881541728973,
          0.0018330075545236468
        ],
        [
          0.062427014112472534,
          -0.18701958656311035,
          -0.2761799395084381,
          -0.06954006850719452,
          -0.24261070787906647,
          -0.21346089243888855,
          0.10640354454517365,
          0.15670226514339447,
          -0.04467109963297844,
          0.14242233335971832,
          0.09113503247499466,
          -0.05977723002433777,
          0.06304676830768585,
          -0.16552114486694336,
          -0.19209052622318268,
          0.23452946543693542,
          0.07736393809318542,
          -0.0483643002808094,
          0.009692174382507801,
          0.11998774856328964,
          0.08374302089214325,
          -0.04440027475357056,
          0.16685163974761963,
          -0.00018223258666694164,
          0.19231675565242767,
          0.21904495358467102,
          0.06053677573800087,
          0.13007043302059174,
          0.24916064739227295,
          -0.018320390954613686,
          -0.01903197541832924,
          0.14349940419197083
        ],
        [
          0.20685498416423798,
          0.017625490203499794,
          0.0010661343112587929,
          0.09189385175704956,
          0.024206552654504776,
          0.16054336726665497,
          -0.15762566030025482,
          -0.05650990456342697,
          -0.09827348589897156,
          -0.04088586941361427,
          0.16414378583431244,
          0.07710133492946625,
          -0.12681826949119568,
          0.20722444355487823,
          0.2776735723018646,
          -0.05219970643520355,
          -0.16203166544437408,
          -0.10511447489261627,
          -0.03448190540075302,
          0.25143998861312866,
          -0.011333969421684742,
          -0.20236347615718842,
          -0.020846283063292503,
          -0.030573472380638123,
          -0.1931605488061905,
          0.23719047009944916,
          0.028696179389953613,
          -0.15418586134910583,
          0.12499682605266571,
          0.031675972044467926,
          0.1923278123140335,
          -0.03163976967334747
        ],
        [
          -0.2262166142463684,
          -0.22624213993549347,
          0.043041642755270004,
          0.309018611907959,
          0.09183153510093689,
          0.06199486181139946,
          0.24908283352851868,
          0.005458207800984383,
          0.1030435711145401,
          0.010424328967928886,
          -0.049426041543483734,
          -0.02150571346282959,
          0.18495503067970276,
          -0.09097699820995331,
          -0.22682608664035797,
          -0.10917872935533524,
          -0.0022904311772435904,
          -0.047670550644397736,
          0.17251023650169373,
          -0.20595784485340118,
          0.18353483080863953,
          0.1784074455499649,
          -0.04043997451663017,
          0.03399535268545151,
          0.014619708992540836,
          -0.058925580233335495,
          0.07207845151424408,
          -0.12662342190742493,
          0.2833687961101532,
          -0.13316436111927032,
          -0.04715913534164429,
          0.05803510919213295
        ],
        [
          -0.12294796854257584,
          -0.010400751605629921,
          0.16877208650112152,
          0.29944565892219543,
          0.06849227100610733,
          0.10921856760978699,
          -0.14556072652339935,
          -0.22503343224525452,
          0.13347141444683075,
          0.2351912558078766,
          -0.12053298205137253,
          0.02248488739132881,
          -0.05203292891383171,
          0.1155114471912384,
          0.26222535967826843,
          -0.027646752074360847,
          0.15093259513378143,
          0.058111876249313354,
          0.10364367067813873,
          -0.10512843728065491,
          -0.017533814534544945,
          -0.29163673520088196,
          -0.10699259489774704,
          0.004669539164751768,
          0.007519190199673176,
          0.05666007846593857,
          0.3198584318161011,
          0.2413121908903122,
          -0.08740431070327759,
          0.0418241061270237,
          -0.2285923957824707,
          0.097232885658741
        ],
        [
          -0.15420402586460114,
          0.059726133942604065,
          -0.15700247883796692,
          -0.17569154500961304,
          0.12080011516809464,
          0.15083052217960358,
          0.05703814700245857,
          0.06364284455776215,
          -0.034853074699640274,
          -0.13572297990322113,
          0.16959594190120697,
          -0.06958964467048645,
          0.3276160657405853,
          -0.07054349780082703,
          0.16547006368637085,
          -0.058242540806531906,
          0.06766578555107117,
          -0.15906940400600433,
          0.10245802253484726,
          0.08872266858816147,
          -0.12218233197927475,
          0.05632326379418373,
          -0.046691473573446274,
          -0.22122524678707123,
          -0.11401821672916412,
          -0.17288905382156372,
          -0.06902247667312622,
          -0.183994323015213,
          -0.15654680132865906,
          0.1705634444952011,
          -0.1812836080789566,
          0.2555442154407501
        ],
        [
          -0.08139840513467789,
          -0.11980967968702316,
          0.11174942553043365,
          0.06864737719297409,
          0.07565974444150925,
          0.2215454876422882,
          0.027697017416357994,
          -0.0838867798447609,
          0.017687024548649788,
          0.09845292568206787,
          0.03930453583598137,
          -0.0914754867553711,
          0.060183968394994736,
          -0.08492488414049149,
          -0.057621873915195465,
          -0.17272181808948517,
          0.23362411558628082,
          0.02373371087014675,
          -0.15947408974170685,
          -0.20984235405921936,
          -0.09198527038097382,
          0.1132504865527153,
          0.12375034391880035,
          -0.20718619227409363,
          0.11308471113443375,
          -0.026783956214785576,
          -0.11618703603744507,
          -0.11875155568122864,
          0.23392663896083832,
          -0.21235640347003937,
          0.0908254086971283,
          -0.2451006919145584
        ],
        [
          -0.19985853135585785,
          -0.07387689501047134,
          -0.10687333345413208,
          0.04022618383169174,
          -0.16000016033649445,
          0.16030681133270264,
          -0.1232089176774025,
          0.21349507570266724,
          -0.13666914403438568,
          -0.2357034683227539,
          0.005624457262456417,
          -0.06262331455945969,
          -0.28027111291885376,
          0.019864322617650032,
          0.06229051202535629,
          -0.20962558686733246,
          0.030419090762734413,
          0.0422053262591362,
          -0.08902707695960999,
          -0.1984468549489975,
          0.044266700744628906,
          0.07200329750776291,
          0.10953421145677567,
          0.12162011116743088,
          -0.18353667855262756,
          0.22461310029029846,
          -0.17354878783226013,
          -0.16710348427295685,
          -0.07799039781093597,
          -0.21965713798999786,
          -0.03929739072918892,
          0.05120677873492241
        ],
        [
          -0.06870348006486893,
          0.025486042723059654,
          -0.08809803426265717,
          0.10141643136739731,
          -0.15645760297775269,
          0.009161143563687801,
          0.0067128087393939495,
          0.18119308352470398,
          0.03954964131116867,
          -0.12398096174001694,
          0.030405256897211075,
          0.057225361466407776,
          0.06538279354572296,
          -0.08355837315320969,
          -0.051118478178977966,
          0.05785880237817764,
          -0.05685536935925484,
          0.011355780996382236,
          0.03195158392190933,
          -0.20451466739177704,
          0.16942599415779114,
          0.2122415453195572,
          0.09299264848232269,
          0.0037812364753335714,
          -0.1685991883277893,
          0.16082705557346344,
          -0.08486873656511307,
          -0.2683943212032318,
          0.01556082908064127,
          0.14978142082691193,
          -0.20259633660316467,
          0.058058153837919235
        ],
        [
          -0.03873329237103462,
          -0.2126556783914566,
          0.04794728755950928,
          0.16111980378627777,
          0.12409645318984985,
          0.24869683384895325,
          0.14452333748340607,
          0.20031702518463135,
          -0.08453518152236938,
          -0.11505208164453506,
          0.2711726129055023,
          0.040965694934129715,
          0.1964937448501587,
          -0.1353202760219574,
          -0.22800365090370178,
          0.01341030653566122,
          0.2566969096660614,
          -0.024665160104632378,
          -0.2005980759859085,
          0.01838773861527443,
          -0.1270235776901245,
          -0.00025925395311787724,
          0.1530034989118576,
          0.27286040782928467,
          -0.1060093492269516,
          -0.0659051164984703,
          0.1132657453417778,
          -0.07576150447130203,
          0.14934003353118896,
          -0.07526229321956635,
          0.20240101218223572,
          -0.14614257216453552
        ],
        [
          -0.03049706108868122,
          -0.16339124739170074,
          0.2610696852207184,
          -0.12338454276323318,
          -0.1654151827096939,
          0.20895040035247803,
          0.08001310378313065,
          0.06428686529397964,
          0.024911871179938316,
          0.2420845478773117,
          0.13704343140125275,
          -0.058273304253816605,
          0.10393641144037247,
          0.011780112981796265,
          0.20448453724384308,
          0.14597907662391663,
          -0.015745045617222786,
          0.004183647688478231,
          0.03671269491314888,
          -0.08885508030653,
          -0.12542468309402466,
          -0.05572544410824776,
          -0.055441152304410934,
          -0.05291185900568962,
          -0.20556771755218506,
          0.112972192466259,
          0.0530749186873436,
          0.19768501818180084,
          -0.10912278294563293,
          0.009622173383831978,
          0.04929586499929428,
          -0.14450699090957642
        ],
        [
          -0.10299156606197357,
          -0.18129770457744598,
          0.2600054144859314,
          0.14360277354717255,
          0.12476005405187607,
          -0.00026050323504023254,
          0.04942791536450386,
          -0.10165682435035706,
          0.06434888392686844,
          0.03046995773911476,
          -0.32581719756126404,
          -0.3225080072879791,
          0.11249090731143951,
          -0.023894935846328735,
          -0.2696421146392822,
          0.1822330802679062,
          -0.04704700782895088,
          0.04234863072633743,
          -0.10950905084609985,
          0.09968981891870499,
          -0.036179088056087494,
          0.19508416950702667,
          -0.1394682675600052,
          -0.06479786336421967,
          0.14990659058094025,
          -0.04031287878751755,
          0.1309473067522049,
          0.08172759413719177,
          0.17343662679195404,
          0.1052081286907196,
          0.08778456598520279,
          0.22207887470722198
        ],
        [
          -0.21354947984218597,
          -0.18204545974731445,
          -0.12998512387275696,
          -0.14091725647449493,
          0.26647457480430603,
          -0.17009325325489044,
          0.1349937915802002,
          -0.004116537515074015,
          0.10567495971918106,
          0.3239387273788452,
          0.12508197128772736,
          -0.008901452645659447,
          -0.2085510939359665,
          -0.08994662761688232,
          0.23608939349651337,
          -0.14559808373451233,
          -0.08318188786506653,
          -0.16657793521881104,
          -0.026046529412269592,
          0.28055739402770996,
          0.1334315687417984,
          0.1090603619813919,
          0.18431903421878815,
          0.15417209267616272,
          0.06284495443105698,
          -0.06134564056992531,
          0.10103350877761841,
          -0.003795471042394638,
          -0.13966186344623566,
          -0.15094441175460815,
          0.003588753053918481,
          -0.27968764305114746
        ],
        [
          -0.013959764502942562,
          -0.04891815036535263,
          0.15599305927753448,
          -0.018598992377519608,
          -0.1571618914604187,
          0.17318186163902283,
          0.019274573773145676,
          -0.2339741587638855,
          -0.22464615106582642,
          0.18162155151367188,
          0.0540936253964901,
          -0.0023338282480835915,
          -0.17351076006889343,
          -0.026783747598528862,
          0.015201090835034847,
          -0.19456176459789276,
          0.06936788558959961,
          0.12900441884994507,
          0.15281009674072266,
          -0.2359699159860611,
          0.22235631942749023,
          0.26175424456596375,
          0.060111261904239655,
          0.01054338738322258,
          -0.11410041153430939,
          0.05959272012114525,
          -0.07108372449874878,
          -0.053788259625434875,
          0.06170691177248955,
          0.056297123432159424,
          0.052029673010110855,
          0.1792050004005432
        ],
        [
          0.1255427747964859,
          0.18700072169303894,
          0.09214922040700912,
          0.014858327805995941,
          -0.18193478882312775,
          0.1963895857334137,
          -0.08539209514856339,
          -0.05877218022942543,
          -0.11993780732154846,
          -0.20375068485736847,
          0.1601516753435135,
          0.0036976404953747988,
          0.03429047390818596,
          -0.1644451916217804,
          0.07796461880207062,
          -0.26146191358566284,
          0.09190277755260468,
          -0.0797557681798935,
          -0.12153319269418716,
          -0.08802156895399094,
          0.16009977459907532,
          0.04118785634636879,
          -0.2828715741634369,
          0.09841692447662354,
          -0.06750815361738205,
          0.0711178407073021,
          -0.16154195368289948,
          0.1798430234193802,
          0.08414818346500397,
          0.3157097101211548,
          -0.008317993953824043,
          -0.10407236963510513
        ],
        [
          -0.07289053499698639,
          -0.020846620202064514,
          -0.1127319484949112,
          0.26064783334732056,
          -0.2670590877532959,
          -0.07206303626298904,
          0.36399394273757935,
          -0.002902459353208542,
          -0.07704980671405792,
          -0.003421834670007229,
          -0.10688924044370651,
          0.15639305114746094,
          -0.041388094425201416,
          0.2022944837808609,
          0.017349695786833763,
          -0.025186879560351372,
          -0.06771893054246902,
          0.16837109625339508,
          0.15284916758537292,
          -0.1779208928346634,
          -0.0011871892493218184,
          -0.11486200243234634,
          -0.17101384699344635,
          0.18531623482704163,
          0.22947990894317627,
          0.11253048479557037,
          0.06057090312242508,
          -0.16423630714416504,
          0.2040686309337616,
          -0.15940053761005402,
          -0.15376988053321838,
          0.18768052756786346
        ],
        [
          0.22341673076152802,
          -0.019412104040384293,
          -0.04074574261903763,
          0.1968984603881836,
          -0.024876806885004044,
          0.011674351058900356,
          -0.06123693287372589,
          -0.07072463631629944,
          0.021791230887174606,
          -0.00336171081289649,
          0.15798354148864746,
          -0.13117116689682007,
          0.20575326681137085,
          -0.1290639191865921,
          -0.11358720809221268,
          -0.23424459993839264,
          0.19118569791316986,
          -0.224701389670372,
          0.18320496380329132,
          -0.1125524714589119,
          0.06801927834749222,
          0.0765683501958847,
          -0.032779570668935776,
          -0.19761475920677185,
          -0.09313392639160156,
          -0.004937513265758753,
          -0.25365060567855835,
          0.15559740364551544,
          -0.18699012696743011,
          -0.02472185343503952,
          0.16125769913196564,
          -0.1921597719192505
        ],
        [
          -0.027948249131441116,
          0.024450184777379036,
          0.178559809923172,
          0.07254712283611298,
          0.24015527963638306,
          0.1184895783662796,
          0.015124183148145676,
          -0.13525380194187164,
          -0.10162302851676941,
          -0.1406724900007248,
          0.14339733123779297,
          0.05454342067241669,
          0.05099267140030861,
          0.1189306229352951,
          0.10591322183609009,
          0.14313890039920807,
          -0.169569194316864,
          -0.10724496096372604,
          0.21353290975093842,
          0.11336659640073776,
          0.16475774347782135,
          -0.00650102598592639,
          0.03862016648054123,
          0.07850362360477448,
          0.0544344000518322,
          0.1078387126326561,
          -0.39453834295272827,
          -0.09585592150688171,
          0.2103080451488495,
          0.13235749304294586,
          -0.1488538533449173,
          -0.17082001268863678
        ],
        [
          -0.03099931590259075,
          -0.08106470108032227,
          -0.025716567412018776,
          0.14033004641532898,
          -0.3614254295825958,
          0.027943002060055733,
          -0.027275606989860535,
          -0.20169319212436676,
          -0.1875966340303421,
          0.32653865218162537,
          0.11724557727575302,
          -0.036835405975580215,
          0.11939247697591782,
          0.0019057415192946792,
          -0.001383833703584969,
          0.11980324238538742,
          -0.20900839567184448,
          0.21387484669685364,
          0.04507659003138542,
          -0.17761260271072388,
          -0.13192038238048553,
          -0.08856827020645142,
          0.10449016094207764,
          0.03499230369925499,
          0.18296611309051514,
          0.01189629826694727,
          0.28559449315071106,
          0.02038242295384407,
          0.10254235565662384,
          0.1608911007642746,
          0.2436579465866089,
          0.31145069003105164
        ],
        [
          0.08245034515857697,
          0.036183912307024,
          0.000713014742359519,
          0.19564564526081085,
          0.14297063648700714,
          -0.00879427045583725,
          -0.1830473244190216,
          0.19656333327293396,
          0.19647398591041565,
          -0.009506121277809143,
          0.19982300698757172,
          0.016828063875436783,
          0.0627322718501091,
          -0.1266767829656601,
          -0.1915963739156723,
          -0.13073477149009705,
          0.017672648653388023,
          0.14681042730808258,
          0.04220244660973549,
          -0.21141229569911957,
          0.13703124225139618,
          -0.058181870728731155,
          0.13410049676895142,
          -0.12501958012580872,
          0.20070233941078186,
          -0.20451292395591736,
          -0.13723887503147125,
          -0.09077192842960358,
          -0.032421261072158813,
          -0.1287427544593811,
          0.18336685001850128,
          0.15930314362049103
        ],
        [
          -0.2488648146390915,
          0.0013894331641495228,
          0.052738115191459656,
          -0.1419520378112793,
          0.13140469789505005,
          0.07923736423254013,
          -0.27890488505363464,
          0.05209687724709511,
          0.12832005321979523,
          -0.2515464425086975,
          0.22718696296215057,
          0.1295621544122696,
          0.02716091088950634,
          -0.1185898557305336,
          -0.09839783608913422,
          -0.08505672216415405,
          -0.02902146987617016,
          -0.27006521821022034,
          -0.04289555177092552,
          -0.064888596534729,
          0.14118261635303497,
          -0.038421597331762314,
          -0.17660614848136902,
          0.034355200827121735,
          -0.01658761315047741,
          0.014249540865421295,
          0.18068502843379974,
          -0.1723647117614746,
          0.04246840253472328,
          0.08247923851013184,
          -0.11934659630060196,
          0.2807258665561676
        ],
        [
          -0.19810034334659576,
          -0.06043582409620285,
          0.19322676956653595,
          -0.04683564975857735,
          0.15457606315612793,
          -0.18234099447727203,
          -0.11224109679460526,
          -0.03687305003404617,
          0.00824188906699419,
          -0.044459935277700424,
          -0.16395865380764008,
          -0.11539620161056519,
          -0.1265137642621994,
          -0.16644072532653809,
          -0.10868530720472336,
          0.08964068442583084,
          0.11937975883483887,
          -0.08208204805850983,
          0.04151571914553642,
          0.03319833055138588,
          -0.0714137926697731,
          0.25243300199508667,
          0.08991683274507523,
          0.08706788718700409,
          0.28486305475234985,
          -0.05343976616859436,
          0.09617891907691956,
          -0.2553621530532837,
          -0.13481512665748596,
          0.13605937361717224,
          0.1535293459892273,
          0.08630508184432983
        ],
        [
          -0.11075998097658157,
          0.024274004623293877,
          -0.057551246136426926,
          -0.06748156994581223,
          -0.01822431944310665,
          0.2252553403377533,
          -0.013270651921629906,
          0.004682751372456551,
          -0.005583073012530804,
          -0.07038876414299011,
          -0.160191610455513,
          0.28684157133102417,
          0.1647733747959137,
          0.14945808053016663,
          -0.039559584110975266,
          0.1481979489326477,
          0.0010514146415516734,
          0.0978228822350502,
          -0.10168913006782532,
          0.03250552713871002,
          -0.051443763077259064,
          -0.11227542906999588,
          0.10030308365821838,
          -0.11094414442777634,
          0.11810176074504852,
          -0.0907713919878006,
          0.2898097336292267,
          0.17482894659042358,
          -0.05689920112490654,
          -0.08029574155807495,
          0.31671684980392456,
          -0.03118034079670906
        ],
        [
          -0.06579991430044174,
          0.11923173815011978,
          0.13908682763576508,
          -0.17944635450839996,
          -0.1346253603696823,
          0.07089398801326752,
          0.08609239012002945,
          0.1537814736366272,
          -0.003502871608361602,
          0.22816576063632965,
          0.07224735617637634,
          0.019340623170137405,
          0.04481935128569603,
          0.002864891430363059,
          0.21428164839744568,
          0.18677443265914917,
          -0.21785759925842285,
          0.03171197324991226,
          -0.1744498908519745,
          0.10802465677261353,
          0.04807691276073456,
          -0.03731584548950195,
          -0.007711812853813171,
          -0.13997597992420197,
          0.0036851654294878244,
          -0.09981776028871536,
          -0.20271681249141693,
          -0.282201886177063,
          -0.007200195454061031,
          0.2885405719280243,
          0.18823707103729248,
          -0.17870952188968658
        ],
        [
          0.0409831665456295,
          0.11428540199995041,
          -0.030960632488131523,
          0.032210081815719604,
          0.11271890997886658,
          0.11633067578077316,
          -0.04087130352854729,
          -0.1189100369811058,
          -0.1647624671459198,
          0.0025254213251173496,
          0.18808327615261078,
          0.2937777042388916,
          -0.0598965622484684,
          0.018652047961950302,
          0.07060590386390686,
          -0.2524237334728241,
          0.13950979709625244,
          0.03611646592617035,
          -0.18791614472866058,
          -0.13771013915538788,
          -0.0676785260438919,
          0.16193154454231262,
          0.17706280946731567,
          -0.25408971309661865,
          -0.018666928634047508,
          0.19169388711452484,
          0.17794057726860046,
          -0.02917340211570263,
          0.10917019844055176,
          -0.22926229238510132,
          0.07819667458534241,
          -0.0025540234055370092
        ],
        [
          -0.10491953045129776,
          0.2595701217651367,
          -0.044682782143354416,
          0.022416606545448303,
          0.10145553201436996,
          -0.0816531702876091,
          0.03867652267217636,
          0.028576914221048355,
          -0.09366098791360855,
          -0.27145689725875854,
          -0.2431563138961792,
          -0.1599390059709549,
          0.027897121384739876,
          -0.09037749469280243,
          0.2540528476238251,
          -0.03715352714061737,
          -0.18745610117912292,
          -0.22430852055549622,
          -0.10412617772817612,
          -0.06400620192289352,
          0.15071533620357513,
          -0.1460513025522232,
          -0.32314908504486084,
          -0.038044679909944534,
          -0.05007882043719292,
          -0.1668609082698822,
          0.08930250257253647,
          0.18283049762248993,
          -0.13042065501213074,
          -0.1813788264989853,
          0.005417718552052975,
          0.17827880382537842
        ],
        [
          0.22178958356380463,
          -0.014049660414457321,
          -0.2804815173149109,
          0.002066591754555702,
          -0.08096601068973541,
          0.08375180512666702,
          0.035697538405656815,
          -0.18016688525676727,
          0.06021274998784065,
          -0.07526567578315735,
          0.012710215523838997,
          -0.061904072761535645,
          0.0340210385620594,
          -0.06783529371023178,
          -0.3119683265686035,
          -0.15422144532203674,
          0.06676734238862991,
          0.01134577114135027,
          -0.21887508034706116,
          -0.09323055297136307,
          -0.10109611600637436,
          -0.216193288564682,
          0.007857062853872776,
          -0.2030583918094635,
          -0.24846261739730835,
          -0.10123331844806671,
          -0.059532176703214645,
          -0.04514681547880173,
          -0.37448617815971375,
          0.10488825291395187,
          -0.3159979283809662,
          0.16438211500644684
        ],
        [
          0.1876920610666275,
          -0.06909000128507614,
          -0.1356917768716812,
          0.09780559688806534,
          0.24037455022335052,
          0.12825103104114532,
          0.016958089545369148,
          0.1482085883617401,
          -0.15550212562084198,
          0.051131751388311386,
          0.0027537026908248663,
          -0.09794158488512039,
          0.11068177223205566,
          -0.09250196814537048,
          0.19298700988292694,
          0.09082979708909988,
          -0.18661682307720184,
          0.09229066967964172,
          -0.10754158347845078,
          0.0031206386629492044,
          0.1273277848958969,
          -0.005963294301182032,
          -0.006443411577492952,
          -0.009665031917393208,
          0.1118595078587532,
          0.1658504158258438,
          0.0070787519216537476,
          -0.0010828642407432199,
          0.13647149503231049,
          -0.06005828455090523,
          -0.0958583652973175,
          0.05046160891652107
        ],
        [
          -0.18245695531368256,
          0.028358232229948044,
          0.20622563362121582,
          -0.013314569368958473,
          0.000506232085172087,
          -0.11190103739500046,
          -0.03960094228386879,
          -0.025762980803847313,
          -0.13621021807193756,
          -0.09969373792409897,
          0.014475161209702492,
          -0.0007604641141369939,
          -0.07947776466608047,
          -0.3173214793205261,
          0.25275981426239014,
          0.30259013175964355,
          -0.07381650805473328,
          -0.11519549041986465,
          0.08907291293144226,
          -0.11741598695516586,
          -0.11540619283914566,
          0.17030304670333862,
          0.148127481341362,
          0.08836820721626282,
          -0.18236345052719116,
          0.14108191430568695,
          -0.17306537926197052,
          0.22856731712818146,
          -0.10530951619148254,
          0.07243753224611282,
          0.23276972770690918,
          -0.1670762002468109
        ],
        [
          0.0612679086625576,
          -0.2519303262233734,
          -0.048346176743507385,
          0.03374677523970604,
          -0.013419941067695618,
          -0.28196197748184204,
          -0.08688778430223465,
          0.13149456679821014,
          0.021917056292295456,
          -0.0488765649497509,
          0.02197582647204399,
          0.08065591007471085,
          -0.1711699515581131,
          0.10062282532453537,
          0.1287197321653366,
          -0.03971613571047783,
          -0.21761319041252136,
          -0.23018689453601837,
          -0.20393531024456024,
          0.18967033922672272,
          0.15832959115505219,
          -0.03742005676031113,
          -0.041190531104803085,
          -0.0926186591386795,
          -0.08043409883975983,
          0.0475439615547657,
          0.13872309029102325,
          0.13669353723526,
          0.06579609215259552,
          -0.1523558795452118,
          0.3390280306339264,
          0.07180581986904144
        ],
        [
          0.08062245696783066,
          -0.0540587455034256,
          0.1609862744808197,
          0.06931479275226593,
          -0.03714042901992798,
          -0.17575018107891083,
          -0.1239500418305397,
          0.02376244217157364,
          0.13783809542655945,
          0.12689261138439178,
          -0.06789138168096542,
          0.1955639123916626,
          0.0309285968542099,
          -0.09194887429475784,
          -0.30634593963623047,
          -0.27482277154922485,
          -0.03897875174880028,
          -0.12108048051595688,
          0.02211984246969223,
          0.28786322474479675,
          -0.030995484441518784,
          0.21064026653766632,
          0.16091398894786835,
          -0.012681298889219761,
          -0.07279956340789795,
          0.15075017511844635,
          0.2707376480102539,
          -0.052486058324575424,
          0.19537827372550964,
          -0.01034116093069315,
          0.19538941979408264,
          -0.018318869173526764
        ],
        [
          0.011559284292161465,
          -0.12392443418502808,
          0.07204216718673706,
          0.14705561101436615,
          0.1282319873571396,
          -0.006067188922315836,
          0.0005271648988127708,
          0.1628367304801941,
          0.10839039832353592,
          -0.07063305377960205,
          0.055180810391902924,
          0.25143375992774963,
          -0.18000803887844086,
          0.04972115904092789,
          0.12937316298484802,
          0.1826077550649643,
          -0.1288127303123474,
          0.22964245080947876,
          -0.20493213832378387,
          -0.12452489137649536,
          -0.1397550255060196,
          0.1288602501153946,
          0.09288036078214645,
          -0.22583219408988953,
          -0.0030502385925501585,
          -0.12714414298534393,
          0.12281077355146408,
          -0.009459407068789005,
          -0.15324810147285461,
          -0.08174196630716324,
          -0.1595890074968338,
          0.10022272169589996
        ],
        [
          0.24325385689735413,
          -0.09872239828109741,
          -0.15901914238929749,
          0.19424693286418915,
          0.1286073476076126,
          -0.16449294984340668,
          0.1585928052663803,
          0.1533236801624298,
          -0.19922460615634918,
          0.12857358157634735,
          -0.0741574689745903,
          -0.27675577998161316,
          -0.02292202226817608,
          0.13172490894794464,
          0.0993528664112091,
          -0.12093265354633331,
          0.13480448722839355,
          0.05571020022034645,
          0.16465452313423157,
          0.050754375755786896,
          0.04531372711062431,
          0.07458307594060898,
          0.03596280887722969,
          0.15949906408786774,
          -0.10596258193254471,
          -0.1349305510520935,
          -0.0879945158958435,
          -0.059086091816425323,
          0.13241498172283173,
          -0.03716317564249039,
          -0.16311074793338776,
          -0.23236267268657684
        ],
        [
          0.15788456797599792,
          -0.05453408509492874,
          -0.21439722180366516,
          0.030687082558870316,
          -0.006540028378367424,
          -0.130901038646698,
          -0.06886985898017883,
          -0.23483243584632874,
          0.14192728698253632,
          -0.07106617838144302,
          -0.11821863800287247,
          -0.23442213237285614,
          -0.11462832987308502,
          0.1744135618209839,
          0.014989149756729603,
          0.08523137122392654,
          0.06306192278862,
          -0.1493232697248459,
          -0.12148509919643402,
          -0.019037118181586266,
          -0.1573016494512558,
          0.3182258903980255,
          0.1974354386329651,
          -0.04060834273695946,
          -0.11432234197854996,
          0.12291909754276276,
          0.10798501968383789,
          0.20966605842113495,
          -0.053131382912397385,
          0.09762107580900192,
          0.04854293540120125,
          0.00829247571527958
        ],
        [
          -0.23448117077350616,
          -0.0666465014219284,
          -0.25812286138534546,
          0.02663743682205677,
          0.15167099237442017,
          -0.17786523699760437,
          0.1951952874660492,
          -0.12807044386863708,
          0.17319411039352417,
          -0.05704863369464874,
          -0.07927647233009338,
          0.1901349127292633,
          -0.05336932837963104,
          -0.04410852491855621,
          -0.13167111575603485,
          0.018627695739269257,
          -0.19504667818546295,
          0.09698854386806488,
          0.1767587810754776,
          -0.02060244046151638,
          -0.1051628440618515,
          0.04778093099594116,
          0.2505500018596649,
          -0.15425728261470795,
          0.08713573217391968,
          -0.305370569229126,
          -0.10211638361215591,
          0.002714992268010974,
          0.11048372089862823,
          -0.23770879209041595,
          -0.12931396067142487,
          0.0973706990480423
        ],
        [
          0.10249969363212585,
          0.004885994829237461,
          0.1475786417722702,
          0.07098405808210373,
          -0.007155423052608967,
          0.07756514102220535,
          0.118586964905262,
          -0.21010783314704895,
          -0.07900533080101013,
          -0.09754068404436111,
          -0.0865563377737999,
          0.04171661287546158,
          0.1859382688999176,
          -0.032338228076696396,
          -0.22899240255355835,
          0.24675700068473816,
          0.19706611335277557,
          0.023724084720015526,
          0.03981141000986099,
          0.08340013772249222,
          0.03425494208931923,
          -0.06926987320184708,
          -0.16257114708423615,
          0.04876074194908142,
          -0.10910069942474365,
          -0.2290205955505371,
          -0.04603783041238785,
          0.07776101678609848,
          0.19545292854309082,
          0.10993848741054535,
          -0.22878418862819672,
          0.11629410833120346
        ],
        [
          0.2678692638874054,
          0.10436905920505524,
          -0.25514835119247437,
          -0.21236620843410492,
          0.16098548471927643,
          -0.022812651470303535,
          0.11258694529533386,
          0.22155719995498657,
          -0.36624351143836975,
          -0.0007871824782341719,
          -0.2163187563419342,
          -0.19713541865348816,
          -0.26052457094192505,
          -0.08666550368070602,
          -0.15931591391563416,
          0.05173219367861748,
          0.11304903030395508,
          -0.18229545652866364,
          -0.21860021352767944,
          -0.14694595336914062,
          -0.1790413111448288,
          -0.15383975207805634,
          -0.13456843793392181,
          0.057573352009058,
          -0.024346858263015747,
          -0.031654808670282364,
          0.1695350706577301,
          -0.12291096150875092,
          0.10741181671619415,
          0.022953247651457787,
          0.05262609198689461,
          0.05487485229969025
        ],
        [
          -0.030993128195405006,
          0.31355535984039307,
          -0.22508348524570465,
          -0.054847199469804764,
          0.04710625112056732,
          0.09342142939567566,
          0.048058200627565384,
          -0.2418380081653595,
          0.18132950365543365,
          0.12680788338184357,
          0.22409935295581818,
          -0.002107903128489852,
          -0.017500657588243484,
          -0.07802017033100128,
          0.043816979974508286,
          0.018104104325175285,
          -0.11340777575969696,
          0.0858510360121727,
          -0.07473159581422806,
          0.07017782330513,
          -0.31502199172973633,
          0.009640121832489967,
          -0.05531055107712746,
          0.09195659309625626,
          -0.022360242903232574,
          0.16639092564582825,
          0.11872374266386032,
          -0.012856250628829002,
          -0.02143753133714199,
          0.1731976717710495,
          0.13387785851955414,
          -0.16893595457077026
        ],
        [
          0.11708347499370575,
          -0.11719897389411926,
          -0.20570753514766693,
          -0.13929541409015656,
          -0.20937249064445496,
          0.019359450787305832,
          -0.03298560529947281,
          -0.02810213342308998,
          0.1909494251012802,
          -0.0051733399741351604,
          -0.16884897649288177,
          0.00023675896227359772,
          0.006329810246825218,
          0.22100234031677246,
          0.03509635478258133,
          -0.15831522643566132,
          0.22786615788936615,
          0.16345617175102234,
          -0.03335567191243172,
          0.18458133935928345,
          -0.12990310788154602,
          0.06390503793954849,
          0.2797407805919647,
          0.07460310310125351,
          0.3568863272666931,
          -0.2863665819168091,
          -0.17432457208633423,
          0.004617395810782909,
          -0.21696698665618896,
          -0.041113611310720444,
          -0.06934987753629684,
          -0.06344841420650482
        ],
        [
          -0.21325333416461945,
          -0.19191037118434906,
          0.15244127810001373,
          0.22761471569538116,
          -0.016921235248446465,
          -0.12948010861873627,
          -0.1535285860300064,
          -0.08494862169027328,
          -0.19653376936912537,
          -0.15576918423175812,
          0.017496425658464432,
          -0.06315600872039795,
          -0.0979323610663414,
          0.07583585381507874,
          0.013286959379911423,
          0.08855721354484558,
          -0.16776248812675476,
          -0.05683218315243721,
          0.00442467350512743,
          0.1145319938659668,
          0.09141948074102402,
          -0.19459334015846252,
          -0.0522586852312088,
          -0.17473432421684265,
          -0.1932527869939804,
          0.027753185480833054,
          -0.33523017168045044,
          -0.3135695159435272,
          0.08405615389347076,
          0.2153361588716507,
          -0.3543206453323364,
          -0.12965644896030426
        ],
        [
          -0.001437227358110249,
          0.09077481925487518,
          -0.15389560163021088,
          -0.06567346304655075,
          -0.010293434374034405,
          -0.06606551259756088,
          0.024284999817609787,
          0.18047717213630676,
          0.19713611900806427,
          0.09753639996051788,
          0.22078603506088257,
          0.19226861000061035,
          -0.10105912387371063,
          -0.001969753298908472,
          -0.23821650445461273,
          -0.06596697121858597,
          0.08216416835784912,
          0.0268353670835495,
          0.031140565872192383,
          -0.20664077997207642,
          0.20128318667411804,
          -0.0426289364695549,
          -0.13981270790100098,
          -0.12841810286045074,
          0.22849322855472565,
          -0.10502039641141891,
          -0.03280794993042946,
          0.1366318017244339,
          -0.10699330270290375,
          0.031274497509002686,
          -0.23773668706417084,
          0.2137679010629654
        ],
        [
          0.15790538489818573,
          0.20704202353954315,
          0.15146349370479584,
          0.1167946606874466,
          0.02779032289981842,
          0.15609890222549438,
          -0.18132662773132324,
          0.16493290662765503,
          -0.09642566740512848,
          -0.06241677701473236,
          0.19840840995311737,
          -0.13641929626464844,
          -0.09764179587364197,
          0.05533435568213463,
          0.13318853080272675,
          0.031125526875257492,
          0.2554522454738617,
          0.12872938811779022,
          0.16850689053535461,
          -0.12514914572238922,
          0.1899845153093338,
          -0.02783454768359661,
          -0.10602959245443344,
          -0.14384965598583221,
          -0.23685014247894287,
          0.27492401003837585,
          -0.05917958542704582,
          0.0934678241610527,
          -0.13910099864006042,
          0.03842649236321449,
          -0.11287066340446472,
          0.17522384226322174
        ],
        [
          -0.0705423429608345,
          -0.19974039494991302,
          -0.01082158088684082,
          -0.11356008797883987,
          -0.13174350559711456,
          0.16507123410701752,
          0.23444463312625885,
          0.07508745044469833,
          0.19050969183444977,
          0.041085030883550644,
          0.11268200725317001,
          0.2676977515220642,
          0.06753690540790558,
          -0.1754273921251297,
          0.2063012719154358,
          -0.14807043969631195,
          0.06731471419334412,
          -0.1124773845076561,
          -0.15520727634429932,
          -0.025171726942062378,
          0.19487203657627106,
          -0.04844420403242111,
          -0.32999271154403687,
          0.23047634959220886,
          0.23693536221981049,
          0.06240237131714821,
          -0.07283660024404526,
          -0.3517679274082184,
          0.15720896422863007,
          0.06072762981057167,
          -0.1363382190465927,
          0.10744665563106537
        ],
        [
          0.06889612972736359,
          -0.01297812256962061,
          0.06623063236474991,
          -0.2190406173467636,
          -0.07427424192428589,
          0.09252789616584778,
          -0.10292688757181168,
          -0.1886363923549652,
          0.04012475535273552,
          -0.15047436952590942,
          -0.12233112752437592,
          0.06809397786855698,
          0.3366691768169403,
          0.14965030550956726,
          -0.13335026800632477,
          -0.1428396850824356,
          0.03312132880091667,
          -0.008455530740320683,
          -0.18500210344791412,
          -0.009767967276275158,
          -0.11300759762525558,
          0.2888924777507782,
          -0.11402690410614014,
          -0.18410150706768036,
          -0.1835886538028717,
          -0.05856270715594292,
          -0.09296804666519165,
          0.10748069733381271,
          -0.07869767397642136,
          0.08782447874546051,
          0.05060802400112152,
          -0.20661723613739014
        ],
        [
          -0.04757896810770035,
          0.12705715000629425,
          0.22274862229824066,
          0.04765705764293671,
          -0.06615093350410461,
          -0.05238708108663559,
          0.1287570595741272,
          0.11869636923074722,
          -0.0224307794123888,
          0.25473564863204956,
          0.18785028159618378,
          -0.15108728408813477,
          -0.03283200040459633,
          0.09426156431436539,
          -0.04313568025827408,
          -0.08899025619029999,
          -0.1638222187757492,
          0.08104053884744644,
          0.11203239858150482,
          -0.22106602787971497,
          0.08937674015760422,
          0.16553474962711334,
          0.052469801157712936,
          0.05545956268906593,
          0.12378007918596268,
          0.12234557420015335,
          0.13830778002738953,
          -0.13996373116970062,
          -0.14167501032352448,
          0.039862390607595444,
          0.002280412707477808,
          -0.1058209240436554
        ],
        [
          0.007020090706646442,
          -0.10953620821237564,
          0.03290286287665367,
          0.10986115038394928,
          0.00731493066996336,
          -0.0856218934059143,
          0.13070134818553925,
          0.1362040638923645,
          -0.11313232034444809,
          -0.047075122594833374,
          -0.007086879573762417,
          -0.10666127502918243,
          0.27672135829925537,
          0.16755801439285278,
          -0.037131812423467636,
          0.2216908037662506,
          -0.18754076957702637,
          0.17778152227401733,
          -0.18382897973060608,
          -0.01917634904384613,
          0.16725142300128937,
          -0.1793271005153656,
          -0.10550334304571152,
          -0.03723704069852829,
          0.1360042244195938,
          0.12378151714801788,
          -0.03513665869832039,
          -0.06847535818815231,
          -0.18654513359069824,
          -0.09067002683877945,
          0.19890858232975006,
          -0.14054259657859802
        ],
        [
          0.1026463732123375,
          -0.1687816083431244,
          -0.1596178263425827,
          0.11573770642280579,
          -0.20031675696372986,
          -0.03620856627821922,
          -0.23318850994110107,
          0.10654684901237488,
          -0.19695095717906952,
          -0.09054461121559143,
          -0.11532868444919586,
          0.04477802291512489,
          0.1554357409477234,
          -0.01179107092320919,
          -0.049210451543331146,
          -0.18522144854068756,
          0.08936244994401932,
          -0.15437331795692444,
          0.0338498055934906,
          0.25603070855140686,
          0.024201445281505585,
          -0.21046316623687744,
          -0.25705036520957947,
          -0.01276304479688406,
          -0.06466507911682129,
          -0.1477208435535431,
          0.16482417285442352,
          -0.18170203268527985,
          0.11156489700078964,
          0.045448191463947296,
          0.10209944099187851,
          -0.14108659327030182
        ],
        [
          0.24706369638442993,
          -0.05677146092057228,
          0.12032413482666016,
          0.05904769524931908,
          0.14830486476421356,
          0.0008603681926615536,
          0.07843557745218277,
          -0.24569201469421387,
          -0.005867332685738802,
          0.17394079267978668,
          -0.06975863873958588,
          0.045710571110248566,
          -0.17477959394454956,
          0.28065502643585205,
          -0.2632361352443695,
          0.07679759711027145,
          0.006696461234241724,
          0.11596860736608505,
          -0.12426522374153137,
          0.08620215952396393,
          0.07884105294942856,
          0.16214770078659058,
          0.13286174833774567,
          0.13023656606674194,
          -0.04245464876294136,
          -0.20464372634887695,
          -0.12673862278461456,
          -0.06552369892597198,
          0.064504474401474,
          0.0562310591340065,
          -0.1269265115261078,
          -0.08474404364824295
        ],
        [
          0.18331779539585114,
          0.32136306166648865,
          0.10800457745790482,
          0.07091505080461502,
          0.10284729301929474,
          -0.0924786701798439,
          -0.029265103861689568,
          -0.234458789229393,
          0.2389681339263916,
          -0.1655690222978592,
          -0.17369620501995087,
          0.05576011538505554,
          0.11450754106044769,
          -0.10035057365894318,
          -0.07880331575870514,
          0.13258814811706543,
          0.03022901900112629,
          -0.08173855394124985,
          0.012317732907831669,
          -0.029991524294018745,
          0.12763288617134094,
          -0.02303195744752884,
          -0.02872426249086857,
          -0.03417951241135597,
          0.15779072046279907,
          0.22613626718521118,
          0.09834379702806473,
          -0.05121201276779175,
          0.20897017419338226,
          -0.07393724471330643,
          -0.07168211042881012,
          0.13371610641479492
        ],
        [
          0.07540525496006012,
          0.11847914755344391,
          -0.1308896690607071,
          0.22446388006210327,
          0.06566108763217926,
          -0.08166981488466263,
          0.04235300049185753,
          -0.12286238372325897,
          -0.1318613737821579,
          -0.010213751345872879,
          -0.11818602681159973,
          -0.09356347471475601,
          -0.16296957433223724,
          -0.13974668085575104,
          -0.0037491812836378813,
          0.265228271484375,
          0.04154450073838234,
          0.2922394573688507,
          0.01936706155538559,
          -0.10931307077407837,
          0.12778988480567932,
          -0.10632458329200745,
          -0.1044037714600563,
          0.28132402896881104,
          -0.22210845351219177,
          0.220993772149086,
          -0.08257566392421722,
          -0.0965743437409401,
          0.15083906054496765,
          -0.13161905109882355,
          0.14050836861133575,
          0.11248763650655746
        ],
        [
          0.1495661735534668,
          0.05038211867213249,
          0.02195747196674347,
          -0.1927744597196579,
          -0.1716042459011078,
          0.031269192695617676,
          -0.0935615673661232,
          0.09468744695186615,
          -0.041365545243024826,
          0.16418232023715973,
          -0.1576680988073349,
          0.20099635422229767,
          0.1830001175403595,
          -0.07147303223609924,
          -0.03217481076717377,
          0.027174636721611023,
          0.06795673817396164,
          -0.0659298449754715,
          0.045733142644166946,
          0.11239301413297653,
          0.06367486715316772,
          0.23077596724033356,
          0.0232697781175375,
          0.10003311932086945,
          -0.1313723474740982,
          0.11521492153406143,
          0.1263643354177475,
          -0.13816316425800323,
          -0.0998339056968689,
          -0.15607091784477234,
          0.02979382500052452,
          0.263990581035614
        ],
        [
          0.08523307740688324,
          -0.26939231157302856,
          -0.08210423588752747,
          0.10425837337970734,
          0.023871062323451042,
          -0.23807621002197266,
          -0.07634645700454712,
          0.25440844893455505,
          -0.13457264006137848,
          0.0683993399143219,
          0.3867628276348114,
          0.1300453543663025,
          0.05683068186044693,
          -0.027567625045776367,
          0.11010967940092087,
          -0.16192278265953064,
          -0.186393603682518,
          0.16031020879745483,
          0.1397019773721695,
          -0.011242161504924297,
          -0.037008825689554214,
          -0.11850958317518234,
          0.0009173951693810523,
          -0.16015680134296417,
          -0.1301136314868927,
          0.10183200985193253,
          -0.014626487158238888,
          0.010738995857536793,
          0.07003816217184067,
          -0.0018904407043009996,
          -0.0018445634050294757,
          -0.040028538554906845
        ],
        [
          -0.0008795252069830894,
          -0.32276472449302673,
          0.27827751636505127,
          -0.20771434903144836,
          0.13699324429035187,
          0.08254782855510712,
          0.03957810252904892,
          0.10816507786512375,
          0.02200690470635891,
          -0.11910994350910187,
          -0.15523287653923035,
          -0.2063177525997162,
          0.039127107709646225,
          -0.05466722697019577,
          -0.10457337647676468,
          -0.12497524172067642,
          0.18637141585350037,
          0.26661062240600586,
          0.17920367419719696,
          0.016126304864883423,
          0.24200661480426788,
          -0.11222497373819351,
          0.20347283780574799,
          -0.05682629346847534,
          0.14542372524738312,
          -0.18648502230644226,
          -0.10452273488044739,
          0.01983075775206089,
          -0.21881979703903198,
          -0.1866745799779892,
          0.0570431686937809,
          0.1223108097910881
        ],
        [
          0.08078357577323914,
          0.010220523923635483,
          -0.16084805130958557,
          0.24079275131225586,
          0.08125177770853043,
          -0.19569233059883118,
          -0.05667702108621597,
          0.20153212547302246,
          -0.05355963483452797,
          0.05716996639966965,
          -0.003491114592179656,
          0.14566661417484283,
          0.10545150935649872,
          -0.01391665916889906,
          0.030233168974518776,
          -0.10669678449630737,
          -0.14558075368404388,
          0.19715765118598938,
          0.12917929887771606,
          -0.3067312240600586,
          -0.06294538825750351,
          0.06965957581996918,
          0.0933561846613884,
          0.33311745524406433,
          -0.11182862520217896,
          -0.14711993932724,
          0.30079150199890137,
          -0.10010172426700592,
          -0.20135147869586945,
          -0.12966690957546234,
          -0.04333850368857384,
          0.07430830597877502
        ],
        [
          0.1336495578289032,
          0.17886799573898315,
          0.051646970212459564,
          -0.1345820128917694,
          0.17728492617607117,
          -0.020897245034575462,
          -0.07806269824504852,
          -0.02230970561504364,
          0.09242114424705505,
          0.004039015620946884,
          0.11702895164489746,
          -0.14882120490074158,
          0.2296145111322403,
          0.24960944056510925,
          -0.07487035542726517,
          -0.2466811090707779,
          -0.17557933926582336,
          -0.29205095767974854,
          -0.23803281784057617,
          -0.30461549758911133,
          0.20061935484409332,
          -0.1313115805387497,
          -0.1433352679014206,
          0.07351002097129822,
          -0.2082836925983429,
          0.08214212208986282,
          0.008624142035841942,
          -0.23649989068508148,
          0.11182432621717453,
          0.10548192262649536,
          -0.16619470715522766,
          -0.09119073301553726
        ],
        [
          -0.17164236307144165,
          0.229130357503891,
          -0.13334836065769196,
          0.10731824487447739,
          0.15543551743030548,
          -0.3182276487350464,
          0.06878931820392609,
          0.0868510976433754,
          0.10466554760932922,
          -0.14561529457569122,
          0.10085591673851013,
          -0.011085712350904942,
          0.2692086398601532,
          0.2934356927871704,
          -0.08357559144496918,
          0.010631638579070568,
          0.0008367486880160868,
          0.10313528776168823,
          -0.091792531311512,
          -0.044582780450582504,
          -0.11360599100589752,
          -0.08627679944038391,
          -0.02917243167757988,
          -0.024923361837863922,
          0.11470206081867218,
          -0.14163009822368622,
          0.026203561574220657,
          0.041755516082048416,
          -0.1462419331073761,
          -0.08363695442676544,
          0.004212798085063696,
          -0.042961567640304565
        ],
        [
          0.2991989850997925,
          0.0002460178220644593,
          -0.13297459483146667,
          -0.20889540016651154,
          0.01056248601526022,
          -0.19032485783100128,
          0.012600764632225037,
          0.08657156676054001,
          -0.10725344717502594,
          0.06670284271240234,
          -0.05616962909698486,
          0.29359525442123413,
          0.0464295968413353,
          0.09461481869220734,
          0.21650895476341248,
          -0.11406557261943817,
          0.2909572124481201,
          0.28181928396224976,
          -0.135580375790596,
          -0.007779594045132399,
          0.04119303449988365,
          -0.005695681553333998,
          -0.0802798718214035,
          0.004931789357215166,
          0.008098818361759186,
          0.031584545969963074,
          0.11190386116504669,
          -0.13165788352489471,
          -0.05304553359746933,
          0.025849655270576477,
          -0.0019304484594613314,
          -0.06731761246919632
        ],
        [
          -0.2823880910873413,
          0.08262541145086288,
          0.04007432982325554,
          0.026153240352869034,
          -0.19490733742713928,
          -0.04468662291765213,
          -0.035934194922447205,
          0.15546075999736786,
          -0.21150456368923187,
          0.0947045236825943,
          -0.05668696016073227,
          -0.09333790093660355,
          0.09080348908901215,
          -0.1684742420911789,
          -0.31168332695961,
          0.23641525208950043,
          0.12110769748687744,
          0.10357474535703659,
          0.26942017674446106,
          -0.29150503873825073,
          0.10475178062915802,
          -0.10341466963291168,
          0.007954887114465237,
          0.35508066415786743,
          0.12270915508270264,
          0.11013473570346832,
          0.14668779075145721,
          0.03323164954781532,
          0.13591846823692322,
          0.18572643399238586,
          0.22422416508197784,
          -0.020383981987833977
        ],
        [
          -0.08620605617761612,
          -0.2108020931482315,
          -0.15541929006576538,
          -0.08611709624528885,
          0.027905786409974098,
          0.15623386204242706,
          0.1780838519334793,
          0.021021148189902306,
          0.26105841994285583,
          -0.026154037564992905,
          0.024911966174840927,
          -0.19113261997699738,
          0.20496097207069397,
          -0.10373424738645554,
          -0.11053025722503662,
          0.08350645750761032,
          -0.18574927747249603,
          -0.06320533156394958,
          -0.013720395974814892,
          -0.1601981222629547,
          -0.061857786029577255,
          0.01689649559557438,
          0.04193117469549179,
          0.17345088720321655,
          0.13829085230827332,
          0.16666142642498016,
          -0.2771729826927185,
          0.13315565884113312,
          0.05567937344312668,
          -0.19304729998111725,
          -0.1506924331188202,
          -0.16933555901050568
        ],
        [
          0.09261035919189453,
          -0.27612826228141785,
          -0.01336104515939951,
          -0.21787789463996887,
          0.0640256404876709,
          -0.25701847672462463,
          -0.10330649465322495,
          -0.060930632054805756,
          0.17948973178863525,
          0.07535721361637115,
          0.09945769608020782,
          0.019323263317346573,
          -0.009572429582476616,
          0.1286948323249817,
          -0.017579970881342888,
          0.16950657963752747,
          0.002182998461648822,
          0.16815629601478577,
          -0.055863868445158005,
          0.0233683492988348,
          0.2821074426174164,
          0.11998960375785828,
          -0.16085384786128998,
          0.1734582483768463,
          0.05374527722597122,
          0.049944814294576645,
          -0.09114614129066467,
          0.04586982727050781,
          0.30687159299850464,
          0.16377964615821838,
          -0.08694227784872055,
          0.16373462975025177
        ],
        [
          0.24713009595870972,
          0.22455468773841858,
          0.0807001069188118,
          -0.06338953226804733,
          0.018267570063471794,
          0.019879402592778206,
          -0.07180088013410568,
          0.364700585603714,
          0.19587503373622894,
          0.09959255903959274,
          0.021068893373012543,
          0.11136994510889053,
          0.09088397026062012,
          0.021552197635173798,
          0.08022376149892807,
          0.16066186130046844,
          0.030330387875437737,
          -0.047931261360645294,
          -0.039919741451740265,
          -0.2873445749282837,
          -0.13675175607204437,
          0.0012103073531761765,
          -0.2151879221200943,
          -0.19624674320220947,
          0.21037042140960693,
          0.29072290658950806,
          0.19309599697589874,
          -0.11548210680484772,
          -0.030791042372584343,
          0.02517562545835972,
          -0.16542236506938934,
          -0.21724370121955872
        ],
        [
          -0.13334761559963226,
          -0.1314891278743744,
          0.049334947019815445,
          0.2774876058101654,
          0.05710645020008087,
          0.2100164294242859,
          0.10200478881597519,
          0.015398751944303513,
          -0.0031394825782626867,
          -0.020903626456856728,
          -0.1812666654586792,
          -0.033843133598566055,
          0.12277044355869293,
          0.1328319013118744,
          -0.010311449877917767,
          -0.060785554349422455,
          0.2044626921415329,
          0.14590595662593842,
          -0.1007959395647049,
          0.08025583624839783,
          0.03314239904284477,
          -0.08804731070995331,
          -0.19407537579536438,
          -0.11739423125982285,
          0.1321970373392105,
          0.20695720613002777,
          -0.2240377515554428,
          0.04855385050177574,
          0.04804258048534393,
          0.2164989709854126,
          0.15632198750972748,
          -0.19734925031661987
        ],
        [
          -0.07699961960315704,
          -0.010370396077632904,
          0.0001578544033691287,
          -0.047766923904418945,
          -0.09098260849714279,
          -0.1916414201259613,
          0.005692994687706232,
          0.1540840119123459,
          0.23681920766830444,
          0.030982185155153275,
          0.22304250299930573,
          0.10919701308012009,
          -0.094790980219841,
          -0.18100959062576294,
          0.26418444514274597,
          -0.057338401675224304,
          0.15764710307121277,
          0.1372586041688919,
          -0.12349030375480652,
          -0.09255397319793701,
          -0.03720886632800102,
          -0.1604897677898407,
          -0.18444471061229706,
          -0.2156994491815567,
          0.22635208070278168,
          0.2478226274251938,
          0.08790134638547897,
          -0.18037095665931702,
          0.21324458718299866,
          -0.13668520748615265,
          -0.0757177323102951,
          -0.09343700855970383
        ],
        [
          -0.11490435153245926,
          0.12071375548839569,
          0.018589025363326073,
          -0.09368332475423813,
          -0.06453245878219604,
          -0.07311554998159409,
          0.02890128083527088,
          0.3239787817001343,
          0.021508632227778435,
          -0.1670386642217636,
          -0.034222766757011414,
          0.06905160844326019,
          -0.02785884030163288,
          0.029818234965205193,
          0.036524102091789246,
          0.03237013891339302,
          -0.008714618161320686,
          0.018696418032050133,
          0.03112497180700302,
          0.24633580446243286,
          -0.16537924110889435,
          0.10572498291730881,
          -0.1262310892343521,
          -0.22381505370140076,
          -0.0005670196260325611,
          -0.08206668496131897,
          -0.07857213169336319,
          -0.3225330412387848,
          0.25939059257507324,
          -0.3606068193912506,
          -0.15585929155349731,
          0.05686012655496597
        ],
        [
          -0.06853904575109482,
          -0.05934281647205353,
          -0.07545393705368042,
          -0.21296201646327972,
          -0.17563095688819885,
          0.014309068210422993,
          0.23911431431770325,
          -0.013205349445343018,
          0.0513424314558506,
          -0.12178299576044083,
          -0.1265166997909546,
          0.10501500219106674,
          0.05301395058631897,
          -0.23706907033920288,
          0.3257022798061371,
          -0.15189804136753082,
          0.14644750952720642,
          0.1436760127544403,
          -0.3153160512447357,
          0.0517975389957428,
          -0.1841113418340683,
          -0.11401180922985077,
          0.07069150358438492,
          0.06271093338727951,
          0.09685198217630386,
          -0.04875636100769043,
          0.0742368996143341,
          0.012603776529431343,
          0.1041627898812294,
          0.1702776998281479,
          0.15773318707942963,
          0.1323380470275879
        ],
        [
          0.0659836158156395,
          -0.08401408046483994,
          -0.236189603805542,
          -0.07792790234088898,
          -0.019136013463139534,
          -0.2246837019920349,
          -0.016734285280108452,
          -0.1567336767911911,
          -0.13233904540538788,
          -0.22204801440238953,
          -0.18885283172130585,
          0.12079844623804092,
          0.11427538841962814,
          0.1253986358642578,
          0.13349629938602448,
          -0.041923921555280685,
          0.07699853926897049,
          0.07396285235881805,
          0.037291269749403,
          0.15934376418590546,
          0.15728478133678436,
          0.16476859152317047,
          -0.16405148804187775,
          -0.09784132987260818,
          -0.09778591990470886,
          -0.02789074182510376,
          -0.18776753544807434,
          0.14094853401184082,
          0.030710773542523384,
          -0.1284542977809906,
          -0.09500738978385925,
          -0.007233384996652603
        ],
        [
          0.22141426801681519,
          0.15789085626602173,
          0.05770289897918701,
          0.06467951089143753,
          -0.11043133586645126,
          0.16781382262706757,
          0.045089997351169586,
          0.18151593208312988,
          0.3319714665412903,
          -0.06408976018428802,
          -0.01477590762078762,
          0.15575535595417023,
          0.12798821926116943,
          -0.25416257977485657,
          -0.1044616773724556,
          -0.20591691136360168,
          -0.06054765358567238,
          0.03594786673784256,
          0.06639666855335236,
          0.1998720020055771,
          -0.14090287685394287,
          0.1703893393278122,
          -0.07985621690750122,
          -0.1830632984638214,
          -0.13437125086784363,
          0.005237248260527849,
          -0.00888850912451744,
          -0.031686991453170776,
          -0.110650934278965,
          0.1168845146894455,
          -0.16070134937763214,
          -0.2666662335395813
        ],
        [
          -0.033010322600603104,
          0.1507897973060608,
          -0.15866735577583313,
          -0.1135132759809494,
          0.06861156225204468,
          -0.16318273544311523,
          0.1281900852918625,
          -0.06397558748722076,
          0.21913348138332367,
          0.12764231860637665,
          0.09289079159498215,
          -0.23695571720600128,
          -0.024294033646583557,
          -0.21815691888332367,
          -0.04682479798793793,
          -0.06259306520223618,
          0.00703911017626524,
          0.02613823302090168,
          0.03514206409454346,
          -0.053884390741586685,
          0.28121522068977356,
          -0.11384382843971252,
          0.17612768709659576,
          -0.10975262522697449,
          0.019731653854250908,
          -0.05377606302499771,
          0.01186259463429451,
          0.03620653226971626,
          0.17326447367668152,
          0.012805197387933731,
          -0.11041126400232315,
          -0.031249091029167175
        ],
        [
          0.0746762827038765,
          0.11132542788982391,
          -0.16843095421791077,
          -0.055400799959897995,
          -0.035709451884031296,
          -0.007622480392456055,
          -0.06490414589643478,
          0.03979000821709633,
          -0.1655777245759964,
          -0.09253550320863724,
          -0.016806432977318764,
          0.08509619534015656,
          -0.15235674381256104,
          0.024572214111685753,
          -0.03163547441363335,
          -0.0887807235121727,
          -0.017087871208786964,
          -0.13874611258506775,
          -0.18033193051815033,
          -0.19345586001873016,
          0.08298039436340332,
          -0.15765927731990814,
          -0.20826579630374908,
          -0.12129880487918854,
          -0.3435603678226471,
          -0.21092166006565094,
          -0.2693464457988739,
          0.2537824809551239,
          -0.11573117971420288,
          -0.0043452829122543335,
          -0.04381335899233818,
          0.022390281781554222
        ],
        [
          0.1766308695077896,
          -0.11972269415855408,
          0.11241576075553894,
          0.11126644909381866,
          -0.20595048367977142,
          -0.23051737248897552,
          0.1853662133216858,
          0.06899849325418472,
          -0.1365179568529129,
          -0.027874775230884552,
          -0.25044161081314087,
          -0.12629637122154236,
          0.03776993602514267,
          0.1908031404018402,
          -0.14370523393154144,
          -0.08335553854703903,
          -0.04045690968632698,
          0.11049671471118927,
          0.12122169882059097,
          0.1829133778810501,
          0.05344109609723091,
          0.30813202261924744,
          0.12281244248151779,
          -0.11300051957368851,
          -0.13510210812091827,
          -0.15118560194969177,
          -0.06655766814947128,
          -0.09934987872838974,
          0.11044090241193771,
          0.04329996183514595,
          0.10804171115159988,
          -0.14264430105686188
        ],
        [
          0.17844805121421814,
          0.01882907748222351,
          0.1278432309627533,
          -0.18223313987255096,
          0.01832619309425354,
          0.12981310486793518,
          0.2118479311466217,
          0.028583448380231857,
          -0.2915474474430084,
          -0.14016008377075195,
          0.06934957206249237,
          -0.08706612884998322,
          -0.04553050175309181,
          -0.005540761165320873,
          0.07786449790000916,
          0.018240101635456085,
          -0.07095181196928024,
          0.1042703241109848,
          0.03057214245200157,
          0.034751880913972855,
          -0.06996600329875946,
          0.05493631586432457,
          0.19549252092838287,
          -0.06606502085924149,
          -0.08153409510850906,
          -0.18841984868049622,
          -0.16574935615062714,
          0.2475266009569168,
          -0.19068767130374908,
          0.009740405716001987,
          0.12288427352905273,
          -0.19242899119853973
        ],
        [
          0.13708437979221344,
          -0.05495711416006088,
          -0.13139653205871582,
          0.11994026601314545,
          -0.05120532587170601,
          0.031930726021528244,
          0.17795279622077942,
          0.09726480394601822,
          -0.008853300474584103,
          -0.06453276425600052,
          -0.2457854002714157,
          -0.03952224552631378,
          0.06356018036603928,
          -0.05354736000299454,
          -0.015377206727862358,
          -0.02492547407746315,
          -0.3006986379623413,
          -0.19758830964565277,
          0.033170416951179504,
          0.15808288753032684,
          0.27494704723358154,
          0.04171131178736687,
          0.17382875084877014,
          -0.061853766441345215,
          -0.05688956752419472,
          0.07578189671039581,
          -0.09461050480604172,
          -0.36063694953918457,
          -0.2178189903497696,
          0.14377370476722717,
          0.387458473443985,
          0.009656638838350773
        ],
        [
          -0.1868538111448288,
          0.25026023387908936,
          -0.18621797859668732,
          0.030413713306188583,
          0.1814580112695694,
          -0.272771954536438,
          0.07126553356647491,
          0.001879644114524126,
          -0.09431018680334091,
          -0.037986963987350464,
          0.2170144021511078,
          0.049346085637807846,
          -0.28974610567092896,
          0.13347740471363068,
          -0.16715559363365173,
          -0.11053795367479324,
          0.10269522666931152,
          -0.0725196897983551,
          0.22091658413410187,
          0.2166704535484314,
          0.058543652296066284,
          -0.08082807809114456,
          -0.03194820135831833,
          0.026625724509358406,
          0.040364593267440796,
          -0.07232990115880966,
          0.1638488620519638,
          -0.011891787871718407,
          0.13636669516563416,
          -0.24576570093631744,
          0.11932243406772614,
          0.2588139474391937
        ],
        [
          -0.26850825548171997,
          0.26998037099838257,
          0.22445569932460785,
          -0.10137829929590225,
          0.010689335875213146,
          -0.11409734934568405,
          0.12724080681800842,
          0.0019715228118002415,
          -0.11870868504047394,
          0.13879340887069702,
          -0.026507727801799774,
          0.09978970140218735,
          -0.02601883001625538,
          0.06193624809384346,
          -0.03272007778286934,
          0.18623952567577362,
          0.01072019711136818,
          0.34182825684547424,
          -0.1480497568845749,
          -0.1387159824371338,
          0.21511231362819672,
          0.1895967423915863,
          0.09569325298070908,
          -0.1147022470831871,
          -0.10060019046068192,
          -0.05724655091762543,
          -0.2972220778465271,
          -0.11498299241065979,
          -0.1069028452038765,
          0.04511106386780739,
          -0.02474527433514595,
          0.20334655046463013
        ],
        [
          0.2190440148115158,
          0.023311713710427284,
          -0.0434386283159256,
          -0.0545693039894104,
          -0.195350781083107,
          -0.14959090948104858,
          0.036003414541482925,
          -0.16355814039707184,
          0.06790279597043991,
          -0.1016315147280693,
          0.15799778699874878,
          0.19968053698539734,
          -0.16548368334770203,
          -0.08863179385662079,
          0.05282115191221237,
          0.059659067541360855,
          0.006607890594750643,
          -0.06460918486118317,
          -0.18986216187477112,
          0.29242125153541565,
          0.12220422923564911,
          0.25381970405578613,
          0.09335058927536011,
          0.15251579880714417,
          0.03315925598144531,
          -0.10465420037508011,
          -0.03808610141277313,
          -0.05945352092385292,
          -0.17674008011817932,
          -0.14951775968074799,
          0.005697646643966436,
          -0.20227575302124023
        ],
        [
          0.003952421247959137,
          0.0052575767040252686,
          -0.09225544333457947,
          0.20716312527656555,
          -0.060217615216970444,
          0.21155743300914764,
          -0.2906000316143036,
          0.13015232980251312,
          0.20675016939640045,
          -0.07672026008367538,
          -0.24738028645515442,
          -0.04658195376396179,
          -0.0656919851899147,
          -0.11470523476600647,
          -0.12036696076393127,
          0.22515490651130676,
          -0.12801136076450348,
          -0.16637225449085236,
          -0.12736164033412933,
          0.014977743849158287,
          0.04692421108484268,
          0.08333540707826614,
          -0.14875829219818115,
          -0.027074987068772316,
          -0.041395772248506546,
          0.025780562311410904,
          0.07774588465690613,
          0.0892607569694519,
          -0.10793058574199677,
          0.1376253366470337,
          0.20240382850170135,
          -0.10518889874219894
        ],
        [
          0.11571010947227478,
          -0.019351916387677193,
          -0.008293123915791512,
          0.15725786983966827,
          -0.03262863680720329,
          -0.21555617451667786,
          0.013891768641769886,
          0.010519006289541721,
          -0.10991676896810532,
          0.06839575618505478,
          0.06826150417327881,
          -0.047991350293159485,
          -0.05322660133242607,
          0.15503905713558197,
          0.1890341341495514,
          -0.061747144907712936,
          -0.2254406213760376,
          0.18380074203014374,
          0.06742386519908905,
          -0.09013006091117859,
          0.0949171781539917,
          0.1409023404121399,
          -0.09245336800813675,
          0.22359517216682434,
          -0.007879756391048431,
          -0.10746432095766068,
          -0.19945494830608368,
          -0.15405747294425964,
          0.038604527711868286,
          -0.19689983129501343,
          0.15549038350582123,
          -0.03581538051366806
        ],
        [
          0.09138960391283035,
          -0.014165722765028477,
          0.13304920494556427,
          -0.2921261489391327,
          -0.0006436268449760973,
          0.0023254442494362593,
          0.023554835468530655,
          -0.09140828996896744,
          0.4045635759830475,
          -0.04644075781106949,
          0.0002532304497435689,
          0.06833642721176147,
          0.24986377358436584,
          0.012227056547999382,
          -0.0936264917254448,
          0.11694809794425964,
          -0.04997220262885094,
          -0.14625540375709534,
          0.19307498633861542,
          0.13550904393196106,
          -0.12796077132225037,
          -0.25755175948143005,
          0.171078160405159,
          -0.11973631381988525,
          -0.07052164524793625,
          0.1384073793888092,
          -0.026233114302158356,
          0.15164081752300262,
          -0.02452864870429039,
          0.17694629728794098,
          0.10949365049600601,
          0.00883372500538826
        ],
        [
          0.12338455766439438,
          -0.030189789831638336,
          -0.08257164061069489,
          -0.1587526500225067,
          -0.12421691417694092,
          -0.009698163717985153,
          0.2215704768896103,
          -0.11868090182542801,
          -0.042201168835163116,
          0.15027111768722534,
          -0.1018124520778656,
          -0.13798551261425018,
          0.09343957901000977,
          0.0027792747132480145,
          0.29383188486099243,
          -0.015474283136427402,
          -0.10468582063913345,
          0.07107117027044296,
          0.2181062400341034,
          0.2013275921344757,
          -0.11769662797451019,
          -0.07767702639102936,
          -0.00920769851654768,
          0.18058274686336517,
          0.25803422927856445,
          -0.11194739490747452,
          -0.02995580993592739,
          -0.03030712902545929,
          -0.0356224924325943,
          -0.03366076201200485,
          -0.13524645566940308,
          -0.13289859890937805
        ],
        [
          -0.2981613874435425,
          0.3249019980430603,
          0.2499159425497055,
          -0.05759328231215477,
          -0.07986670732498169,
          -0.2193506807088852,
          0.01462603360414505,
          0.30810993909835815,
          0.09809014201164246,
          0.06330666691064835,
          0.11054965853691101,
          -0.2781201899051666,
          -0.05369875207543373,
          0.23022714257240295,
          0.18908549845218658,
          -0.06857885420322418,
          0.07197438180446625,
          -0.0645325556397438,
          -0.09311884641647339,
          0.2731936573982239,
          -0.17650333046913147,
          0.25556203722953796,
          -0.00304596358910203,
          0.010498365387320518,
          0.059244222939014435,
          0.024343909695744514,
          -0.30670395493507385,
          0.055544693022966385,
          0.16158261895179749,
          0.12977123260498047,
          0.03205236420035362,
          -0.06204777583479881
        ],
        [
          -0.054418571293354034,
          0.11212670058012009,
          -0.03804383799433708,
          0.09955441951751709,
          -0.2837715744972229,
          0.0455830916762352,
          -0.19176289439201355,
          -0.10781895369291306,
          0.1850711554288864,
          -0.1702050268650055,
          -0.11808294802904129,
          -0.028703102841973305,
          -0.06468597799539566,
          -0.08291817456483841,
          0.09619422256946564,
          -0.05475154519081116,
          0.0680038258433342,
          0.010752225294709206,
          0.3156173527240753,
          -0.05759476497769356,
          0.0741518959403038,
          -0.15376165509223938,
          0.18135643005371094,
          -0.22733613848686218,
          0.03627381473779678,
          0.14045864343643188,
          0.14607617259025574,
          0.24792777001857758,
          0.25975388288497925,
          0.18192362785339355,
          0.012089143507182598,
          0.1415863186120987
        ],
        [
          -0.02223081886768341,
          0.0525081530213356,
          0.14892341196537018,
          0.024988019838929176,
          -0.2250942438840866,
          0.2435702681541443,
          0.17218030989170074,
          0.04880955070257187,
          -0.033019740134477615,
          0.24516290426254272,
          -0.09859656542539597,
          0.07182461023330688,
          -0.2182229459285736,
          0.10848928987979889,
          0.0528811477124691,
          -0.046101439744234085,
          0.04132546856999397,
          -0.129417285323143,
          -0.03895924612879753,
          0.17253504693508148,
          -0.26296693086624146,
          -0.06270600110292435,
          0.07091713696718216,
          -0.08221469819545746,
          0.020024698227643967,
          0.1916862428188324,
          0.31002822518348694,
          -0.127754345536232,
          0.07094108313322067,
          0.0689573585987091,
          -0.05776168778538704,
          -0.18453474342823029
        ],
        [
          -0.15341447293758392,
          0.004711525049060583,
          0.12715043127536774,
          -0.24674150347709656,
          0.06223398819565773,
          0.28325116634368896,
          0.20309841632843018,
          0.20263966917991638,
          -0.07161284238100052,
          0.029228657484054565,
          -0.2249906212091446,
          0.03013969026505947,
          0.07530172914266586,
          -0.15675301849842072,
          0.05530138313770294,
          -0.11845207214355469,
          -0.006755482405424118,
          0.08205221593379974,
          0.18813087046146393,
          -0.05067533627152443,
          0.18082375824451447,
          0.009894302114844322,
          0.12380785495042801,
          0.14197073876857758,
          -0.2750069499015808,
          -0.1296762079000473,
          0.18335866928100586,
          0.033741582185029984,
          -0.10832737386226654,
          -0.1789490431547165,
          -0.10392573475837708,
          -0.18987956643104553
        ],
        [
          0.0740266665816307,
          -0.05827335640788078,
          0.034304652363061905,
          0.2308444082736969,
          -0.08989576250314713,
          -0.06705401092767715,
          0.00629165954887867,
          -0.15304610133171082,
          -0.026941003277897835,
          0.021555095911026,
          0.05223555862903595,
          0.0453476645052433,
          -0.05260568857192993,
          -0.12165452539920807,
          0.26196056604385376,
          -0.1632065773010254,
          -0.04198796674609184,
          -0.014049004763364792,
          -0.19066393375396729,
          0.18232451379299164,
          -0.08234228938817978,
          -0.04224560037255287,
          0.07378004491329193,
          0.0581587478518486,
          0.17391960322856903,
          -0.21048790216445923,
          -0.1116090789437294,
          -0.07887633144855499,
          -0.057153813540935516,
          -0.11320550739765167,
          0.12124793976545334,
          -0.15420810878276825
        ],
        [
          0.3202802836894989,
          -0.007592355832457542,
          -0.0031387933995574713,
          -0.061567649245262146,
          0.1370970606803894,
          -0.22701199352741241,
          0.19357270002365112,
          -0.13315287232398987,
          0.14910222589969635,
          0.14887894690036774,
          0.242657870054245,
          -0.063135527074337,
          -0.11797983944416046,
          0.23882046341896057,
          -0.13013838231563568,
          0.12326439470052719,
          0.003720813198015094,
          -0.11746075004339218,
          0.2118055522441864,
          0.1020582914352417,
          -0.2928415834903717,
          0.022715533152222633,
          -0.15378493070602417,
          0.04292556270956993,
          -0.12073241919279099,
          0.023347990587353706,
          -0.11415237933397293,
          0.09250248968601227,
          0.05252700671553612,
          0.20518609881401062,
          0.0311808492988348,
          -0.15441054105758667
        ],
        [
          -0.14475305378437042,
          -0.0554913654923439,
          -0.2369101494550705,
          0.23353524506092072,
          -0.16051256656646729,
          0.07439948618412018,
          0.23804110288619995,
          0.0011420404771342874,
          0.05359642580151558,
          0.10740688443183899,
          0.1906130015850067,
          -0.08100296556949615,
          -0.1329711377620697,
          0.1075577586889267,
          0.08158311247825623,
          0.26242339611053467,
          0.21507209539413452,
          -0.13428044319152832,
          -0.004967711865901947,
          -0.06833119690418243,
          0.1263095885515213,
          0.1071285679936409,
          0.14990513026714325,
          -0.09921276569366455,
          -0.07370767742395401,
          0.24718713760375977,
          0.07400518655776978,
          0.06533877551555634,
          -0.253325492143631,
          0.17672522366046906,
          0.15848982334136963,
          0.06138705089688301
        ],
        [
          -0.12930665910243988,
          0.13860829174518585,
          -0.04004029184579849,
          -0.04121818765997887,
          0.08686566352844238,
          0.05063571035861969,
          0.12470495700836182,
          0.04438145086169243,
          -0.24965056777000427,
          -0.12732291221618652,
          0.2872151732444763,
          0.1524382382631302,
          0.08805855363607407,
          -0.25742384791374207,
          -0.15345852077007294,
          0.17564237117767334,
          -0.14869113266468048,
          0.14454492926597595,
          -0.00659931730479002,
          0.003244829596951604,
          -0.28229084610939026,
          -0.15388594567775726,
          -0.13759581744670868,
          0.24155347049236298,
          0.15523087978363037,
          0.11452517658472061,
          -0.14208893477916718,
          0.23143568634986877,
          -0.02645527385175228,
          -0.02847880683839321,
          -0.29175621271133423,
          0.049841541796922684
        ],
        [
          -0.12641286849975586,
          0.010557946749031544,
          -0.02937096171081066,
          0.07018826901912689,
          0.08017431199550629,
          -0.11960770934820175,
          0.14685320854187012,
          -0.04495980963110924,
          0.045140743255615234,
          -0.13049009442329407,
          -0.25168922543525696,
          0.1501246690750122,
          -0.04291105270385742,
          0.11622517555952072,
          -0.27759069204330444,
          0.10759548097848892,
          -0.0482381209731102,
          -0.1506814807653427,
          -0.07844795286655426,
          0.05740928649902344,
          -0.2533360719680786,
          -0.030710700899362564,
          0.23516938090324402,
          -0.02360718883574009,
          -0.09911540895700455,
          0.047724999487400055,
          0.030589552596211433,
          0.20280441641807556,
          -0.29076188802719116,
          0.10973984003067017,
          -0.09882473945617676,
          -0.07631504535675049
        ],
        [
          -0.10474670678377151,
          0.1513260006904602,
          -0.0750926211476326,
          -0.23248054087162018,
          0.057090066373348236,
          -0.06879634410142899,
          0.05034581571817398,
          -0.13500039279460907,
          0.2093583345413208,
          0.11643008887767792,
          0.2144741714000702,
          -0.14624036848545074,
          0.22423039376735687,
          0.08817934989929199,
          0.16362136602401733,
          0.05124598369002342,
          0.122857004404068,
          -0.005112018436193466,
          -0.09586869925260544,
          -0.24054299294948578,
          0.3044314682483673,
          0.06855151802301407,
          0.3691170811653137,
          0.013903898186981678,
          -0.024001847952604294,
          -0.11838673055171967,
          -0.028831131756305695,
          0.1297210454940796,
          -0.20536406338214874,
          0.251939594745636,
          -0.17429913580417633,
          -0.005949934478849173
        ],
        [
          -0.19475087523460388,
          -0.08345265686511993,
          0.21757428348064423,
          0.17132607102394104,
          0.17502811551094055,
          -0.02498389035463333,
          0.03334294632077217,
          0.04062039032578468,
          0.1463831067085266,
          -0.15393447875976562,
          -0.026124132797122,
          0.3017156720161438,
          -0.029885966330766678,
          0.196819007396698,
          0.006700487807393074,
          0.1636926233768463,
          0.13819603621959686,
          -0.0708533227443695,
          0.09817647933959961,
          0.28659042716026306,
          0.13140547275543213,
          0.00613132119178772,
          0.1989138424396515,
          0.06000065058469772,
          0.15472228825092316,
          -0.06558120250701904,
          0.03648458793759346,
          0.22790923714637756,
          -0.10692991316318512,
          -0.08114757388830185,
          0.15076158940792084,
          0.2831742763519287
        ],
        [
          -0.2505103349685669,
          0.1139821782708168,
          -0.1740822046995163,
          0.18866081535816193,
          -0.2144552320241928,
          0.20332708954811096,
          -0.06261198222637177,
          0.014929844066500664,
          -0.11919139325618744,
          -0.013866529799997807,
          -0.13249681890010834,
          0.19521038234233856,
          0.16931095719337463,
          -0.0504150390625,
          0.16684521734714508,
          -0.10857617855072021,
          -0.06150117143988609,
          -0.09771407395601273,
          0.2672725021839142,
          0.1783767193555832,
          0.006494997069239616,
          -0.20379219949245453,
          0.10534590482711792,
          0.08065168559551239,
          -0.19370074570178986,
          0.20966766774654388,
          -0.2443172037601471,
          -0.024644989520311356,
          -0.07915419340133667,
          0.02538471482694149,
          0.10067107528448105,
          0.0585121214389801
        ],
        [
          -0.11257242411375046,
          0.1869315803050995,
          0.13443246483802795,
          -0.06089278310537338,
          -0.0942629799246788,
          0.1319691687822342,
          -0.3361055552959442,
          0.1851278394460678,
