{
  "layers": [
    {
      "type": "dense",
      "in_size": 64,
      "out_size": 128,
      "activation": "tanh",
      "weights": [
        [
          0.0295773446559906,
          -0.012602313421666622,
          -0.03319532051682472,
          -0.02113659679889679,
          0.07238592207431793,
          -0.02337503992021084,
          0.018479980528354645,
          0.032032791525125504,
          0.029878195375204086,
          -0.014825074933469296,
          -0.043879274278879166,
          0.012832614593207836,
          -0.01679815910756588,
          0.05435986816883087,
          -0.005977262277156115,
          0.00826016440987587,
          -0.06409290432929993,
          -0.020800648257136345,
          0.00016655935905873775,
          0.005846413783729076,
          -0.09122724086046219,
          0.013678625226020813,
          0.04772546887397766,
          -0.06524878740310669,
          0.05584585666656494,
          0.013481639325618744,
          -0.04726334661245346,
          -0.05203184485435486,
          0.00911023374646902,
          0.03645960986614227,
          0.07291653007268906,
          -0.023764466866850853,
          0.03957943245768547,
          0.05280614644289017,
          0.0756431519985199,
          0.08152763545513153,
          -0.05474140867590904,
          0.007195332087576389,
          -0.062215764075517654,
          -0.004499063361436129,
          -0.04379608482122421,
          -0.08423198014497757,
          -0.0664319321513176,
          0.08908902853727341,
          0.0632457360625267,
          -0.07053440809249878,
          0.010691243223845959,
          -0.06110142916440964,
          0.11688557267189026,
          -0.027416177093982697,
          0.08057960122823715,
          -0.06186017394065857,
          0.014395393431186676,
          -0.057593319565057755,
          -0.07428590208292007,
          0.03829555585980415,
          0.027308795601129532,
          -0.03705284744501114,
          -0.09010139107704163,
          -0.03750308230519295,
          0.014063007198274136,
          0.02430523745715618,
          -0.04903887212276459,
          0.0578981377184391
        ],
        [
          -0.03964807838201523,
          -0.08252156525850296,
          -0.05110130459070206,
          -0.10223936289548874,
          0.02659875899553299,
          -0.06691683828830719,
          0.02899993397295475,
          -0.08219242841005325,
          0.03673560172319412,
          -0.06237877532839775,
          0.1074579656124115,
          0.03288988769054413,
          -0.018514443188905716,
          -0.027949325740337372,
          -0.02969374693930149,
          0.06466580927371979,
          0.004829603713005781,
          0.06882594525814056,
          0.07589003443717957,
          -0.037969332188367844,
          0.07962021976709366,
          -0.0789530873298645,
          -0.10441794246435165,
          -0.0379740372300148,
          -0.07542385905981064,
          -0.01338144950568676,
          -0.06267387419939041,
          -0.027110788971185684,
          -0.07308944314718246,
          0.06343858689069748,
          0.09957119077444077,
          -0.11466150730848312,
          -0.10438486188650131,
          0.060568202286958694,
          0.04498426243662834,
          0.033727556467056274,
          -0.06299406290054321,
          -0.04912790656089783,
          -0.0051211086101830006,
          0.034044552594423294,
          -0.048991523683071136,
          0.03388319909572601,
          0.004195406101644039,
          -0.10003494471311569,
          -0.08041059225797653,
          -0.0455905981361866,
          -0.05199987441301346,
          0.060544319450855255,
          -0.028113706037402153,
          -0.0709216520190239,
          -0.008541321381926537,
          -0.04160645231604576,
          -0.02289029210805893,
          -0.01787649653851986,
          0.01680741272866726,
          -0.056504759937524796,
          0.023068800568580627,
          -0.07296852022409439,
          -0.07505406439304352,
          -0.03218524158000946,
          0.07293777167797089,
          -0.07520262151956558,
          -0.05553954094648361,
          0.0632457435131073
        ],
        [
          0.10879088193178177,
          -0.08107618242502213,
          -0.04025743901729584,
          -0.10557940602302551,
          0.04645900800824165,
          -0.013830329291522503,
          0.055842891335487366,
          0.04066728800535202,
          0.04321344569325447,
          0.05988171324133873,
          0.07292241603136063,
          -0.024576863273978233,
          0.051508523523807526,
          0.0033006779849529266,
          -0.03586643561720848,
          0.026911010965704918,
          0.021983392536640167,
          0.07159204035997391,
          -0.02931998111307621,
          0.006451758556067944,
          0.015982631593942642,
          0.07225869596004486,
          -0.01120542548596859,
          -0.06878241151571274,
          -0.01463833637535572,
          0.06774154305458069,
          -0.08459548652172089,
          0.09948046505451202,
          -0.006375062745064497,
          -0.07185293734073639,
          0.026323260739445686,
          -0.04611806944012642,
          0.05372629314661026,
          -0.05304008722305298,
          -0.022716280072927475,
          0.012223532423377037,
          0.059825509786605835,
          -0.08557721227407455,
          -0.04939180612564087,
          -0.04203721880912781,
          -0.06336300820112228,
          0.09404391795396805,
          -0.05188831314444542,
          0.016704287379980087,
          0.019222579896450043,
          -0.06938303261995316,
          0.06583869457244873,
          0.02916560135781765,
          -0.018604937940835953,
          0.0738518163561821,
          0.036538854241371155,
          0.10124017298221588,
          -0.08035024255514145,
          -0.06078052148222923,
          -0.05028022080659866,
          0.04197584092617035,
          0.018666306510567665,
          0.11815471202135086,
          0.08457273244857788,
          0.11688115447759628,
          0.01612728089094162,
          -0.059795454144477844,
          0.0069090877659618855,
          0.035738106817007065
        ],
        [
          -0.06579707562923431,
          0.03536088019609451,
          -0.036378808319568634,
          -0.001719429506920278,
          0.04967399686574936,
          0.030634520575404167,
          0.04626404494047165,
          -0.0604439452290535,
          5.113468796480447e-05,
          -0.03462418541312218,
          -0.07966150343418121,
          -0.025885213166475296,
          -0.05236867070198059,
          0.0033898057881742716,
          -0.05127406492829323,
          0.006368378177285194,
          0.07620377093553543,
          0.0004427421954460442,
          0.04865339770913124,
          0.061985015869140625,
          -0.007925594225525856,
          -0.07356686890125275,
          -0.04609910771250725,
          0.04000012204051018,
          0.05839037522673607,
          -0.03787359595298767,
          -0.016847828403115273,
          -0.019830945879220963,
          -0.06338461488485336,
          0.03193970024585724,
          0.06991934031248093,
          0.005618770606815815,
          0.019023936241865158,
          -0.03531655669212341,
          -0.05073295906186104,
          0.07206276804208755,
          0.05443428456783295,
          0.06295930594205856,
          0.008255981840193272,
          -0.06495951116085052,
          -0.05226122587919235,
          0.03997555002570152,
          -0.01766820438206196,
          -0.06359846144914627,
          -0.048730622977018356,
          -0.013576007448136806,
          0.0021781460382044315,
          -0.010576925240457058,
          -0.06567785143852234,
          0.011075074784457684,
          -0.05237921327352524,
          -0.0764179676771164,
          0.01736469566822052,
          0.06009439378976822,
          0.007348804734647274,
          0.022685930132865906,
          -0.0024324320256710052,
          -0.05920937657356262,
          0.07944773137569427,
          0.0296116191893816,
          0.051425155252218246,
          0.0733550563454628,
          -0.005347957834601402,
          0.07299616932868958
        ],
        [
          -0.07107777148485184,
          0.0688413754105568,
          0.005748787894845009,
          0.0375155471265316,
          0.01097017340362072,
          0.039355840533971786,
          0.10379032045602798,
          0.009491067379713058,
          0.05682982876896858,
          -0.10310696065425873,
          -0.013210023753345013,
          0.0406920425593853,
          0.04580935463309288,
          0.018871178850531578,
          0.11297500878572464,
          -0.007301912177354097,
          -0.07620274275541306,
          0.007431516423821449,
          -0.037497811019420624,
          0.00960781890898943,
          0.1733745038509369,
          0.0023545222356915474,
          -0.08746498823165894,
          0.048682454973459244,
          -0.05794164165854454,
          -0.0510733388364315,
          -0.08318515121936798,
          -0.0836840569972992,
          -0.09970943629741669,
          -0.0023812400177121162,
          0.01637754775583744,
          -0.09519673883914948,
          -0.022261351346969604,
          -0.03870842978358269,
          0.10047945380210876,
          0.030488349497318268,
          -0.11527999490499496,
          -0.14829832315444946,
          0.07156890630722046,
          0.013440311886370182,
          0.11108876764774323,
          -0.06403472274541855,
          0.05742068588733673,
          -0.10548411309719086,
          0.08332151919603348,
          -0.13787269592285156,
          0.03133360669016838,
          -0.052838023751974106,
          0.023184694349765778,
          0.033221285790205,
          0.11123189330101013,
          0.02160092256963253,
          0.03310180827975273,
          -0.08252305537462234,
          -0.06310182064771652,
          0.04753470420837402,
          0.004326021298766136,
          -0.016462234780192375,
          0.07717154920101166,
          0.026237523183226585,
          -0.01946481317281723,
          -0.08388332277536392,
          -0.1466314047574997,
          0.07672448456287384
        ],
        [
          -0.137359619140625,
          -0.1095583438873291,
          0.02673012763261795,
          0.08237921446561813,
          -0.03173959627747536,
          0.008929753676056862,
          -0.09469763934612274,
          0.04046553745865822,
          -0.0368618369102478,
          -0.13354770839214325,
          -0.0599261112511158,
          -0.06798657774925232,
          -0.010735481977462769,
          0.05627092719078064,
          0.06116340681910515,
          0.13473020493984222,
          -0.1076342836022377,
          0.08851396292448044,
          0.0026935229543596506,
          0.044936999678611755,
          0.09194085747003555,
          0.02443591132760048,
          0.0479288175702095,
          -0.09695962071418762,
          0.08824802935123444,
          -0.10596314817667007,
          -0.023109879344701767,
          -0.004352835938334465,
          0.11391635239124298,
          -0.03622513264417648,
          0.1260562688112259,
          0.09983212500810623,
          0.017585530877113342,
          -0.011043482460081577,
          -0.1329072266817093,
          -0.10186891257762909,
          0.0046941861510276794,
          -0.09516524523496628,
          0.1582508236169815,
          0.037470493465662,
          -0.023434985429048538,
          0.04756686091423035,
          0.01081828959286213,
          0.02508874051272869,
          -0.09319990873336792,
          0.04245606064796448,
          -0.042517971247434616,
          0.06278766691684723,
          0.031130459159612656,
          0.08346720784902573,
          -0.08182721585035324,
          0.1622726023197174,
          -0.051876697689294815,
          -0.03734324499964714,
          -0.08014804124832153,
          0.08791879564523697,
          0.06996424496173859,
          0.030252235010266304,
          -0.11312724649906158,
          -0.06764247268438339,
          -0.028126176446676254,
          0.0810970813035965,
          -0.03324747458100319,
          0.08159799128770828
        ],
        [
          -0.07482229918241501,
          -0.047256067395210266,
          -0.1283537596464157,
          0.008213836699724197,
          0.027207553386688232,
          -0.0266108475625515,
          -0.09145830571651459,
          -0.09653396904468536,
          -0.051060546189546585,
          -0.04968840628862381,
          -0.012050396762788296,
          -0.011505142785608768,
          -0.027377471327781677,
          0.03591177612543106,
          -0.034233979880809784,
          -0.017123838886618614,
          0.08463584631681442,
          0.025973988696932793,
          0.005340668372809887,
          -0.08310357481241226,
          0.049717243760824203,
          -0.02187487855553627,
          -0.02695152536034584,
          0.022673744708299637,
          -0.04845673590898514,
          0.08490343391895294,
          0.06200915202498436,
          0.08697795122861862,
          0.022952919825911522,
          0.07992963492870331,
          -0.0503886416554451,
          0.09435083717107773,
          0.025944530963897705,
          -0.07202862948179245,
          -0.027572376653552055,
          -0.04849199205636978,
          -0.05737919360399246,
          -0.0076147825457155704,
          0.052400633692741394,
          -0.13207602500915527,
          0.027073310688138008,
          0.0192963145673275,
          -0.13346977531909943,
          0.01533592864871025,
          0.04398690536618233,
          -0.06052852421998978,
          -0.047461021691560745,
          -0.011607100255787373,
          0.11757965385913849,
          0.030920671299099922,
          0.0448337160050869,
          -0.11009693890810013,
          -0.033238593488931656,
          0.1025070771574974,
          0.04134879261255264,
          -0.10016567260026932,
          0.05488888546824455,
          -0.05306508019566536,
          0.020396552979946136,
          0.1022559106349945,
          -0.11417081207036972,
          0.06375201791524887,
          -0.04150913655757904,
          -0.06071259453892708
        ],
        [
          -0.041739918291568756,
          0.05129167437553406,
          0.00048678959137760103,
          0.07907550781965256,
          -0.08591029793024063,
          0.041057951748371124,
          0.05388571321964264,
          -0.001393908285535872,
          0.10912921279668808,
          -0.04156132787466049,
          0.07660447806119919,
          -0.015107810497283936,
          0.05300065129995346,
          -0.06867319345474243,
          -0.04520423337817192,
          -0.02119089476764202,
          -0.016184840351343155,
          -0.013126113452017307,
          -0.04720912501215935,
          -0.0367770679295063,
          -0.04523763805627823,
          -0.12365695834159851,
          -0.029514189809560776,
          -0.049400247633457184,
          -0.01823766529560089,
          0.009928890503942966,
          0.06177624687552452,
          0.0561923049390316,
          0.07658933103084564,
          0.032462649047374725,
          0.018290551379323006,
          0.06107570230960846,
          0.027970552444458008,
          -0.07479321211576462,
          -0.039666563272476196,
          0.05094950646162033,
          0.09038534015417099,
          0.06661513447761536,
          0.01065052580088377,
          0.0213371142745018,
          -0.036072783172130585,
          0.0022827056236565113,
          0.04034803807735443,
          0.013139153830707073,
          0.08533386886119843,
          -0.11619488894939423,
          -0.018811026588082314,
          -0.017959188669919968,
          0.07567562162876129,
          0.0567968524992466,
          0.01887795515358448,
          -0.06581134349107742,
          -0.033840861171483994,
          -0.036534860730171204,
          -0.059688929468393326,
          0.06760823726654053,
          -0.005896126851439476,
          -0.08865147083997726,
          0.084952212870121,
          0.048104286193847656,
          0.09281931072473526,
          0.030017025768756866,
          0.02507825754582882,
          0.07463062554597855
        ],
        [
          0.04590194299817085,
          0.004808958154171705,
          0.04234825447201729,
          0.0646645799279213,
          -0.034326739609241486,
          -0.022648291662335396,
          -0.08050233870744705,
          0.017035385593771935,
          -0.07425844669342041,
          -0.02772013656795025,
          -0.00889590848237276,
          0.0629396066069603,
          0.021304519847035408,
          -0.014784448780119419,
          -0.02840660884976387,
          -0.007051336113363504,
          0.06628415733575821,
          0.057695116847753525,
          -0.07827699929475784,
          0.022077301517128944,
          -0.11755117028951645,
          0.014710444957017899,
          0.03361525386571884,
          0.05559288337826729,
          -0.08807618916034698,
          -0.07299333810806274,
          0.08773632347583771,
          0.030949635431170464,
          0.033312588930130005,
          -0.034394264221191406,
          0.04186929017305374,
          0.1333158165216446,
          -0.015038209967315197,
          -0.10068630427122116,
          0.04461877420544624,
          -0.06316366046667099,
          0.019102351740002632,
          0.01890648901462555,
          -0.08489502966403961,
          -0.03237542137503624,
          -0.04872976243495941,
          0.05394896864891052,
          -0.00030283149681054056,
          -0.050840072333812714,
          0.032776106148958206,
          -0.03687098249793053,
          -0.03952227160334587,
          -0.04582945629954338,
          0.050998274236917496,
          0.10302132368087769,
          -0.1719536930322647,
          -0.07174433767795563,
          0.026804231107234955,
          -0.007590580265969038,
          -0.10606727004051208,
          0.0377088263630867,
          0.044964078813791275,
          0.09456135332584381,
          -0.03645443543791771,
          0.017639806494116783,
          -0.04443718492984772,
          0.08601723611354828,
          0.0011377516202628613,
          0.0792493149638176
        ],
        [
          0.02578587830066681,
          -0.07029072195291519,
          -0.041526440531015396,
          0.04680625721812248,
          -0.1104220524430275,
          -0.12211436778306961,
          -0.033701565116643906,
          0.01931312307715416,
          0.028530392795801163,
          0.0050768619403243065,
          0.08186917006969452,
          -0.0869910940527916,
          0.11561840027570724,
          0.09122085571289062,
          -0.1279183179140091,
          0.058703433722257614,
          0.06091452017426491,
          -0.0686170905828476,
          -0.08290939778089523,
          0.12005999684333801,
          -0.08322536945343018,
          0.0572211854159832,
          0.03896573558449745,
          0.00031014427077025175,
          0.04015997052192688,
          0.12928646802902222,
          0.07909619808197021,
          -0.02332392707467079,
          0.07615520060062408,
          0.0757562443614006,
          -0.02943543531000614,
          -0.04972827807068825,
          -0.06515195965766907,
          0.06778884679079056,
          -0.03368724510073662,
          0.007889680564403534,
          -0.01339640375226736,
          -0.08778569102287292,
          0.08923917263746262,
          0.03943734988570213,
          -0.11317332834005356,
          -0.07123412936925888,
          0.09812453389167786,
          -0.08633695542812347,
          -0.026034144684672356,
          -0.05565840005874634,
          -0.10319001227617264,
          -0.03211452439427376,
          0.007279820740222931,
          0.07051713019609451,
          -0.014749235473573208,
          0.062371183186769485,
          -0.010829029604792595,
          -0.049686651676893234,
          0.014122658409178257,
          0.03850099816918373,
          0.06576293706893921,
          -0.024481212720274925,
          0.017945177853107452,
          0.0023433645255863667,
          0.04481426253914833,
          -0.06170758605003357,
          -0.013162007555365562,
          0.06860430538654327
        ],
        [
          0.062483932822942734,
          0.014449204318225384,
          -0.029473520815372467,
          -0.06251530349254608,
          -0.08579099923372269,
          -0.04717233031988144,
          -0.14029961824417114,
          0.01282472163438797,
          0.06660527735948563,
          -0.002485318575054407,
          -0.058879077434539795,
          -0.09913790971040726,
          0.0580923892557621,
          0.007485899142920971,
          0.04984896257519722,
          0.014475364238023758,
          0.07862867414951324,
          -0.04897540062665939,
          0.010023132897913456,
          -0.013767235912382603,
          -0.025282271206378937,
          -0.01642596907913685,
          -0.02887318842113018,
          0.037564512342214584,
          -0.05784228816628456,
          0.038578957319259644,
          -0.04189478978514671,
          0.024176286533474922,
          -0.07040248066186905,
          -0.12139695137739182,
          0.07559313625097275,
          -0.04901428520679474,
          0.06321597844362259,
          0.03757617995142937,
          -0.0713108479976654,
          0.03519389033317566,
          -0.07424705475568771,
          -0.02896851673722267,
          0.09301663935184479,
          0.1515999585390091,
          -0.00245118560269475,
          0.03439382091164589,
          -0.03127665817737579,
          -0.006938012782484293,
          0.05923711135983467,
          0.04482409358024597,
          -0.05542244762182236,
          0.08028456568717957,
          0.06932184845209122,
          -0.05018562451004982,
          -0.008879450149834156,
          0.018112055957317352,
          0.09783103317022324,
          0.00989092793315649,
          -0.03079482913017273,
          0.05184362456202507,
          -0.010363311506807804,
          -0.005727200768887997,
          -0.10662474483251572,
          0.008903699927031994,
          -0.05012989044189453,
          0.08396366238594055,
          0.05800306051969528,
          -0.07536808401346207
        ],
        [
          0.06475614011287689,
          0.0077726030722260475,
          -0.09756147861480713,
          -0.014631149359047413,
          0.021359100937843323,
          -0.029471660032868385,
          -0.024297209456562996,
          -0.03837292641401291,
          -0.07665090262889862,
          0.08823417127132416,
          0.05031372234225273,
          -0.08375357836484909,
          -0.09630229324102402,
          -0.10441815853118896,
          0.01692042127251625,
          -0.07799745351076126,
          -0.13469013571739197,
          0.08870847523212433,
          -0.099885493516922,
          0.10289700329303741,
          -0.013817600905895233,
          0.06599877774715424,
          -0.05760607495903969,
          0.13260047137737274,
          -0.10555914044380188,
          0.13667230308055878,
          -0.022087424993515015,
          0.003598572453483939,
          0.023093024268746376,
          -0.031386032700538635,
          -0.022957704961299896,
          0.07354570180177689,
          -0.08495424687862396,
          0.026310859248042107,
          -0.011658803559839725,
          0.08512014895677567,
          -0.004473529290407896,
          0.01969246007502079,
          0.013788336887955666,
          -0.07420661300420761,
          -0.10212846845388412,
          -0.09841791540384293,
          -0.008164545521140099,
          -0.003223797772079706,
          -0.007276281248778105,
          -0.0047231982462108135,
          0.013977386057376862,
          0.11598607152700424,
          0.05103812366724014,
          -0.05918695032596588,
          0.03193921595811844,
          0.019818678498268127,
          0.02916450798511505,
          -0.08215834200382233,
          0.10398519784212112,
          0.01761123351752758,
          -0.04009277746081352,
          -0.012025839649140835,
          0.059505172073841095,
          0.1216244027018547,
          -0.03720727562904358,
          0.0706150010228157,
          0.0839097872376442,
          -0.03956298157572746
        ],
        [
          -0.0345287024974823,
          -0.02839280292391777,
          -0.010929766111075878,
          -0.1058192253112793,
          -0.07248543202877045,
          0.05246588960289955,
          0.02641380950808525,
          -0.03367306664586067,
          -0.09619844704866409,
          -0.07611292600631714,
          0.06194768846035004,
          0.018004590645432472,
          0.02137049101293087,
          -0.034541696310043335,
          0.011327875778079033,
          -0.08012821525335312,
          -0.018109122291207314,
          -0.08370310813188553,
          0.05028979480266571,
          -0.0038761694449931383,
          -0.03711909428238869,
          0.04549335315823555,
          -0.029882095754146576,
          -0.008796419017016888,
          -0.023811062797904015,
          0.07543931156396866,
          0.0791201964020729,
          -0.07135789841413498,
          -0.027759626507759094,
          0.029122088104486465,
          -0.012638857588171959,
          -0.09784142673015594,
          0.010821867734193802,
          -0.0562831312417984,
          -0.04182876646518707,
          0.05622820183634758,
          0.0086709875613451,
          -0.05299219861626625,
          0.08301333338022232,
          -0.06334470212459564,
          -0.05375222489237785,
          -0.03925570845603943,
          -0.026238836348056793,
          -0.06399119645357132,
          0.015259766951203346,
          -0.05927931144833565,
          0.0808001458644867,
          0.04567602276802063,
          0.004981011152267456,
          0.047550708055496216,
          0.022683635354042053,
          -0.03618235886096954,
          -0.029452363029122353,
          -0.060091834515333176,
          0.01697838492691517,
          0.0388219840824604,
          0.05546332150697708,
          0.04932435229420662,
          0.03466425836086273,
          -0.060651231557130814,
          -0.07691089808940887,
          -0.03488955274224281,
          0.03665934130549431,
          0.07683882117271423
        ],
        [
          0.052610915154218674,
          -0.02337777614593506,
          -0.0586942695081234,
          -0.09528221935033798,
          0.07764440029859543,
          -0.02214006520807743,
          0.0737694799900055,
          -0.11868736892938614,
          0.03165633603930473,
          -0.08327285945415497,
          0.10036520659923553,
          0.03995390981435776,
          -0.014138976112008095,
          0.05102957785129547,
          -0.0649770051240921,
          -0.015577737241983414,
          0.08129199594259262,
          0.09363850951194763,
          -0.06052904948592186,
          0.0025830459780991077,
          -0.03079969622194767,
          -0.06733979284763336,
          0.05271410197019577,
          -0.04674657806754112,
          -0.06536049395799637,
          -0.09759343415498734,
          0.1133430227637291,
          0.06161059811711311,
          -0.025440718978643417,
          -0.06114937737584114,
          -0.02978505752980709,
          -0.06649954617023468,
          -0.04462172091007233,
          -0.06808961927890778,
          0.026877721771597862,
          0.05046795681118965,
          0.03682427853345871,
          0.03706013411283493,
          0.05402150750160217,
          0.01667133718729019,
          0.04188563674688339,
          0.0550028420984745,
          -0.039058420807123184,
          0.03040454164147377,
          -0.005197850987315178,
          0.07878332585096359,
          -0.061479344964027405,
          0.0441327802836895,
          -0.051263585686683655,
          -0.039878327399492264,
          0.0473080575466156,
          -0.034579429775476456,
          -0.02874652110040188,
          -0.09409669786691666,
          0.06226583570241928,
          -0.02228686958551407,
          0.031077565625309944,
          0.003504894208163023,
          -0.11218027025461197,
          -0.021759821102023125,
          -0.02447572909295559,
          -0.050795093178749084,
          -0.036282408982515335,
          0.06801185011863708
        ],
        [
          0.07668448239564896,
          -0.06992875039577484,
          -0.009509800001978874,
          -0.08987627923488617,
          -0.010244215838611126,
          -0.0491270013153553,
          0.02045268751680851,
          -0.0008951273048296571,
          -0.10628955066204071,
          0.03091197833418846,
          -0.14989720284938812,
          -0.04193643480539322,
          0.0020162868313491344,
          -0.09106636047363281,
          0.04399882256984711,
          -0.09228365123271942,
          -0.07266012579202652,
          -0.09586377441883087,
          -0.09290413558483124,
          0.047975532710552216,
          -0.107369065284729,
          -0.0209144689142704,
          -0.09962491691112518,
          0.014418206177651882,
          0.11743509024381638,
          0.09353984892368317,
          0.010560995899140835,
          -0.005473283119499683,
          0.06579191237688065,
          -0.18100330233573914,
          -0.011118095368146896,
          -0.069622702896595,
          0.02595391869544983,
          -0.09247229993343353,
          -0.04880381003022194,
          -0.031600575894117355,
          0.00016828336811158806,
          0.02964606136083603,
          0.10669384151697159,
          0.03237849846482277,
          -0.10701175034046173,
          -0.07331518828868866,
          0.07434909045696259,
          -0.12360863387584686,
          0.06998301297426224,
          -0.0923372358083725,
          -0.0020083365961909294,
          0.06474954634904861,
          -0.0696052834391594,
          0.017269445583224297,
          0.060797546058893204,
          0.06265775114297867,
          -0.012532021850347519,
          -0.12051168084144592,
          -0.03960848227143288,
          -0.014987776055932045,
          0.0350944809615612,
          -0.010627390816807747,
          0.005664413794875145,
          -0.06472812592983246,
          0.024054184556007385,
          0.12619060277938843,
          -0.03069116175174713,
          0.042214613407850266
        ],
        [
          -0.035663902759552,
          0.0523192472755909,
          0.01515801902860403,
          0.03681131452322006,
          -0.05354917421936989,
          -0.041718605905771255,
          -0.06082169711589813,
          0.0018194169970229268,
          0.043408237397670746,
          -0.018037831410765648,
          -0.01989433914422989,
          -0.07239142060279846,
          -0.021560445427894592,
          0.0756310522556305,
          -0.13242891430854797,
          -0.09628704190254211,
          0.09566039592027664,
          -0.014608410187065601,
          -0.11929786950349808,
          -0.039106570184230804,
          0.1370919942855835,
          -0.05912613868713379,
          -0.062342237681150436,
          0.11585717648267746,
          0.06244850903749466,
          0.05116742476820946,
          -0.0681186392903328,
          -0.019896619021892548,
          -0.05171395465731621,
          -0.02451491169631481,
          -0.003436847822740674,
          -0.014003314077854156,
          0.07719022035598755,
          0.05008050054311752,
          -0.11044144630432129,
          0.10983842611312866,
          -0.0862409695982933,
          0.019996928051114082,
          0.0362749844789505,
          -0.004808533471077681,
          -0.08476924896240234,
          0.07518571615219116,
          -0.10219622403383255,
          -0.007818424142897129,
          0.04534773901104927,
          0.06465627998113632,
          -0.04168893024325371,
          -0.020950233563780785,
          -0.032791703939437866,
          -0.056297071278095245,
          -0.06489483267068863,
          0.07804881781339645,
          -0.08674513548612595,
          0.005842675920575857,
          0.007759331725537777,
          -0.03583638370037079,
          -0.04902955889701843,
          -0.050968289375305176,
          -0.06132392957806587,
          0.05600310489535332,
          -0.09539487957954407,
          0.0773748829960823,
          -0.048014894127845764,
          -0.07446753978729248
        ],
        [
          0.11822448670864105,
          -0.09263838082551956,
          -0.09573759883642197,
          -0.061131931841373444,
          0.11273471266031265,
          -0.0974184051156044,
          -0.022673122584819794,
          0.048374027013778687,
          0.056492049247026443,
          -0.045319754630327225,
          -0.04996994137763977,
          -0.034369032829999924,
          -0.01476139947772026,
          -0.035224512219429016,
          0.04856188967823982,
          0.024750281125307083,
          -0.06067167967557907,
          -0.03496544435620308,
          0.05711393430829048,
          0.005224335938692093,
          0.049109552055597305,
          -0.07807799428701401,
          -0.05877160653471947,
          0.028990797698497772,
          -0.041512276977300644,
          0.017284179106354713,
          -0.0399739034473896,
          -0.0995364859700203,
          -0.0327557735145092,
          0.07580479234457016,
          -0.06426356732845306,
          0.10679326951503754,
          -0.007231545634567738,
          0.027629343792796135,
          -0.0211540088057518,
          -0.03345295786857605,
          -0.062390100210905075,
          -0.04068078473210335,
          0.0496140755712986,
          0.05855952948331833,
          -0.06744954735040665,
          0.10209357738494873,
          0.011126697063446045,
          0.10741017013788223,
          0.044626906514167786,
          0.049847595393657684,
          0.11345669627189636,
          -0.07575199753046036,
          -0.02513192780315876,
          0.0143248550593853,
          -0.028920210897922516,
          -0.018223697319626808,
          0.0026859452482312918,
          0.05526653677225113,
          -0.06487240642309189,
          0.0166458860039711,
          0.001026878017000854,
          0.004582186229526997,
          0.041108038276433945,
          -0.010629775933921337,
          -0.051145389676094055,
          -0.004870280623435974,
          0.09337792545557022,
          0.04375096783041954
        ],
        [
          -0.04228226840496063,
          0.09519388526678085,
          0.048088014125823975,
          -0.08541635423898697,
          0.09796592593193054,
          -0.016818974167108536,
          0.0755462646484375,
          0.06228901073336601,
          0.030711501836776733,
          -0.1029651015996933,
          0.029107864946126938,
          0.06584429740905762,
          -0.07639272511005402,
          -0.09900002926588058,
          0.054539088159799576,
          -0.06517625600099564,
          0.054280802607536316,
          -0.014549781568348408,
          -0.040808409452438354,
          0.06348998844623566,
          -0.060941729694604874,
          -0.07964039593935013,
          -0.0687422826886177,
          0.024189641699194908,
          0.03363752365112305,
          0.1486605852842331,
          -0.05618938058614731,
          -0.023413758724927902,
          0.028428692370653152,
          -0.042770326137542725,
          0.008875380270183086,
          0.01045169122517109,
          0.05491819977760315,
          -0.05648551508784294,
          -0.1407591849565506,
          0.08250771462917328,
          -0.014061030931770802,
          0.0349208228290081,
          -0.11983764916658401,
          0.02418278343975544,
          0.05741787329316139,
          -0.07627702504396439,
          0.07795697450637817,
          0.0633104145526886,
          -0.059367962181568146,
          -0.04358042776584625,
          -0.10309729725122452,
          0.017306223511695862,
          -0.03961632028222084,
          -0.0216640867292881,
          0.03117125667631626,
          -0.0993892177939415,
          -0.006169280502945185,
          -0.007809091359376907,
          0.1096092015504837,
          0.044179052114486694,
          -0.054197125136852264,
          0.06049739196896553,
          0.07314051687717438,
          0.012225352227687836,
          0.025084154680371284,
          0.020090002566576004,
          -0.02802387811243534,
          -0.04682198166847229
        ],
        [
          -0.06318578124046326,
          -0.06181264668703079,
          0.04196988791227341,
          -0.0094522163271904,
          0.12121265381574631,
          0.018852442502975464,
          -0.07070856541395187,
          0.06363970786333084,
          0.07229523360729218,
          -0.05667899549007416,
          0.014111236669123173,
          0.02055489271879196,
          -0.10938310623168945,
          0.1308261901140213,
          0.030402671545743942,
          -0.07200289517641068,
          0.007609269581735134,
          0.04875420033931732,
          -0.0703674927353859,
          -0.041726093739271164,
          -0.07814633846282959,
          -0.09098563343286514,
          -0.05629914999008179,
          -0.0706217959523201,
          0.048765573650598526,
          -0.010234559886157513,
          -0.07126728445291519,
          0.07663706690073013,
          -0.06124129146337509,
          0.03119800239801407,
          0.03081861324608326,
          -0.0412684828042984,
          0.010103799402713776,
          -0.07347270846366882,
          0.06060201674699783,
          0.12100846320390701,
          0.04194273799657822,
          -0.1112251877784729,
          0.0413900688290596,
          -0.07133163511753082,
          0.0024518524296581745,
          0.055630821734666824,
          0.03832787275314331,
          -0.050555791705846786,
          -0.004053421784192324,
          -0.035659369081258774,
          0.050363101065158844,
          0.06925620883703232,
          -0.014299777336418629,
          0.07884524762630463,
          -0.039427921175956726,
          0.005400399677455425,
          -0.02599305287003517,
          -0.021688291803002357,
          -0.09838655591011047,
          -0.05456195026636124,
          -0.03901521861553192,
          0.07929785549640656,
          0.10527614504098892,
          -0.00037010357482358813,
          0.08176417648792267,
          -0.031626131385564804,
          0.044909339398145676,
          0.12187551707029343
        ],
        [
          0.051524486392736435,
          0.013349022716283798,
          0.09228479117155075,
          0.03785974159836769,
          0.0009231526637449861,
          -0.02121482789516449,
          0.033529460430145264,
          0.06918259710073471,
          -0.07910990715026855,
          -0.021219732239842415,
          -0.0659310445189476,
          0.04273911938071251,
          0.005568303633481264,
          0.05538010969758034,
          0.04595118388533592,
          0.030575081706047058,
          -0.043865375220775604,
          -0.07805565744638443,
          0.030153824016451836,
          -0.02207503654062748,
          0.07145632803440094,
          -0.0948663279414177,
          -0.058088935911655426,
          0.006742123514413834,
          -0.0668436661362648,
          -0.024089599028229713,
          0.055913232266902924,
          0.07286737859249115,
          0.037433840334415436,
          -0.053052984178066254,
          -0.01084685605019331,
          -0.007330595515668392,
          0.07209625095129013,
          0.06522076576948166,
          0.08385320007801056,
          -0.03234247863292694,
          -0.03453292325139046,
          -0.1340615302324295,
          0.10243880748748779,
          0.03822506219148636,
          0.04157642647624016,
          -0.013627774082124233,
          0.09543752670288086,
          0.10242258012294769,
          0.035365842282772064,
          -0.020787689834833145,
          -0.04183736816048622,
          0.06013256683945656,
          0.104630246758461,
          -0.028415070846676826,
          -0.011338399723172188,
          0.006130729336291552,
          -0.060424868017435074,
          0.025115424767136574,
          -0.033574946224689484,
          -0.007702019065618515,
          -0.08343222737312317,
          -0.059992339462041855,
          -0.021904537454247475,
          0.07186378538608551,
          -0.07929506152868271,
          0.032829251140356064,
          -0.0018581750337034464,
          -0.08044560253620148
        ],
        [
          -0.049962323158979416,
          0.022782156243920326,
          0.054103199392557144,
          -0.004992937669157982,
          -0.030230669304728508,
          -0.06953499466180801,
          0.11185161769390106,
          0.09558096528053284,
          0.025284970179200172,
          -0.07994585484266281,
          -0.06398673355579376,
          0.010872271843254566,
          -0.0645187646150589,
          0.05013773590326309,
          0.013592136092483997,
          -0.088194839656353,
          0.02168874442577362,
          -0.024631351232528687,
          -0.018368370831012726,
          -0.11902254074811935,
          0.014839970506727695,
          -0.1411500722169876,
          -0.0012754162307828665,
          0.006085139233618975,
          0.058858469128608704,
          -0.1184072196483612,
          -0.05148974433541298,
          -0.08805263787508011,
          0.02851964347064495,
          -0.11918826401233673,
          -0.03506706282496452,
          0.1569986790418625,
          -0.002895802492275834,
          0.1065932884812355,
          -0.044813450425863266,
          0.0672062337398529,
          -0.0330200158059597,
          0.04454772546887398,
          -0.07280314713716507,
          0.017453031614422798,
          -0.06349939852952957,
          -0.029215434566140175,
          0.10177551209926605,
          -0.023183392360806465,
          0.007421964313834906,
          0.016668785363435745,
          0.05459265038371086,
          -0.0329338014125824,
          0.06703321635723114,
          -0.021443642675876617,
          -0.0019309682538732886,
          -0.07310900837182999,
          -0.06934719532728195,
          -0.07735782116651535,
          -0.11034253984689713,
          -0.0578843392431736,
          0.10622333735227585,
          0.03467955440282822,
          -0.09036870300769806,
          0.03910450637340546,
          -0.05975805222988129,
          -0.04619266465306282,
          0.009761198423802853,
          -0.04242360219359398
        ],
        [
          0.11644362658262253,
          -0.026464354246854782,
          -0.13829082250595093,
          0.05482558533549309,
          -0.04623787850141525,
          -0.06457771360874176,
          0.046590834856033325,
          -0.047817688435316086,
          0.04795224964618683,
          -0.0019492667634040117,
          0.059186212718486786,
          -0.012546557001769543,
          0.05169665440917015,
          0.09360767900943756,
          -0.05324383080005646,
          0.03315139189362526,
          -0.045641642063856125,
          -0.05305926501750946,
          -0.046702466905117035,
          0.05585373938083649,
          -0.06095077469944954,
          0.044811736792325974,
          -0.007324430625885725,
          -0.03928723558783531,
          0.009938114322721958,
          -0.0015246426919475198,
          -0.049015577882528305,
          0.028219137340784073,
          -0.04334929212927818,
          -0.03353807330131531,
          0.018852440640330315,
          0.047029297798871994,
          0.05154597386717796,
          0.053541745990514755,
          0.05229393392801285,
          0.09428020566701889,
          0.043897662311792374,
          0.02209792099893093,
          -0.0762961283326149,
          0.10052429139614105,
          0.07483332604169846,
          -0.06555082648992538,
          0.0351591557264328,
          0.020537633448839188,
          -0.1092093363404274,
          -0.08684986084699631,
          0.059651296585798264,
          -0.0724145770072937,
          0.06004978343844414,
          -0.05988755077123642,
          0.018615907058119774,
          0.04485233500599861,
          -0.008066559210419655,
          -0.03096187673509121,
          0.03763192892074585,
          -0.017042534425854683,
          -0.02284329943358898,
          -0.003267477033659816,
          -0.09158562123775482,
          -0.02126382105052471,
          0.052673351019620895,
          0.0014931932091712952,
          0.07404868304729462,
          0.05204519256949425
        ],
        [
          -0.06734403222799301,
          0.053801849484443665,
          -0.05046873539686203,
          0.050026990473270416,
          0.051622796803712845,
          -0.056282468140125275,
          0.05708374083042145,
          -0.010366223752498627,
          0.010529677383601665,
          0.007669524755328894,
          -0.01990293338894844,
          -0.11131828278303146,
          0.034634657204151154,
          -0.005681031849235296,
          -0.003827162552624941,
          -0.07161098718643188,
          -0.00137336365878582,
          0.049917034804821014,
          -0.03213512524962425,
          -0.059603963047266006,
          0.04209090769290924,
          0.05210983008146286,
          0.07906242460012436,
          0.12146557867527008,
          0.10590774565935135,
          0.028332987800240517,
          0.0013672633795067668,
          0.09440319240093231,
          0.016677984967827797,
          -0.01968328282237053,
          0.025397274643182755,
          0.0445275604724884,
          -0.06637689471244812,
          -0.09047000855207443,
          -0.07271815836429596,
          -0.06948350369930267,
          -0.06608732044696808,
          0.06221865117549896,
          -0.03394107520580292,
          0.02147359400987625,
          0.005020987242460251,
          -0.07213708758354187,
          0.024723047390580177,
          -0.06335648894309998,
          -0.010178609751164913,
          -0.02583843655884266,
          0.06960368901491165,
          -0.010635221377015114,
          -0.06607120484113693,
          -0.07768978923559189,
          -0.03430270403623581,
          0.07581406831741333,
          -0.11055463552474976,
          -0.06136257201433182,
          -0.0705057755112648,
          0.010797573253512383,
          0.10323911160230637,
          -0.030220145359635353,
          -0.03532828763127327,
          0.0037397872656583786,
          0.02484291046857834,
          -0.04229872673749924,
          -0.051866933703422546,
          0.018661905080080032
        ],
        [
          0.09170758724212646,
          -0.03153585270047188,
          0.10689899325370789,
          0.04267090559005737,
          -0.07843998819589615,
          0.003952293191105127,
          0.1385161429643631,
          0.0588163323700428,
          0.019087934866547585,
          -0.008191468194127083,
          0.00841132365167141,
          -0.08480512350797653,
          0.0186078492552042,
          0.03801203891634941,
          -0.04873877391219139,
          -0.03793890029191971,
          0.039738863706588745,
          -0.10257506370544434,
          0.14204078912734985,
          -0.09477025270462036,
          0.056841809302568436,
          0.005562057718634605,
          0.004753331653773785,
          -0.05263473093509674,
          0.049144890159368515,
          0.04926297813653946,
          -0.030761297792196274,
          0.09826915711164474,
          -0.07303165644407272,
          0.003609118051826954,
          0.0912347212433815,
          0.09312579780817032,
          0.05397650599479675,
          0.019204482436180115,
          0.06642059236764908,
          0.001952746300958097,
          -0.033713698387145996,
          0.05909131094813347,
          -0.17621473968029022,
          -0.0666300505399704,
          0.14225704967975616,
          0.0014930894831195474,
          0.017730258405208588,
          -0.07373207807540894,
          0.04769539833068848,
          0.075536347925663,
          0.007857081480324268,
          -0.10308123379945755,
          -0.07615606486797333,
          0.018689755350351334,
          0.036093007773160934,
          -0.0060887387953698635,
          -0.0488293319940567,
          -0.0702364593744278,
          -0.09472820907831192,
          0.060102157294750214,
          0.0940244048833847,
          -0.06252796202898026,
          -0.030636854469776154,
          -0.00937147531658411,
          0.05260506272315979,
          -0.01588837057352066,
          -0.02068808116018772,
          0.08234167844057083
        ],
        [
          -0.03356725722551346,
          -0.011006110347807407,
          -0.04740259423851967,
          -0.04601873457431793,
          -0.08824708312749863,
          0.040134817361831665,
          -0.03151595965027809,
          0.03613505885004997,
          -0.001288098399527371,
          -0.07811811566352844,
          0.055652592331171036,
          -0.009217649698257446,
          0.0026806348469108343,
          -0.05031535029411316,
          -0.07933714985847473,
          0.08112933486700058,
          -0.07493770867586136,
          -0.017900126054883003,
          0.04074273258447647,
          -0.06503097712993622,
          0.009788135066628456,
          0.0990874245762825,
          0.049138493835926056,
          0.04208006337285042,
          -0.0531594417989254,
          -0.00026121007977053523,
          0.06151147931814194,
          0.005271845497190952,
          -0.015468791127204895,
          0.016762178391218185,
          0.005104731768369675,
          -0.0908123329281807,
          -0.11960484087467194,
          0.0012227989500388503,
          0.08050744235515594,
          0.008393870666623116,
          -0.1096797063946724,
          0.06785270571708679,
          -0.011147740297019482,
          0.1016409620642662,
          -0.022485803812742233,
          -0.07883639633655548,
          0.001678166096098721,
          -0.038373205810785294,
          0.05208950489759445,
          0.030282648280262947,
          0.0032787881791591644,
          0.05481646582484245,
          -0.09474294632673264,
          -0.08077313005924225,
          -0.05348082259297371,
          -0.05980394408106804,
          -0.08395743370056152,
          0.12001063674688339,
          0.02762184478342533,
          0.05487798899412155,
          -0.023204509168863297,
          -0.11354948580265045,
          -0.05844992771744728,
          0.08149009943008423,
          -0.06189729645848274,
          -0.014442011713981628,
          -0.07594014704227448,
          0.0630372166633606
        ],
        [
          0.03291115164756775,
          0.006851593032479286,
          0.0641186460852623,
          -0.04744044691324234,
          0.04224272444844246,
          0.0037781742867082357,
          -0.0425814725458622,
          -0.0658508688211441,
          -0.09399695694446564,
          0.054235756397247314,
          -0.0032962108962237835,
          -0.06477055698633194,
          0.10203220695257187,
          0.0029953764751553535,
          0.06617070734500885,
          -0.03890400379896164,
          -0.016779618337750435,
          0.01571754552423954,
          -0.031090324744582176,
          0.015566914342343807,
          0.044379543513059616,
          -0.019751371815800667,
          0.01092961709946394,
          -0.016769057139754295,
          0.0285752285271883,
          0.06892246752977371,
          -0.010945938527584076,
          0.05542273446917534,
          0.1040700227022171,
          -0.014386728405952454,
          0.06474106758832932,
          -0.05084032565355301,
          -0.06951183825731277,
          -0.05463692918419838,
          0.034978777170181274,
          -0.07401888817548752,
          0.08782447129487991,
          0.007227662019431591,
          0.03019915148615837,
          0.05896182358264923,
          -0.04022732749581337,
          -0.05239636078476906,
          0.0338747575879097,
          0.04574739560484886,
          0.0658615231513977,
          0.02313501015305519,
          0.03894910216331482,
          0.020394213497638702,
          -0.05266265571117401,
          -0.07291685044765472,
          0.024034542962908745,
          -0.0538601353764534,
          0.09680689126253128,
          -0.044139351695775986,
          0.0031756472308188677,
          0.009313162416219711,
          0.0019040086772292852,
          -0.035488106310367584,
          -0.004187237471342087,
          0.04656875506043434,
          -0.03281356394290924,
          0.024899369105696678,
          0.06034056469798088,
          0.008368353359401226
        ],
        [
          0.05079498514533043,
          0.12726125121116638,
          -0.07381559163331985,
          0.0646277591586113,
          -0.036289721727371216,
          0.05097607150673866,
          0.040646132081747055,
          -0.04686330258846283,
          0.004628080874681473,
          0.05312148481607437,
          0.05578581988811493,
          -0.04815002903342247,
          -0.0748245120048523,
          -0.0626310482621193,
          -0.06154777482151985,
          0.036889348179101944,
          -0.12103936076164246,
          -0.003260247176513076,
          -0.009760481305420399,
          0.005911797285079956,
          -0.07047167420387268,
          -0.04796306788921356,
          0.12168857455253601,
          0.00893491692841053,
          -0.031954362988471985,
          -0.07145737111568451,
          -0.026624631136655807,
          0.08053693175315857,
          0.07471191138029099,
          0.11840563267469406,
          0.060185737907886505,
          0.028632530942559242,
          0.06268560141324997,
          -0.10973315685987473,
          0.007526191882789135,
          0.019395364448428154,
          0.054357729852199554,
          -0.039562370628118515,
          0.0344509556889534,
          0.007065345998853445,
          0.08542519062757492,
          0.07662269473075867,
          0.03489060327410698,
          -0.08880900591611862,
          0.09935320168733597,
          -0.041879717260599136,
          -0.09709927439689636,
          0.025137560442090034,
          -0.08840570598840714,
          0.0695844441652298,
          -0.023622987791895866,
          0.05215197801589966,
          -0.010806781239807606,
          0.054531145840883255,
          -0.09684230387210846,
          -0.08266090601682663,
          0.06348288059234619,
          -0.007616376504302025,
          -0.04642762616276741,
          -0.031532131135463715,
          -0.12357588112354279,
          0.04852055758237839,
          -0.04026633873581886,
          -0.0011698909802362323
        ],
        [
          0.02558572217822075,
          0.054874978959560394,
          -0.04732121527194977,
          -0.06431140750646591,
          -0.0464002825319767,
          0.0323425829410553,
          -0.09711651504039764,
          0.04028308764100075,
          -0.08086758852005005,
          0.0030228837858885527,
          -0.13544048368930817,
          0.017839422449469566,
          -0.03446521237492561,
          0.08969594538211823,
          0.031289175152778625,
          0.003706176532432437,
          -0.015999022871255875,
          0.01845492795109749,
          0.07374981045722961,
          -0.017900148406624794,
          -0.0068954769521951675,
          0.08688952773809433,
          -0.023607581853866577,
          -0.13900727033615112,
          0.0025457972660660744,
          0.05903756245970726,
          0.049039654433727264,
          -0.018444839864969254,
          0.02651357650756836,
          -0.047707539051771164,
          -0.040485430508852005,
          0.05050181970000267,
          -0.053038209676742554,
          0.07360123097896576,
          0.011895481497049332,
          -0.018528705462813377,
          0.07173624634742737,
          -0.0718776062130928,
          -0.04263259470462799,
          -0.04918688163161278,
          -0.06692931056022644,
          -0.08476593345403671,
          0.05044962838292122,
          -0.0046531124971807,
          -0.03526647761464119,
          -0.01598578318953514,
          -0.08928191661834717,
          -0.04476923868060112,
          -0.004711225628852844,
          -0.06333736330270767,
          0.06050018221139908,
          -0.06055202707648277,
          -0.003939708694815636,
          -0.0649014338850975,
          0.08750009536743164,
          0.035859521478414536,
          -0.029709171503782272,
          -0.059116750955581665,
          0.08992880582809448,
          0.10596548765897751,
          -0.05005022883415222,
          0.0693337693810463,
          -0.04408029094338417,
          -0.06315670162439346
        ],
        [
          0.015425440855324268,
          0.049040064215660095,
          0.06987573951482773,
          0.011320462450385094,
          0.004220730159431696,
          0.007665788754820824,
          0.10622476041316986,
          0.054682523012161255,
          0.004509045276790857,
          -0.017361268401145935,
          0.08561757951974869,
          0.09183119982481003,
          -0.1142616793513298,
          0.07162202149629593,
          -0.036919351667165756,
          0.03353635594248772,
          0.0803561806678772,
          -0.06973572075366974,
          0.02611313946545124,
          -0.010592345148324966,
          -0.039741791784763336,
          0.05035378411412239,
          -0.08364274352788925,
          -0.10822159051895142,
          0.1256694346666336,
          0.098757304251194,
          -0.0647248700261116,
          0.07856220006942749,
          -0.03172173351049423,
          -0.007166763301938772,
          0.057066354900598526,
          0.06048520654439926,
          0.021752823144197464,
          -0.043143969029188156,
          -0.10763981938362122,
          0.0014808865962550044,
          -0.07822129875421524,
          -0.05230337008833885,
          -0.0603845976293087,
          -0.11442267149686813,
          0.10088206082582474,
          0.06576250493526459,
          0.10411874204874039,
          0.07913461327552795,
          0.0762181505560875,
          -0.06272447109222412,
          -0.0807875543832779,
          0.060251880437135696,
          -0.02828841097652912,
          -0.07370375096797943,
          -0.005916699767112732,
          0.07008861005306244,
          -0.0928778201341629,
          -0.08759873360395432,
          -0.06857873499393463,
          -0.03585215285420418,
          0.031688299030065536,
          0.031408485025167465,
          0.03482180833816528,
          -0.1411898136138916,
          0.03937075287103653,
          0.032452624291181564,
          0.006891412194818258,
          -0.09466598182916641
        ],
        [
          -0.057120613753795624,
          -0.006819108501076698,
          0.007569218520075083,
          -0.007818011566996574,
          -0.13354411721229553,
          0.01901993900537491,
          0.029713133350014687,
          0.060013435781002045,
          0.018123334273695946,
          -0.059506651014089584,
          -0.022726239636540413,
          0.004374437499791384,
          0.08056631684303284,
          0.11658909171819687,
          0.12724120914936066,
          -0.00979937706142664,
          0.028908511623740196,
          0.06068352609872818,
          -0.08600317686796188,
          0.023639464750885963,
          -0.06666213274002075,
          0.03498103469610214,
          0.0817631259560585,
          -0.06745301187038422,
          -0.07126105576753616,
          -0.007341794669628143,
          -0.08772692084312439,
          0.03158777952194214,
          -0.023149751126766205,
          -0.004906670190393925,
          -0.03305593132972717,
          0.0682617574930191,
          -0.01261177845299244,
          -0.06920040398836136,
          0.01585969142615795,
          0.09660275280475616,
          -0.057265229523181915,
          0.047624457627534866,
          0.0485694445669651,
          -0.1390952318906784,
          -0.01421369519084692,
          -0.04562417417764664,
          -0.019536498934030533,
          -0.10328859090805054,
          -0.014823690988123417,
          0.04540228098630905,
          -0.06592798233032227,
          0.054751746356487274,
          -0.02698332630097866,
          -0.03654194250702858,
          0.0687982439994812,
          0.018071351572871208,
          -0.0026584439910948277,
          0.09924041479825974,
          0.05251023918390274,
          0.09368272125720978,
          0.03441229462623596,
          -0.009850981645286083,
          0.052113909274339676,
          -0.043030742555856705,
          0.07818696647882462,
          0.0374114103615284,
          0.06088715046644211,
          -0.03968724235892296
        ],
        [
          0.07521398365497589,
          0.07370678335428238,
          -0.0031442970503121614,
          -0.10431274026632309,
          -0.10019195079803467,
          0.10460632294416428,
          0.08557776361703873,
          -0.05322211980819702,
          0.020477203652262688,
          0.025241293013095856,
          0.016904154792428017,
          -0.04239105060696602,
          0.03824076056480408,
          0.0030429912731051445,
          -0.015599148347973824,
          -0.04977782443165779,
          0.14637324213981628,
          0.0800556093454361,
          -0.0337212011218071,
          -0.007572190836071968,
          -0.0926298126578331,
          0.027436790987849236,
          0.09079878777265549,
          0.08181589841842651,
          -0.006897665560245514,
          0.07672473788261414,
          -0.07362988591194153,
          -0.07572614401578903,
          0.09106118977069855,
          0.0954941138625145,
          -0.06671983003616333,
          0.07624679058790207,
          -0.11701276153326035,
          -0.027876922860741615,
          0.13039685785770416,
          -0.03357594832777977,
          -0.0778060108423233,
          -0.05051153898239136,
          -0.021207056939601898,
          0.04367319494485855,
          -0.08743912726640701,
          -0.021125320345163345,
          0.03568030893802643,
          0.15151388943195343,
          0.01513831689953804,
          -0.09664386510848999,
          -0.01927044801414013,
          -0.1339884102344513,
          0.04766969755291939,
          0.017712054774165154,
          0.070754773914814,
          -0.014843595214188099,
          -0.03709108754992485,
          -0.07532951980829239,
          0.02371314726769924,
          -0.09382322430610657,
          -0.04683820530772209,
          -0.08723046630620956,
          0.0005187644273974001,
          -0.03253975883126259,
          -0.06761559098958969,
          0.0740211233496666,
          0.025097152218222618,
          0.09839290380477905
        ],
        [
          -0.031384121626615524,
          -0.08318940550088882,
          -0.037480678409338,
          0.1022074744105339,
          -0.03796102851629257,
          0.009505935944616795,
          0.08839455246925354,
          -0.05450240150094032,
          0.07987850904464722,
          0.028606172651052475,
          0.01580442488193512,
          -0.02044612728059292,
          0.07377352565526962,
          0.04075612872838974,
          0.048203181475400925,
          0.019244687631726265,
          0.08171965926885605,
          -0.02148558758199215,
          0.0468287393450737,
          -0.002289603231474757,
          0.08905461430549622,
          -0.0727454423904419,
          -0.06116022169589996,
          -0.028292860835790634,
          -0.0146654536947608,
          0.05716891586780548,
          0.05958077311515808,
          -0.08321263641119003,
          0.019470779225230217,
          -0.005314216483384371,
          -0.032833900302648544,
          -0.04655417054891586,
          0.05282552167773247,
          0.03499624505639076,
          -0.05891566723585129,
          0.0018986210925504565,
          0.06669368594884872,
          0.005533806513994932,
          0.0781625360250473,
          0.038086965680122375,
          0.06088569387793541,
          -0.11468227952718735,
          -0.08884154260158539,
          0.042665015906095505,
          -0.09443941712379456,
          -0.04093301296234131,
          0.09450794756412506,
          0.024445347487926483,
          -0.04034963622689247,
          -0.07226928323507309,
          -0.034157950431108475,
          -0.05014616623520851,
          -0.05895889550447464,
          -0.06149281933903694,
          -0.042797259986400604,
          0.015706365928053856,
          0.03539860621094704,
          -0.02716829441487789,
          -0.03117077238857746,
          0.03295213729143143,
          0.017255717888474464,
          0.016261382028460503,
          -0.05530804023146629,
          0.022725079208612442
        ],
        [
          -0.08785198628902435,
          0.09876088798046112,
          0.07368771731853485,
          0.059498246759176254,
          -0.019137391820549965,
          -0.0937122255563736,
          -0.04300106689333916,
          -0.030377667397260666,
          -0.1241910457611084,
          -0.07301844656467438,
          -0.1419047713279724,
          -0.07958167046308517,
          0.06301523745059967,
          -0.07978112250566483,
          -0.0461726188659668,
          0.07819914072751999,
          0.024696428328752518,
          0.04848446324467659,
          -0.09822281450033188,
          0.04330409690737724,
          0.06414514780044556,
          -0.08860450983047485,
          -0.11534469574689865,
          -0.052095670253038406,
          -0.06786669045686722,
          -0.04864950850605965,
          0.0711892619729042,
          -0.046412140130996704,
          0.06326812505722046,
          -0.035344447940588,
          0.08016884326934814,
          0.05603983998298645,
          0.10180092602968216,
          -0.07046467065811157,
          0.01967262662947178,
          0.08380606770515442,
          -0.018380893394351006,
          0.07654853165149689,
          -0.09809816628694534,
          -0.07234255969524384,
          0.041122518479824066,
          -0.024755749851465225,
          0.09116864204406738,
          0.04031514376401901,
          0.02853279747068882,
          0.03412802889943123,
          -0.0610029473900795,
          0.03851328045129776,
          0.019002286717295647,
          0.08488734066486359,
          -0.007303476333618164,
          -0.05452315881848335,
          0.012989318929612637,
          0.058218684047460556,
          -0.07452920079231262,
          0.0800013467669487,
          0.0009875365067273378,
          -0.12892888486385345,
          -0.07187291979789734,
          -0.012244715355336666,
          -0.0476871058344841,
          -0.05626417696475983,
          0.05050012469291687,
          -0.06451904773712158
        ],
        [
          0.06749997287988663,
          0.09241627156734467,
          -0.06357762962579727,
          -0.03382949158549309,
          0.09162162244319916,
          0.05895525589585304,
          0.05827829986810684,
          -0.11472610384225845,
          0.002603159286081791,
          -0.09450184553861618,
          -0.020012788474559784,
          -0.007451998069882393,
          -0.056675251573324203,
          -0.056668784469366074,
          0.08211954683065414,
          -0.07806097716093063,
          0.029091225937008858,
          0.09966040402650833,
          0.015187923796474934,
          -0.02993079647421837,
          0.06336699426174164,
          0.02902493067085743,
          0.03300373628735542,
          -0.039643920958042145,
          -0.0523693673312664,
          0.03030339814722538,
          -0.05884493142366409,
          0.07622546702623367,
          -0.04290488734841347,
          0.004930821713060141,
          -0.09229812771081924,
          -0.024340007454156876,
          -0.060160331428050995,
          0.07972917705774307,
          -0.06929206848144531,
          0.04720504581928253,
          -0.07919789850711823,
          -0.028226610273122787,
          -0.0268868301063776,
          -0.04647934064269066,
          0.024191899225115776,
          -0.08013398200273514,
          0.0431683249771595,
          -0.04640132933855057,
          0.028709586709737778,
          0.01545389462262392,
          -0.0018701789667829871,
          -0.004864565096795559,
          0.01250374037772417,
          0.06809642910957336,
          -0.02830655500292778,
          -0.0709458440542221,
          -0.09750454127788544,
          0.07450247555971146,
          0.10268761217594147,
          0.06630448251962662,
          -0.03808360546827316,
          -0.10332068800926208,
          0.00018949659715872258,
          0.014024844393134117,
          -0.04505234584212303,
          0.01422977540642023,
          0.029193077236413956,
          0.035321228206157684
        ],
        [
          0.1215067207813263,
          -0.047929197549819946,
          -0.08722740411758423,
          0.051458682864904404,
          -0.07643497735261917,
          0.032706860452890396,
          0.04565584659576416,
          -0.042552173137664795,
          -0.08125042915344238,
          0.04396495595574379,
          0.011771777644753456,
          0.016432687640190125,
          0.027151528745889664,
          -0.07566558569669724,
          0.01748640276491642,
          0.0023923160042613745,
          -0.00977514311671257,
          0.06774289160966873,
          0.09507257491350174,
          0.10866612941026688,
          0.0009933982510119677,
          -0.02635403349995613,
          -0.018785471096634865,
          0.04013171046972275,
          -0.016561301425099373,
          0.052800990641117096,
          -0.027329225093126297,
          -0.025505753234028816,
          0.052345309406518936,
          -0.04609004780650139,
          0.017619332298636436,
          -0.06308605521917343,
          0.08032411336898804,
          -0.017988525331020355,
          0.013014262542128563,
          0.007986143231391907,
          -0.11633948236703873,
          -0.00892888568341732,
          -0.021281111985445023,
          -0.025135835632681847,
          0.05576322227716446,
          -0.12061207741498947,
          0.06663601100444794,
          0.07456755638122559,
          0.02388458326458931,
          0.042789578437805176,
          0.08735731244087219,
          0.06135779619216919,
          0.11712060868740082,
          -0.02455279231071472,
          -0.05455435439944267,
          0.054080989211797714,
          0.0034640105441212654,
          0.041013237088918686,
          0.03750074282288551,
          -0.06870409101247787,
          -0.06310602277517319,
          0.024254830554127693,
          -0.07782706618309021,
          0.047614168375730515,
          0.08786079287528992,
          -0.08197696506977081,
          -0.05462956055998802,
          -0.0381537489593029
        ],
        [
          0.05003717169165611,
          0.05054071918129921,
          0.08228469640016556,
          -0.03874560445547104,
          0.10631350427865982,
          0.04430796205997467,
          0.133554145693779,
          0.06248132884502411,
          0.015783825889229774,
          -0.10048877447843552,
          0.010166610591113567,
          -0.09200119972229004,
          0.036459781229496,
          -0.08228050172328949,
          -0.0382610522210598,
          0.09043841809034348,
          0.03916807100176811,
          0.030454643070697784,
          -0.09791889786720276,
          0.03642302379012108,
          0.030337976291775703,
          -0.011884431354701519,
          -0.02856605499982834,
          -0.0967644676566124,
          0.00975802168250084,
          0.05824479088187218,
          0.021205270662903786,
          0.021692268550395966,
          0.031491268426179886,
          -0.009238413535058498,
          0.06719229370355606,
          -0.06869100034236908,
          -0.06820492446422577,
          -0.042800482362508774,
          -0.04595915973186493,
          0.06618858128786087,
          -0.029675524681806564,
          -0.010418899357318878,
          0.054661959409713745,
          0.08513966202735901,
          0.05035625025629997,
          0.09342014044523239,
          0.05121128261089325,
          -0.09404117614030838,
          -0.03407042846083641,
          0.06415987759828568,
          -0.08406592905521393,
          0.06518523395061493,
          -0.0036398274824023247,
          -0.02573312260210514,
          -0.056788694113492966,
          -0.020124485716223717,
          -0.014578254893422127,
          0.05475997552275658,
          -0.038994867354631424,
          -0.005805934313684702,
          -0.02564879134297371,
          -0.013073011301457882,
          0.0540466345846653,
          0.07193202525377274,
          0.1483752429485321,
          0.08868958801031113,
          -0.08773472160100937,
          -0.07228433340787888
        ],
        [
          0.0881127268075943,
          -0.06272996217012405,
          0.0760594829916954,
          -0.0001289720821660012,
          -0.034222692251205444,
          0.07265201956033707,
          0.07802852988243103,
          -0.05911204218864441,
          -0.010926371440291405,
          0.1143951341509819,
          0.045094650238752365,
          -0.08168494701385498,
          0.02254834584891796,
          -0.06885159015655518,
          -0.05602796748280525,
          -0.05311688780784607,
          0.020419079810380936,
          -0.02477463334798813,
          -0.08492371439933777,
          0.04832880198955536,
          0.05995291471481323,
          -0.03913123160600662,
          0.06942744553089142,
          0.06152922660112381,
          -0.031446605920791626,
          -0.011753074824810028,
          -0.058469898998737335,
          -0.03398808836936951,
          -0.04488597437739372,
          0.07532636821269989,
          0.05301326513290405,
          -0.0205141119658947,
          -0.03377379849553108,
          -0.07905416190624237,
          0.06204410269856453,
          -0.03206551820039749,
          0.04735379293560982,
          0.07936329394578934,
          -0.005389517638832331,
          -0.05461529642343521,
          0.09701298922300339,
          -0.05460810288786888,
          -0.029945174232125282,
          -0.12226738035678864,
          -0.057737234979867935,
          -0.011545596644282341,
          -0.020283838734030724,
          -0.11940702795982361,
          0.0354512482881546,
          -0.09921781718730927,
          0.07019273191690445,
          0.05638495460152626,
          0.009930695407092571,
          0.03271474689245224,
          -0.019738534465432167,
          0.13871347904205322,
          0.11987290531396866,
          -0.025497889146208763,
          0.04968175292015076,
          -0.04253728687763214,
          0.046377576887607574,
          0.09092968702316284,
          -0.05362602695822716,
          0.01618763618171215
        ],
        [
          -0.026870008558034897,
          -0.03516978770494461,
          -0.1034761518239975,
          0.0010734307579696178,
          -0.017687801271677017,
          -0.03626449406147003,
          -0.08026167005300522,
          0.03641163185238838,
          -0.04826116934418678,
          0.09824744611978531,
          -0.09660124778747559,
          -0.059021852910518646,
          0.08309260755777359,
          -0.07930834591388702,
          0.06728921830654144,
          0.07112190872430801,
          -0.020748214796185493,
          0.04114048182964325,
          -0.009282051585614681,
          0.0027687351685017347,
          0.07343272864818573,
          -0.028212755918502808,
          -0.05173078179359436,
          0.013736575841903687,
          0.00797115545719862,
          -0.04508346691727638,
          -0.04292380064725876,
          0.006791378371417522,
          -0.07346051186323166,
          -0.03985157608985901,
          0.09017255902290344,
          0.059099406003952026,
          -0.05062733590602875,
          -0.023490555584430695,
          0.0881713256239891,
          0.09859520196914673,
          0.04187319800257683,
          0.040873508900403976,
          -0.02016258053481579,
          0.07502932846546173,
          -0.07538562268018723,
          -0.051097624003887177,
          -0.06059487536549568,
          -0.05697061866521835,
          0.018689127638936043,
          0.0272148996591568,
          0.0009586799424141645,
          -0.05151761323213577,
          0.0028378311544656754,
          -0.04843718931078911,
          0.009454085491597652,
          0.07071942836046219,
          -0.02719159610569477,
          0.0004774679837282747,
          0.04841575399041176,
          0.08913898468017578,
          -0.09380693733692169,
          0.05860473960638046,
          0.08398151397705078,
          -0.06790791451931,
          -0.011489305645227432,
          0.09138307720422745,
          0.04324311390519142,
          0.08412732928991318
        ],
        [
          -0.06680471450090408,
          0.08600109070539474,
          0.017627978697419167,
          0.045960087329149246,
          -0.03262461721897125,
          -0.09764984995126724,
          -0.024479517713189125,
          0.034804023802280426,
          0.001764898537658155,
          0.06055658683180809,
          0.06875345855951309,
          -0.08614911139011383,
          0.04256220534443855,
          0.03800885006785393,
          0.031420569866895676,
          -0.027427826076745987,
          0.10123024880886078,
          -0.011422446928918362,
          0.04684597998857498,
          -0.07200648635625839,
          -0.07457044720649719,
          0.06515088677406311,
          0.06484052538871765,
          0.08071481436491013,
          -0.07110381126403809,
          0.1265282779932022,
          0.06133304163813591,
          -0.056731607764959335,
          0.06296791881322861,
          -0.03850943595170975,
          0.05132238566875458,
          0.06559983640909195,
          -0.05190202221274376,
          0.008996685966849327,
          0.12111122906208038,
          -0.08492075651884079,
          -0.06776148825883865,
          0.06092063710093498,
          -0.06186092644929886,
          -0.11627791821956635,
          0.027217278257012367,
          -0.08029793947935104,
          -0.053152911365032196,
          -0.050009872764348984,
          -0.05478385463356972,
          -0.04192329943180084,
          -0.05029363930225372,
          -0.07013062387704849,
          -0.03941257297992706,
          0.07127291709184647,
          -0.010208535939455032,
          0.036263227462768555,
          -0.046030521392822266,
          0.021795710548758507,
          -0.008807457983493805,
          -0.011130202561616898,
          -0.08153045922517776,
          0.014122224412858486,
          -0.09175410121679306,
          0.1339072436094284,
          0.03325660154223442,
          0.05678917467594147,
          -0.04482339322566986,
          -0.011370486579835415
        ],
        [
          0.0017642914317548275,
          0.06292024999856949,
          -0.10455834865570068,
          0.05776898190379143,
          -0.10622924566268921,
          0.030970755964517593,
          0.037016626447439194,
          0.08130625635385513,
          0.0074404883198440075,
          0.0741305872797966,
          0.08591648191213608,
          0.062388960272073746,
          0.041699476540088654,
          -0.07835321128368378,
          0.0424405038356781,
          0.004173867404460907,
          0.09212316572666168,
          0.09786523878574371,
          0.06423643231391907,
          0.1313340663909912,
          0.05738469585776329,
          -0.07865820080041885,
          0.05513307452201843,
          0.08197583258152008,
          -0.04942261055111885,
          -0.002806269098073244,
          -0.09039974212646484,
          0.025951895862817764,
          -0.07472530007362366,
          0.037140656262636185,
          0.11604490876197815,
          0.17145971953868866,
          0.09651371091604233,
          0.07218794524669647,
          0.037702158093452454,
          -0.06641450524330139,
          -0.044233545660972595,
          0.1626051664352417,
          -0.016891682520508766,
          0.08373307436704636,
          0.046220216900110245,
          0.06128305941820145,
          0.07512146234512329,
          0.07298571616411209,
          0.011221124790608883,
          -0.002058092039078474,
          -0.075789675116539,
          0.008907399140298367,
          0.01698833703994751,
          0.023115115240216255,
          0.08158964663743973,
          -0.033910561352968216,
          -0.003971585538238287,
          0.0978531613945961,
          -0.054653599858284,
          -0.05256900191307068,
          -0.07545551657676697,
          0.08297401666641235,
          -0.011246919631958008,
          0.09221003949642181,
          0.005914950277656317,
          0.12524929642677307,
          -0.061124928295612335,
          -0.10665281862020493
        ],
        [
          -0.03180602192878723,
          -0.02771472930908203,
          -0.048057883977890015,
          0.037360936403274536,
          -0.047450948506593704,
          -0.030960747972130775,
          -0.07796081155538559,
          0.05427199974656105,
          0.010191747918725014,
          0.07878953218460083,
          0.085974782705307,
          -0.06246781349182129,
          -0.019910866394639015,
          0.02513187751173973,
          0.07588624954223633,
          -0.0649866983294487,
          0.059519268572330475,
          0.05763084813952446,
          -0.08943315595388412,
          -0.11043567210435867,
          0.03783820942044258,
          0.0710379108786583,
          -0.07933998852968216,
          0.10433467477560043,
          0.0648120865225792,
          -0.12385351210832596,
          0.017510972917079926,
          -0.08225158601999283,
          -0.04009964317083359,
          0.041590768843889236,
          0.008409707807004452,
          0.03397592157125473,
          0.0052927094511687756,
          -0.033781010657548904,
          -0.04826600104570389,
          -0.0749022588133812,
          -0.0235587190836668,
          0.003733743214979768,
          -0.022355863824486732,
          -0.054528966546058655,
          0.0272795632481575,
          -0.08103302866220474,
          -0.10369385033845901,
          -0.0273643396794796,
          0.05069389566779137,
          -0.014007007703185081,
          0.03684939444065094,
          0.07887215167284012,
          -0.03965744003653526,
          -0.06755075603723526,
          0.0015779321547597647,
          0.06675035506486893,
          -0.023270610719919205,
          0.03521549329161644,
          -0.0018015132518485188,
          -0.01360225584357977,
          0.03162967786192894,
          0.021113572642207146,
          0.07117192447185516,
          0.04208837449550629,
          0.09800387918949127,
          0.06474655866622925,
          -0.0009063081233762205,
          -0.06015543267130852
        ],
        [
          0.03449767455458641,
          -0.06876807659864426,
          -0.024014825001358986,
          -0.04025585949420929,
          0.039429958909749985,
          -0.07271573692560196,
          0.04877248406410217,
          -0.06695983558893204,
          -0.043677207082509995,
          0.052225783467292786,
          0.011750893667340279,
          0.01914351060986519,
          -0.07950881123542786,
          0.06394185870885849,
          0.01887952908873558,
          -0.016639407724142075,
          -0.08440650999546051,
          -0.016478009521961212,
          -0.04493925720453262,
          0.0984313115477562,
          -0.05541523918509483,
          0.019143810495734215,
          0.00041123770643025637,
          0.06558498740196228,
          0.07509955018758774,
          -0.06437209248542786,
          -0.05410830304026604,
          -0.0751328393816948,
          0.07747860997915268,
          -0.027379145845770836,
          0.02914704941213131,
          0.06027764454483986,
          -0.020436372607946396,
          0.032239880412817,
          0.011454152874648571,
          -0.035873234272003174,
          0.02548074908554554,
          -0.04250156879425049,
          0.06759011745452881,
          0.021310126408934593,
          0.02709752693772316,
          0.10231468826532364,
          0.026452284306287766,
          -0.004753067158162594,
          -0.00838397815823555,
          -0.026826689019799232,
          -0.0253152996301651,
          -0.0004128158907406032,
          -0.09035000205039978,
          -0.025568334385752678,
          0.011589989066123962,
          -0.026242326945066452,
          -0.05816473439335823,
          -0.048746366053819656,
          -0.04900841787457466,
          -0.021086478605866432,
          -0.06225914880633354,
          0.001116746454499662,
          -0.07937224209308624,
          0.06375621259212494,
          0.008533642627298832,
          0.013830815441906452,
          -0.033737294375896454,
          -0.05807746574282646
        ],
        [
          -0.08674048632383347,
          0.07108695805072784,
          -0.0089853061363101,
          -0.11517158150672913,
          -0.02253163605928421,
          0.07812079042196274,
          -0.11493068933486938,
          0.05854516848921776,
          0.04001688212156296,
          0.10152676701545715,
          0.014684963971376419,
          -0.04299561306834221,
          -0.04144282266497612,
          -0.09486781805753708,
          0.0030847885645926,
          0.08473487198352814,
          0.10024914145469666,
          -0.03419175371527672,
          -0.04486595466732979,
          -0.03030039183795452,
          -0.06397578120231628,
          0.07015687227249146,
          -0.12211088091135025,
          0.10094829648733139,
          0.03886136785149574,
          0.09306821972131729,
          -0.08383844047784805,
          0.026840349659323692,
          0.004407850559800863,
          0.05209198221564293,
          0.06623650342226028,
          0.05572839826345444,
          0.008331450633704662,
          0.10112880915403366,
          0.0755205973982811,
          -0.018718447536230087,
          0.09449847787618637,
          -0.015212643891572952,
          0.028978480026125908,
          0.11357240378856659,
          0.05102919042110443,
          -0.02749248594045639,
          0.01376311480998993,
          0.12626032531261444,
          -0.019701076671481133,
          0.1378404200077057,
          0.041142139583826065,
          -0.07438505440950394,
          0.043770935386419296,
          0.062518410384655,
          -0.03318583965301514,
          -0.020861433818936348,
          0.04465823993086815,
          0.08383762091398239,
          0.10813676565885544,
          -0.12942060828208923,
          -0.03913192078471184,
          -0.02415154129266739,
          0.004961747210472822,
          0.050670526921749115,
          -0.03349719196557999,
          0.0947914570569992,
          -0.05654739961028099,
          0.04244883731007576
        ],
        [
          0.012520373798906803,
          -0.010143914259970188,
          0.0753403976559639,
          -0.02279086597263813,
          -0.002869614399969578,
          0.0020448926370590925,
          -0.09968823194503784,
          -0.10611216723918915,
          0.18242065608501434,
          0.037615109235048294,
          -0.049413859844207764,
          -0.03578682616353035,
          -0.06946531683206558,
          0.07120458781719208,
          -0.02419339120388031,
          -0.07092088460922241,
          -0.10300429910421371,
          0.018181756138801575,
          0.009502607397735119,
          0.05021170154213905,
          -0.008265918120741844,
          -0.06412040442228317,
          0.02226373180747032,
          0.07377317547798157,
          0.07341983169317245,
          -0.09359479695558548,
          0.06616472452878952,
          0.005180072039365768,
          0.031567998230457306,
          0.06072348356246948,
          0.031058570370078087,
          0.006966799963265657,
          -0.06056893616914749,
          0.021815547719597816,
          0.03454309701919556,
          0.08147330582141876,
          0.057990290224552155,
          -0.021516907960176468,
          0.023125026375055313,
          0.008494390174746513,
          0.06976819038391113,
          -0.02440614439547062,
          0.0764053538441658,
          -0.051506489515304565,
          0.048682309687137604,
          -0.006619094870984554,
          -0.013177811168134212,
          0.07668548822402954,
          0.044007040560245514,
          0.012751267291605473,
          -0.04376242309808731,
          0.09905797243118286,
          0.1165512427687645,
          0.001698925974778831,
          -0.07008098065853119,
          -0.0450160875916481,
          0.015540092252194881,
          0.04174211621284485,
          0.009903671219944954,
          -0.06502747535705566,
          -0.03904980793595314,
          0.0582854188978672,
          -0.06803515553474426,
          -0.07043807953596115
        ],
        [
          -0.03333216533064842,
          -0.03909500315785408,
          -0.03915237635374069,
          0.10702040046453476,
          0.07373087853193283,
          -0.06504668295383453,
          -0.02414529025554657,
          -0.08764953166246414,
          -0.03686012700200081,
          -0.04533839598298073,
          0.04475642740726471,
          0.04045581817626953,
          -0.017407024279236794,
          -0.07973165810108185,
          -0.009620326571166515,
          0.1313939094543457,
          0.026785416528582573,
          -0.029181690886616707,
          0.10248306393623352,
          -0.04236122965812683,
          0.06910958141088486,
          0.017473425716161728,
          -0.004860809538513422,
          -0.03492863103747368,
          -0.019963929429650307,
          0.08404286205768585,
          0.09767591208219528,
          0.04467397555708885,
          0.03855977579951286,
          0.03969829902052879,
          -0.06940793246030807,
          -0.02476584166288376,
          -0.04804863780736923,
          0.057355862110853195,
          0.12250592559576035,
          0.029391247779130936,
          -0.01702549122273922,
          -0.10943926870822906,
          0.032585904002189636,
          0.09240514785051346,
          0.08609666675329208,
          0.06876759231090546,
          -0.058473266661167145,
          0.09730581194162369,
          -0.07679080963134766,
          -0.05743113532662392,
          0.08445458114147186,
          -0.020518489181995392,
          -0.018962224945425987,
          0.06723371893167496,
          -0.02577376365661621,
          -0.05730769783258438,
          -0.03176150470972061,
          -0.08529344946146011,
          -0.029753513634204865,
          -0.0008578250999562442,
          0.08462605625391006,
          -0.038733694702386856,
          -0.018154289573431015,
          -0.004713649395853281,
          0.06726320087909698,
          0.08784566074609756,
          -0.053375497460365295,
          0.044090647250413895
        ],
        [
          0.05121384561061859,
          0.12426337599754333,
          -0.12882153689861298,
          -0.05016801133751869,
          -0.026387978345155716,
          -0.08933720737695694,
          0.05558621883392334,
          0.11450415849685669,
          0.04120930656790733,
          0.04550684988498688,
          -0.022991493344306946,
          -0.06258813291788101,
          -0.005877214018255472,
          0.009219951927661896,
          0.05202164128422737,
          0.01697888784110546,
          -0.05631290003657341,
          0.0719030499458313,
          -0.08390391618013382,
          -0.00676406966522336,
          0.00865364819765091,
          -0.0753302276134491,
          -0.03392617031931877,
          -0.05771004408597946,
          0.07603254914283752,
          -0.06497299671173096,
          -0.08247698098421097,
          0.05773163214325905,
          -0.07000100612640381,
          -0.05318823456764221,
          0.0064039104618132114,
          0.00864297803491354,
          -0.05583048239350319,
          -0.03309383988380432,
          0.0638585090637207,
          0.016667960211634636,
          -0.04954502731561661,
          0.031519815325737,
          0.03614253178238869,
          0.030109956860542297,
          -0.06495863199234009,
          0.00803436990827322,
          -0.05094565823674202,
          0.0328197106719017,
          0.060469724237918854,
          0.06375065445899963,
          0.06439164280891418,
          0.01642182469367981,
          0.078482985496521,
          -0.04525868222117424,
          0.05353400856256485,
          -0.02276400849223137,
          -0.07095647603273392,
          -0.031110865995287895,
          0.043739862740039825,
          -0.019365638494491577,
          -0.09648176282644272,
          0.07276017963886261,
          0.0830082893371582,
          -0.008094399236142635,
          0.03709753602743149,
          0.11139194667339325,
          -0.008451689034700394,
          -0.036651574075222015
        ],
        [
          -0.1355666071176529,
          -0.0513247512280941,
          -0.04119640961289406,
          0.08708392828702927,
          0.021069133654236794,
          0.027210529893636703,
          -0.04785721376538277,
          -0.07035941630601883,
          0.03076249547302723,
          -0.08804062008857727,
          0.08192455023527145,
          0.04420190677046776,
          0.049874190241098404,
          -0.0333000086247921,
          -0.03393562510609627,
          -0.0016958367777988315,
          -0.04399256035685539,
          -0.06986834108829498,
          0.03393931686878204,
          -0.02706049382686615,
          -0.013416042551398277,
          -0.16462352871894836,
          0.016048917546868324,
          0.09755109995603561,
          0.02991136536002159,
          0.11606700718402863,
          0.11878853291273117,
          -0.0853828564286232,
          0.1176576241850853,
          0.07539325952529907,
          0.0576629713177681,
          0.10667578130960464,
          0.07013889402151108,
          0.08402381092309952,
          -0.08424344658851624,
          -0.06911906599998474,
          0.06078418716788292,
          -0.12764795124530792,
          -0.04555889219045639,
          -0.05288764834403992,
          0.020175663754343987,
          -0.10160733014345169,
          0.07984140515327454,
          0.09367647022008896,
          -0.05960863456130028,
          -0.08997749537229538,
          -0.00955504272133112,
          0.09653736650943756,
          -0.058839403092861176,
          0.041825953871011734,
          0.04283646121621132,
          0.09532247483730316,
          0.09887684136629105,
          0.07678762823343277,
          -0.04549540579319,
          0.07486949861049652,
          0.09964844584465027,
          0.050122980028390884,
          -0.036075178533792496,
          -0.08803411573171616,
          -0.009153366088867188,
          -0.07686491310596466,
          -0.053494229912757874,
          0.11117738485336304
        ],
        [
          -0.011592813767492771,
          -0.03767700493335724,
          -0.011058079078793526,
          -0.08940432965755463,
          0.07975653558969498,
          -0.007615529932081699,
          0.02267860807478428,
          0.10274907946586609,
          0.03219520300626755,
          -0.015746328979730606,
          0.050676167011260986,
          -0.02196923829615116,
          -0.05156954750418663,
          -0.1316731721162796,
          0.05334489792585373,
          0.030162639915943146,
          0.07079249620437622,
          0.061682283878326416,
          0.07882975041866302,
          0.0033349045552313328,
          -0.03897170349955559,
          -0.05641249194741249,
          -0.01831132546067238,
          0.06805351376533508,
          0.0694454088807106,
          -0.011477770283818245,
          -0.06672903150320053,
          -0.07540372759103775,
          -0.007721255533397198,
          -0.03019268438220024,
          0.044121719896793365,
          0.09340447187423706,
          0.03924361988902092,
          0.003805236192420125,
          -0.012763996608555317,
          0.003303278237581253,
          -0.03592688962817192,
          0.07376474142074585,
          0.05576932057738304,
          -0.020874587818980217,
          -0.013765094801783562,
          -0.026518074795603752,
          -0.08563994616270065,
          0.016430584713816643,
          -0.08205543458461761,
          0.07505788654088974,
          -0.0394846647977829,
          -0.08721160888671875,
          0.0384339801967144,
          -0.00904166605323553,
          -0.00733987195417285,
          -0.055651094764471054,
          0.08777511119842529,
          -0.02496611513197422,
          -0.03256172314286232,
          0.09263966232538223,
          0.10944506525993347,
          0.006974130868911743,
          0.09413867443799973,
          0.0078034475445747375,
          -0.0004286200273782015,
          0.07120002806186676,
          -0.07680198550224304,
          -0.0053409975953400135
        ],
        [
          0.05613452196121216,
          -0.09660126268863678,
          -0.02040950208902359,
          -0.11768322438001633,
          0.008919359184801579,
          0.1071895956993103,
          0.021327583119273186,
          -0.02202911302447319,
          0.020409896969795227,
          -0.11884722113609314,
          0.03640946000814438,
          0.0968548059463501,
          0.05322550609707832,
          0.011851300485432148,
          -0.12227890640497208,
          -0.03264693543314934,
          -0.04688045009970665,
          0.11737921088933945,
          0.03832623362541199,
          0.04045955091714859,
          -0.08642133325338364,
          0.07615819573402405,
          -0.015081019140779972,
          0.0982230082154274,
          -0.09358910471200943,
          0.07921373844146729,
          0.011055967770516872,
          0.08022620528936386,
          -0.12437088042497635,
          0.04586842283606529,
          -0.11862508207559586,
          0.08950859308242798,
          0.023096146062016487,
          -0.04329551011323929,
          0.030513223260641098,
          0.05036454647779465,
          0.06860057264566422,
          -0.05983186885714531,
          -0.03785384073853493,
          -0.07675851881504059,
          -0.08261051774024963,
