{
  "layers": [
    {
      "type": "dense",
      "in_size": 128,
      "out_size": 256,
      "activation": "softmax",
      "weights": [
        [
          0.05356317758560181,
          0.06362675130367279,
          -0.04728415608406067,
          -0.04069984704256058,
          -0.017477866262197495,
          0.01971864514052868,
          0.03690386563539505,
          -0.005650475155562162,
          0.017278222367167473,
          -0.008535110391676426,
          0.0053426772356033325,
          -0.03733374923467636,
          0.056279316544532776,
          0.025835828855633736,
          -0.01855723187327385,
          -0.0299411341547966,
          0.008491596207022667,
          -0.0371992401778698,
          -0.03883984684944153,
          0.019621338695287704,
          -0.00655833724886179,
          -0.027856435626745224,
          0.01324374321848154,
          0.0006724142585881054,
          -0.030312906950712204,
          -0.03446021303534508,
          0.006389535032212734,
          -0.06075194105505943,
          0.0009924093028530478,
          -0.016839835792779922,
          -0.02387092448771,
          0.0343632735311985,
          0.006595892831683159,
          -0.013392047956585884,
          -0.0008639240404590964,
          0.0060402448289096355,
          0.015309843234717846,
          0.0025565435644239187,
          0.021183470264077187,
          0.04428505897521973,
          0.03963405638933182,
          0.019429029896855354,
          -0.04499940574169159,
          -0.019193977117538452,
          0.01743529736995697,
          -0.0083289984613657,
          -0.07871589064598083,
          0.03949088230729103,
          -0.05139285698533058,
          0.02227960340678692,
          0.02518237940967083,
          -0.017553534358739853,
          0.021206429228186607,
          -0.04466203600168228,
          -0.07809840887784958,
          -0.026502253487706184,
          -0.06890364736318588,
          -0.043796319514513016,
          -0.02107205241918564,
          -0.04908176511526108,
          -0.0509958416223526,
          -0.05361456796526909,
          -0.017926933243870735,
          -0.0380745455622673,
          -0.051702823489904404,
          0.011528773233294487,
          0.020005369558930397,
          0.03521320968866348,
          -0.059897251427173615,
          -0.018189935013651848,
          -0.020951174199581146,
          -0.015307613648474216,
          0.025119096040725708,
          0.04697377607226372,
          -0.028592238202691078,
          0.03211069479584694,
          0.025753997266292572,
          -0.012173744849860668,
          0.02584039233624935,
          -0.02125377394258976,
          0.012395946308970451,
          0.018744008615612984,
          -0.07095568627119064,
          -0.05487477779388428,
          0.010812141001224518,
          0.012187989428639412,
          -0.02111569419503212,
          0.04062822833657265,
          0.037325721234083176,
          0.03649158030748367,
          -0.07969023287296295,
          -0.024628691375255585,
          -0.02734902687370777,
          0.045383092015981674,
          -0.038257211446762085,
          -0.05684656649827957,
          -0.027243241667747498,
          0.0052635809406638145,
          -0.036209531128406525,
          -0.007822702638804913,
          0.05616496130824089,
          0.00922342948615551,
          -0.02493475377559662,
          0.02582857571542263,
          0.0017807799158617854,
          -0.004846404772251844,
          -0.00919064786285162,
          -0.013164539821445942,
          0.0051269615069031715,
          0.0286533385515213,
          -0.04713747277855873,
          0.0140504976734519,
          -0.01847943104803562,
          0.039544831961393356,
          0.03203745186328888,
          -0.04250672832131386,
          0.01136192586272955,
          -0.051117848604917526,
          0.06753405183553696,
          0.016040034592151642,
          -0.07113073021173477,
          -0.019742870703339577,
          -0.04364413768053055,
          0.034987423568964005,
          0.015437660738825798,
          -0.07207559794187546,
          0.04956820234656334,
          0.0394008569419384
        ],
        [
          -0.018410341814160347,
          0.005339642520993948,
          -0.04065511003136635,
          -0.04713629558682442,
          -0.05562426522374153,
          -0.013987024314701557,
          -0.043371882289648056,
          0.033156562596559525,
          -0.07270383834838867,
          -0.05389558523893356,
          -0.008426415733993053,
          0.054637689143419266,
          0.058652084320783615,
          -0.032330166548490524,
          0.05490749701857567,
          -0.05522100254893303,
          0.03402593731880188,
          -0.040537796914577484,
          -0.03037000633776188,
          -0.0547015406191349,
          0.00706173712387681,
          0.0521680973470211,
          -0.010629072785377502,
          0.07608792185783386,
          -0.0523260235786438,
          0.0597606860101223,
          0.011597185395658016,
          -0.033906642347574234,
          -0.054441504180431366,
          0.007053747773170471,
          -0.026704449206590652,
          0.07495436817407608,
          -0.0358487069606781,
          0.03722736984491348,
          -0.04391961544752121,
          -0.03273516520857811,
          0.07323901355266571,
          -0.01476688776165247,
          0.06532279402017593,
          0.07066808640956879,
          -0.03266255557537079,
          0.05906924977898598,
          -0.028326669707894325,
          0.016027506440877914,
          -0.006574318744242191,
          -0.048511091619729996,
          0.0311348307877779,
          -0.0014257291331887245,
          -0.006575342267751694,
          0.05788952857255936,
          0.06630582362413406,
          0.004896906204521656,
          -0.06821944564580917,
          -0.009540757164359093,
          0.08738737553358078,
          0.021055880934000015,
          0.032922666519880295,
          0.047312766313552856,
          -0.06522447615861893,
          -0.028781604021787643,
          0.027350757271051407,
          0.021467408165335655,
          -0.021836543455719948,
          0.03654751554131508,
          0.038958899676799774,
          -0.006911790929734707,
          0.014312264509499073,
          0.01746145449578762,
          0.024655358865857124,
          -0.013298923149704933,
          -0.044727176427841187,
          0.006259717512875795,
          0.06258348375558853,
          -0.07159891724586487,
          0.021064406260848045,
          0.052782442420721054,
          -0.08424508571624756,
          -0.019351830706000328,
          -0.02604515291750431,
          0.06858385354280472,
          -0.0743429884314537,
          0.032675571739673615,
          -0.02571903169155121,
          -0.03975805640220642,
          -0.017382344231009483,
          -0.05649857968091965,
          0.02087726630270481,
          0.02465927228331566,
          -0.03933070972561836,
          0.03346589207649231,
          0.02248423546552658,
          0.005105861462652683,
          -0.022966288030147552,
          -0.02681896463036537,
          -0.0060948957689106464,
          -0.008250301703810692,
          -0.007404461037367582,
          -0.009357646107673645,
          -0.04163142666220665,
          0.005709644872695208,
          -0.0057676369324326515,
          0.02962247096002102,
          -0.011165488511323929,
          0.044917844235897064,
          -0.057748086750507355,
          0.02603708580136299,
          0.011289519257843494,
          -0.0015155305154621601,
          0.030483348295092583,
          -0.03424431383609772,
          -0.04560354724526405,
          -0.03880628943443298,
          -0.022464141249656677,
          0.04140879213809967,
          0.009173514321446419,
          0.032348960638046265,
          0.012753067538142204,
          -0.05049614608287811,
          0.08022071421146393,
          -0.06141887977719307,
          0.038252051919698715,
          -0.028224090114235878,
          0.004569950047880411,
          0.006009126082062721,
          -0.03328752517700195,
          0.0044872211292386055,
          -0.007400914561003447,
          -0.01944582909345627
        ],
        [
          -0.00046342459972947836,
          0.05901830643415451,
          -0.020467609167099,
          0.016657400876283646,
          -0.07587883621454239,
          0.01732497476041317,
          -0.04118012264370918,
          0.05676279589533806,
          -0.02061374858021736,
          0.07885818183422089,
          0.048609402030706406,
          0.012374699115753174,
          0.06829871982336044,
          -0.023761531338095665,
          -0.013276568613946438,
          -0.06299775093793869,
          0.03855296969413757,
          -0.05704155191779137,
          0.02984873577952385,
          -0.00022085645468905568,
          -0.018813032656908035,
          -0.014116283506155014,
          -0.04499301314353943,
          0.010633743368089199,
          0.010428277775645256,
          0.06551317125558853,
          0.07152527570724487,
          0.019124286249279976,
          0.04631681367754936,
          0.005991957616060972,
          0.049755197018384933,
          0.04090018942952156,
          0.004420743323862553,
          0.015048067085444927,
          -0.021431028842926025,
          0.023033322766423225,
          0.026923980563879013,
          -0.054526954889297485,
          -0.011983789503574371,
          0.05513865128159523,
          -0.03169132024049759,
          -0.02925773896276951,
          0.028554299846291542,
          -0.04132278263568878,
          -0.006454481277614832,
          0.04045407846570015,
          0.043106552213430405,
          0.08213574439287186,
          -0.037798307836055756,
          -0.07584527134895325,
          0.00032208370976150036,
          0.011407332494854927,
          0.08229383826255798,
          -0.017435770481824875,
          -0.022290971130132675,
          0.004797086119651794,
          0.04941854625940323,
          0.039043739438056946,
          0.006296277046203613,
          0.00014917502994649112,
          -0.01687789522111416,
          0.025472812354564667,
          0.01584734581410885,
          0.06497860699892044,
          -0.021826451644301414,
          0.04282540827989578,
          0.074274942278862,
          -0.036962080746889114,
          -0.013750138692557812,
          -0.00409560464322567,
          -0.014571554958820343,
          0.026927297934889793,
          0.020192837342619896,
          0.015389371663331985,
          0.05092095956206322,
          -0.04788846895098686,
          0.04149957746267319,
          -0.05942540243268013,
          -0.024989070370793343,
          0.051041703671216965,
          0.05025585740804672,
          -0.0003756788501050323,
          -0.03664809465408325,
          -0.014018264599144459,
          -0.00029808998806402087,
          -0.034656934440135956,
          0.019714230671525,
          0.005117630586028099,
          -0.006638392340391874,
          0.01631755381822586,
          -0.021699946373701096,
          -0.030082838609814644,
          -0.0933535173535347,
          -0.08158107101917267,
          -0.020804952830076218,
          0.06591568142175674,
          -0.03304901719093323,
          0.0141812264919281,
          -0.06497585028409958,
          0.000381949677830562,
          -0.005975067149847746,
          0.01971682719886303,
          -0.020516052842140198,
          0.026133663952350616,
          -0.012676334008574486,
          0.06678406894207001,
          -0.027256453409790993,
          0.03513473644852638,
          0.025213822722434998,
          -0.07410062104463577,
          -0.0762861967086792,
          -0.05541696399450302,
          0.058717381209135056,
          -0.04974870756268501,
          -0.0397307388484478,
          0.001140965847298503,
          -0.012044178321957588,
          0.054354775696992874,
          0.0023700357414782047,
          -0.01459847204387188,
          -0.07036004960536957,
          -0.05435914173722267,
          -0.0523253008723259,
          -0.011265012435615063,
          -0.025433249771595,
          0.03332739323377609,
          -0.0026632410008460283,
          0.04786498472094536
        ],
        [
          0.0687653049826622,
          0.004081241320818663,
          0.02341403253376484,
          -0.031278789043426514,
          -0.05766409635543823,
          -0.00216282089240849,
          -0.07179968804121017,
          0.043636877089738846,
          -0.021622171625494957,
          0.02215852029621601,
          0.04274781048297882,
          0.045807771384716034,
          -0.04381198436021805,
          0.03378767892718315,
          0.004650937393307686,
          0.014587178826332092,
          -0.01482491847127676,
          -0.019428711384534836,
          -0.058222558349370956,
          -0.01651398465037346,
          -0.01165726501494646,
          -0.04478413611650467,
          0.04778354614973068,
          0.008262953720986843,
          -0.08149421215057373,
          -0.042552199214696884,
          -0.04985043779015541,
          0.008932854048907757,
          -0.02082737907767296,
          0.014321597293019295,
          -6.649346323683858e-05,
          -0.015114380046725273,
          0.07103648781776428,
          -0.01902957074344158,
          -0.0060607269406318665,
          0.05641116946935654,
          0.032249365001916885,
          0.044212255626916885,
          0.039002202451229095,
          -0.024616435170173645,
          0.005161487963050604,
          0.009604241698980331,
          -0.048558544367551804,
          -0.04284985736012459,
          0.00018478652054909617,
          -0.05388012155890465,
          -0.03897528722882271,
          -0.019895555451512337,
          0.020181426778435707,
          0.00790030974894762,
          -0.0173020176589489,
          -0.028331926092505455,
          0.0065970695577561855,
          -0.06085731089115143,
          -0.05487057566642761,
          -0.014318687841296196,
          0.07831670343875885,
          -0.029532475396990776,
          0.018719863146543503,
          -0.03360290825366974,
          -0.05971740186214447,
          -0.05410076305270195,
          0.05489015951752663,
          0.06537891179323196,
          -0.004029646050184965,
          0.04462997987866402,
          0.05717124789953232,
          -0.02676713839173317,
          0.04679349064826965,
          -0.051253631711006165,
          0.05641379952430725,
          0.029933840036392212,
          0.01900017075240612,
          -0.02598586305975914,
          -0.033926766365766525,
          -0.049085889011621475,
          0.026396969333291054,
          0.03827233240008354,
          0.04691325128078461,
          0.0625312402844429,
          0.02722662314772606,
          -0.10870762914419174,
          -0.038203250616788864,
          -0.08598634600639343,
          -0.015998171642422676,
          -0.054887156933546066,
          0.0449724905192852,
          0.014951790682971478,
          -0.048760902136564255,
          0.03761440888047218,
          0.006830264814198017,
          0.02417805977165699,
          0.06325191259384155,
          -0.039084140211343765,
          -0.04204264283180237,
          0.00010555988410487771,
          -0.08934836834669113,
          -0.07861869037151337,
          -0.07570349425077438,
          0.07114839553833008,
          -0.0017704700585454702,
          -0.06901097297668457,
          0.016899900510907173,
          -0.04166579246520996,
          -0.0075617446564137936,
          0.018489744514226913,
          0.07124157249927521,
          0.013816452585160732,
          -0.012750380672514439,
          0.06201143190264702,
          0.036391012370586395,
          0.06808522343635559,
          0.012058001011610031,
          0.020562877878546715,
          -0.04684726893901825,
          -0.03693557530641556,
          -0.06924552470445633,
          -0.013440122827887535,
          0.04082155227661133,
          -0.0722140297293663,
          -0.07700450718402863,
          0.09151850640773773,
          -0.022509051486849785,
          0.02720145508646965,
          -0.037340130656957626,
          -0.002789468504488468,
          0.028645241633057594,
          -0.018799010664224625
        ],
        [
          0.029385078698396683,
          -0.054750483483076096,
          -0.01112415175884962,
          0.07978947460651398,
          0.022208791226148605,
          -0.019735444337129593,
          -0.02829142101109028,
          -0.10212770849466324,
          0.005517436191439629,
          -0.025497086346149445,
          0.033394571393728256,
          -0.05672246217727661,
          -0.0018921109149232507,
          -0.02333991974592209,
          -0.06408730894327164,
          0.021599121391773224,
          0.006214512512087822,
          -0.016920510679483414,
          0.0784664899110794,
          0.041000016033649445,
          -0.07754414528608322,
          0.04021191596984863,
          -0.04879029095172882,
          0.039066117256879807,
          -0.0015505050541833043,
          0.04923690855503082,
          0.09981980174779892,
          0.045766957104206085,
          -0.022127004340291023,
          0.04078002646565437,
          0.04843854159116745,
          0.013982471078634262,
          0.06461138278245926,
          -0.050228118896484375,
          0.050962768495082855,
          0.023480989038944244,
          -0.042773012071847916,
          -0.05937173590064049,
          -0.027579093351960182,
          -0.031622014939785004,
          -0.04039886221289635,
          -0.07132338732481003,
          -0.06052761524915695,
          -0.0420597605407238,
          -0.04216901957988739,
          0.060772236436605453,
          -0.08113782107830048,
          0.0059449938125908375,
          -0.08831121027469635,
          0.03203486651182175,
          -0.035699788480997086,
          -0.015476616099476814,
          0.0853135883808136,
          0.08625269681215286,
          0.05867524817585945,
          0.027742469683289528,
          -0.04389036446809769,
          -0.03753482922911644,
          -0.016582803800702095,
          0.021763738244771957,
          0.016405455768108368,
          0.03735180199146271,
          0.044164031744003296,
          0.039691243320703506,
          0.022543802857398987,
          0.07453232258558273,
          0.07280244678258896,
          -0.037256110459566116,
          -0.034203577786684036,
          0.05724940821528435,
          0.008269824087619781,
          -0.06539460271596909,
          0.06853555887937546,
          0.03395037353038788,
          -0.01856868900358677,
          0.026033993810415268,
          -0.008485541678965092,
          -0.05398067459464073,
          0.07362562417984009,
          0.004925770219415426,
          -0.006696611642837524,
          -0.1305544674396515,
          -0.07318679988384247,
          -0.07113685458898544,
          0.08092924952507019,
          0.004498808644711971,
          0.011985691264271736,
          0.019569985568523407,
          -0.02069682814180851,
          0.009866176173090935,
          -0.029275503009557724,
          -0.030063821002840996,
          0.010414967313408852,
          -0.039404962211847305,
          -0.05768841132521629,
          0.06775660067796707,
          0.0015222459333017468,
          0.07565487176179886,
          -0.00660264166072011,
          0.01678779348731041,
          0.09197381883859634,
          -0.1023964062333107,
          -0.07682438939809799,
          -0.017617562785744667,
          -0.03823038190603256,
          0.09902089089155197,
          -0.016891026869416237,
          0.01635253243148327,
          0.06791485100984573,
          -0.04730626940727234,
          -0.05273301899433136,
          -0.02311132661998272,
          -0.01592869684100151,
          0.031224993988871574,
          0.07061788439750671,
          -0.002800018759444356,
          0.035260505974292755,
          -0.012344608083367348,
          0.025753486901521683,
          0.08157689869403839,
          -0.05621311068534851,
          0.00836098100990057,
          -0.05385524779558182,
          -0.051048848778009415,
          -0.0053040580824017525,
          0.06010640040040016,
          -0.08224877715110779,
          -0.04032844677567482
        ],
        [
          -0.08654851466417313,
          0.04725019261240959,
          0.04874291270971298,
          0.047076497226953506,
          0.06508804112672806,
          0.0704951286315918,
          0.03172959014773369,
          -0.044412434101104736,
          0.03291574493050575,
          0.0791126936674118,
          0.020239340141415596,
          0.06285826116800308,
          -0.02647671289741993,
          0.038643382489681244,
          -0.010337220504879951,
          -0.05287136882543564,
          -0.028804868459701538,
          0.05451425537467003,
          0.04790563881397247,
          -0.004279403947293758,
          -0.011730020865797997,
          0.007779153063893318,
          0.05318095162510872,
          0.0019637339282780886,
          0.01755107007920742,
          0.06038912013173103,
          -0.09378683567047119,
          0.050038307905197144,
          -0.01372731477022171,
          0.02540881372988224,
          0.04257940873503685,
          -0.08123369514942169,
          -0.03171596676111221,
          0.08804404735565186,
          -0.013875266537070274,
          -0.04490930959582329,
          -0.05201875418424606,
          -0.012878655456006527,
          -0.0647415965795517,
          -0.04402428865432739,
          -0.07194589823484421,
          -0.004895299673080444,
          -0.06285005062818527,
          -0.034080296754837036,
          0.028984354808926582,
          -0.01075830403715372,
          -0.018315941095352173,
          0.04882862791419029,
          -0.017252130433917046,
          -0.06011508032679558,
          -0.04973825067281723,
          -0.07539425790309906,
          0.03012276440858841,
          -0.018524806946516037,
          0.013506520539522171,
          0.05732196196913719,
          0.023374639451503754,
          -0.04474063217639923,
          0.0013107557315379381,
          -0.017695223912596703,
          0.1531890332698822,
          0.00999520719051361,
          -0.0076982141472399235,
          -0.07055895030498505,
          0.0024966869968920946,
          0.044391386210918427,
          0.10649392753839493,
          -0.04321791231632233,
          -0.025639981031417847,
          -0.025532331317663193,
          0.0009328570449724793,
          0.012244291603565216,
          -0.030184483155608177,
          0.0007466956740245223,
          -0.016418354585766792,
          -0.06516695767641068,
          -0.06088448315858841,
          -0.038152940571308136,
          -0.0076239402405917645,
          -0.04422379285097122,
          0.05427905544638634,
          0.0001705428003333509,
          -0.05856302008032799,
          -0.05206367000937462,
          -0.007223690394312143,
          0.06608570367097855,
          -0.0698109045624733,
          -0.0368095263838768,
          0.10825551301240921,
          -0.05413571000099182,
          -0.028284600004553795,
          0.010651851072907448,
          0.0034565930254757404,
          0.011159676127135754,
          -0.003497169818729162,
          0.04238607734441757,
          -0.07093408703804016,
          0.11174651980400085,
          -0.05912357196211815,
          0.004449320957064629,
          0.07926306128501892,
          0.009905467741191387,
          0.0074566383846104145,
          -0.08579330891370773,
          -0.01067581307142973,
          -0.06716503947973251,
          -0.061154384166002274,
          0.055889371782541275,
          0.010250537656247616,
          -0.03816119208931923,
          -0.030705038458108902,
          0.06634892523288727,
          -0.036814671009778976,
          -0.047100719064474106,
          0.03586585447192192,
          -0.03583068773150444,
          0.0590117983520031,
          0.05529853329062462,
          0.0004583858826663345,
          0.04344096779823303,
          0.0229942724108696,
          -0.015820881351828575,
          0.0035763124469667673,
          0.015098975971341133,
          -0.025534840300679207,
          -0.060477618128061295,
          -0.08290841430425644,
          -0.0275128073990345
        ],
        [
          -0.06292968988418579,
          0.020039860159158707,
          0.015984661877155304,
          -0.039674900472164154,
          0.04332267493009567,
          0.02665853314101696,
          0.02004462666809559,
          -0.021160971373319626,
          0.005567195825278759,
          -0.009663460776209831,
          0.034304894506931305,
          -0.06802873313426971,
          0.07630011439323425,
          -0.02821490727365017,
          0.05829950422048569,
          -0.022639930248260498,
          0.010677113197743893,
          0.11724048852920532,
          0.035038791596889496,
          0.0506834052503109,
          0.03523935005068779,
          0.018941860646009445,
          -0.03278852254152298,
          0.00760783301666379,
          0.038859594613313675,
          0.025938544422388077,
          0.048819199204444885,
          -0.06697487086057663,
          0.06350505352020264,
          0.013632059097290039,
          -0.04711698368191719,
          0.054214075207710266,
          0.08520501852035522,
          -0.005305088125169277,
          -0.014144155196845531,
          0.04501841589808464,
          0.018454380333423615,
          -0.003322521224617958,
          0.056636177003383636,
          -0.042927514761686325,
          -0.03713833540678024,
          0.02670612931251526,
          -0.04179001599550247,
          0.05959243327379227,
          0.08576126396656036,
          0.03457115963101387,
          -0.010481445118784904,
          -0.03313537314534187,
          0.009169421158730984,
          0.05480397492647171,
          -0.041754815727472305,
          -0.06900590658187866,
          0.01814156211912632,
          0.1014014184474945,
          -0.03855935111641884,
          0.019825687631964684,
          0.009778785519301891,
          -0.0413106270134449,
          0.07114216685295105,
          -0.06402215361595154,
          0.03279053419828415,
          -0.03028124012053013,
          -0.0058003016747534275,
          -0.005668305326253176,
          -0.004668595269322395,
          0.05664223060011864,
          -0.01196652464568615,
          -0.027543392032384872,
          0.06747658550739288,
          0.015311685390770435,
          -0.049095962196588516,
          -0.01300568226724863,
          -0.07825330644845963,
          -0.017865844070911407,
          0.03936905413866043,
          0.023968946188688278,
          -0.02771250158548355,
          0.06107550859451294,
          0.10123774409294128,
          0.011244713328778744,
          0.06045382097363472,
          0.013409966602921486,
          0.07135899364948273,
          0.05952344089746475,
          -0.018280960619449615,
          -0.013997799716889858,
          -0.1122317835688591,
          0.006634922698140144,
          -0.03327455371618271,
          -0.05926714465022087,
          0.046062495559453964,
          0.044108785688877106,
          0.013517918065190315,
          -0.013173275627195835,
          0.05317390337586403,
          -0.03294721618294716,
          -0.08398789912462234,
          -0.038791004568338394,
          0.008347107097506523,
          -0.01901308074593544,
          -0.018443910405039787,
          -0.0012300964444875717,
          0.002375910757109523,
          -0.058771051466464996,
          -0.01137059461325407,
          0.01132259238511324,
          0.08657090365886688,
          0.032749880105257034,
          -0.08193638175725937,
          -0.015911871567368507,
          -0.019767634570598602,
          -0.01627114787697792,
          0.0426706001162529,
          0.041739318519830704,
          -0.006502025760710239,
          0.04711116850376129,
          0.046525534242391586,
          0.02034805715084076,
          0.029663005843758583,
          0.025874290615320206,
          0.04498497396707535,
          0.027852801606059074,
          -0.024322424083948135,
          0.012630080804228783,
          -0.08815208077430725,
          0.022641070187091827,
          -0.08175525814294815,
          -0.014140868559479713
        ],
        [
          0.05034388601779938,
          -0.02493574656546116,
          0.005485698580741882,
          0.026764720678329468,
          -0.04973333701491356,
          -0.009248748421669006,
          -0.08552265912294388,
          -0.08814844489097595,
          -0.06461653858423233,
          -0.032366834580898285,
          -0.05102591961622238,
          -0.033270176500082016,
          0.014497095718979836,
          -0.03387714922428131,
          -0.016322394832968712,
          0.0809188038110733,
          -0.005347146186977625,
          -0.001663592061959207,
          0.034224823117256165,
          -0.007645330857485533,
          -0.02773219160735607,
          -0.03884517028927803,
          -0.011006645858287811,
          0.07709915935993195,
          -0.026869941502809525,
          -0.034888699650764465,
          -0.052721019834280014,
          -0.001579661970026791,
          -0.08041425794363022,
          0.014054110273718834,
          -0.041887834668159485,
          0.026440033689141273,
          0.029278947040438652,
          -0.04360008239746094,
          0.05705269053578377,
          -0.03101353347301483,
          0.026391636580228806,
          -0.024701645597815514,
          0.0006955064600333571,
          -0.018309077247977257,
          0.03354426100850105,
          0.01851179637014866,
          -0.05793715640902519,
          0.06387268751859665,
          -0.028375444933772087,
          -0.0128543796017766,
          -0.014019349589943886,
          0.027417050674557686,
          -0.03785892575979233,
          0.07009169459342957,
          0.02048293501138687,
          0.0003722719557117671,
          -0.06290198117494583,
          -0.017002910375595093,
          0.01586851291358471,
          0.029855018481612206,
          0.03358931466937065,
          0.07746779918670654,
          0.030931323766708374,
          0.05223741754889488,
          0.053586650639772415,
          0.06525861471891403,
          -0.03368761017918587,
          0.0036031240597367287,
          0.02546507678925991,
          0.092518150806427,
          0.03206251561641693,
          -0.04875515401363373,
          0.027904991060495377,
          0.052671752870082855,
          -0.0649062916636467,
          -0.00429955730214715,
          0.00688888318836689,
          0.02003023400902748,
          -0.05639473348855972,
          0.002578055951744318,
          -0.06194235011935234,
          0.0017055717762559652,
          -0.06296689063310623,
          0.0661889910697937,
          -0.010043644346296787,
          -0.010728402063250542,
          0.06216130778193474,
          -0.05624062195420265,
          0.027976088225841522,
          0.039010509848594666,
          -0.05277213826775551,
          -0.10090113431215286,
          -0.07827300578355789,
          -0.080703504383564,
          0.06937525421380997,
          -0.09394010901451111,
          -0.0029865249525755644,
          -0.008276144973933697,
          -0.05798949673771858,
          -0.05463390424847603,
          -0.03621166944503784,
          0.00778427068144083,
          0.009490173310041428,
          -0.020633820444345474,
          -0.046057846397161484,
          -0.0939055010676384,
          -0.037289880216121674,
          0.03136337921023369,
          0.05238993838429451,
          -0.06173761188983917,
          -0.0300309918820858,
          0.01858999952673912,
          0.012890639714896679,
          0.07820677757263184,
          0.00877582747489214,
          0.05710746347904205,
          0.07812906801700592,
          0.044220712035894394,
          -0.015798013657331467,
          -0.010345651768147945,
          0.001800714759156108,
          -0.06059441715478897,
          0.09891047328710556,
          0.02936515025794506,
          0.022892238572239876,
          0.010396517813205719,
          -0.05049858242273331,
          0.04220875725150108,
          0.0031860205344855785,
          -0.006043471395969391,
          0.03275283798575401,
          0.10006064921617508
        ],
        [
          0.0020140516571700573,
          -0.016650758683681488,
          -0.001420315820723772,
          0.03240083530545235,
          0.026665400713682175,
          0.08535680919885635,
          0.03480004146695137,
          0.03536823391914368,
          0.012309452518820763,
          -0.017257485538721085,
          0.059303220361471176,
          0.053316667675971985,
          -0.06549658626317978,
          0.026041578501462936,
          0.07479819655418396,
          -0.022058846428990364,
          0.0013507241383194923,
          -0.08356472104787827,
          -0.02961159683763981,
          0.023447472602128983,
          -0.021039946004748344,
          0.000876336358487606,
          -0.07813004404306412,
          -0.02419104613363743,
          0.010417669080197811,
          -0.031701844185590744,
          0.0053968182764947414,
          -0.0019109154818579555,
          0.0019570626318454742,
          -0.0015202474314719439,
          0.004687332548201084,
          -0.014750738628208637,
          -0.07136763632297516,
          -0.033371493220329285,
          -0.05252520740032196,
          0.052592672407627106,
          0.02385527454316616,
          -0.05341112241148949,
          -0.031082022935152054,
          -0.008362974040210247,
          0.008838902227580547,
          -0.057685527950525284,
          -0.005001742392778397,
          0.05369861423969269,
          -0.0005079199327155948,
          0.03148593753576279,
          -0.007316106930375099,
          0.048178188502788544,
          -0.05552360415458679,
          0.025722162798047066,
          -0.057337261736392975,
          -0.028968723490834236,
          -0.012958085164427757,
          0.04742230102419853,
          -0.044596314430236816,
          -0.014656680636107922,
          -0.004651238676160574,
          -0.10674580186605453,
          -0.03100983053445816,
          0.02323155477643013,
          0.022747544571757317,
          0.030729161575436592,
          -0.02503037452697754,
          0.03608892485499382,
          0.02202325314283371,
          0.01854315586388111,
          -0.05054676532745361,
          0.05007171630859375,
          -0.03869302570819855,
          -0.0651937872171402,
          -0.012337576597929,
          0.04551798105239868,
          0.04428849369287491,
          0.01125170849263668,
          -0.03517606481909752,
          0.06652951240539551,
          0.09190722554922104,
          0.024871818721294403,
          -0.029007168486714363,
          -0.021983185783028603,
          0.06136980280280113,
          0.02067791111767292,
          0.016844017431139946,
          -0.06252166628837585,
          -0.03614180535078049,
          0.040060605853796005,
          0.03462626039981842,
          -0.06459720432758331,
          -0.06450438499450684,
          0.05334937572479248,
          0.012845411896705627,
          -0.022282876074314117,
          0.08103261888027191,
          0.07111798971891403,
          0.08435201644897461,
          -0.0876556858420372,
          -0.0821165218949318,
          -0.02255612425506115,
          0.05506957322359085,
          0.07587279379367828,
          0.008983354084193707,
          0.017038725316524506,
          -0.035004131495952606,
          0.0024760994128882885,
          0.007024615071713924,
          0.044142648577690125,
          0.011906773783266544,
          0.003121082205325365,
          -0.007307661231607199,
          0.006270360667258501,
          0.06692439317703247,
          0.020352542400360107,
          0.044998232275247574,
          0.06992606073617935,
          0.04204162582755089,
          0.06622707098722458,
          0.007114891428500414,
          -0.08404144644737244,
          -0.06886689364910126,
          -0.05751604959368706,
          0.08752349019050598,
          -0.030105940997600555,
          -0.006471198983490467,
          0.05981513857841492,
          0.05267714709043503,
          0.08633765578269958,
          -0.027983035892248154,
          -0.01551020983606577
        ],
        [
          -0.04661482200026512,
          0.0004954096511937678,
          -0.029161397367715836,
          0.03202138841152191,
          -0.017380306497216225,
          -0.04884075000882149,
          0.017967745661735535,
          -0.012252683751285076,
          0.05969661846756935,
          0.047318872064352036,
          0.02051438018679619,
          -0.03492182493209839,
          0.011925583705306053,
          -0.0071608638390898705,
          0.0349380224943161,
          0.020793035626411438,
          -0.08289559930562973,
          -0.05511345714330673,
          -0.07330476492643356,
          -0.028047339990735054,
          -0.035560548305511475,
          0.05032748356461525,
          0.029434066265821457,
          -0.022727126255631447,
          0.02163391001522541,
          -0.044073570519685745,
          0.011998172849416733,
          -0.09449043869972229,
          0.010916497558355331,
          0.00208461657166481,
          -0.08087411522865295,
          -0.06360144168138504,
          -0.012493068352341652,
          0.009010513313114643,
          -0.03595586493611336,
          0.029452549293637276,
          -0.0183118749409914,
          0.021613450720906258,
          0.02515454962849617,
          0.07513351738452911,
          -0.04954584315419197,
          -0.056193236261606216,
          -0.02988235466182232,
          -0.010990200564265251,
          -0.00753860455006361,
          -0.021611135452985764,
          -0.05322353541851044,
          -0.03159555420279503,
          -0.05814003571867943,
          -0.024690793827176094,
          0.05365913361310959,
          0.07546573877334595,
          -0.015066887252032757,
          0.021307937800884247,
          -0.026623835787177086,
          -0.0413629487156868,
          -0.023788901045918465,
          0.015847694128751755,
          0.025141136720776558,
          -0.004040287341922522,
          0.010597159154713154,
          0.0634472668170929,
          -0.06215662136673927,
          0.05528758093714714,
          0.014622638002038002,
          0.048652004450559616,
          -0.0015205417294055223,
          -0.021777603775262833,
          0.028952008113265038,
          -0.0640232041478157,
          0.01868436112999916,
          -0.038524676114320755,
          -0.02180119790136814,
          -0.011045806109905243,
          0.061899133026599884,
          0.02532058022916317,
          0.027008242905139923,
          0.021528106182813644,
          0.05103466287255287,
          -0.0038869723211973906,
          0.03981363773345947,
          0.08330605179071426,
          -0.039689164608716965,
          -0.0017829191638156772,
          0.001390885910950601,
          0.0433482825756073,
          0.004982480779290199,
          0.00493180425837636,
          -0.056646473705768585,
          -0.009199387393891811,
          0.025119835510849953,
          -0.047719866037368774,
          0.023490650579333305,
          0.029938099905848503,
          -0.08965692669153214,
          0.06764627993106842,
          0.055634718388319016,
          -0.06978143751621246,
          0.03634151071310043,
          -0.0652335062623024,
          0.004655086901038885,
          -0.0088131008669734,
          -0.07384596019983292,
          0.001541362376883626,
          0.02852551080286503,
          0.0095086470246315,
          0.028399109840393066,
          -0.06635459512472153,
          -0.0020506358705461025,
          0.013490762561559677,
          -0.024959489703178406,
          0.01836719736456871,
          -0.03672124445438385,
          -0.05532899871468544,
          0.017463546246290207,
          -0.025401020422577858,
          0.0639396607875824,
          0.017582779750227928,
          0.010614542290568352,
          -0.025097167119383812,
          0.02606787532567978,
          0.0355159267783165,
          0.026160841807723045,
          0.03005135990679264,
          -0.042543016374111176,
          -0.06378266215324402,
          0.03757179528474808,
          -0.07254554331302643
        ],
        [
          0.07858403027057648,
          0.0028498938772827387,
          -0.007357458118349314,
          -0.021529458463191986,
          -0.06119576096534729,
          0.014851085841655731,
          0.012495973147451878,
          0.0379989817738533,
          -0.018651098012924194,
          -0.04779116436839104,
          -0.0204045120626688,
          -0.024213194847106934,
          -0.012058932334184647,
          0.021870888769626617,
          0.07166898995637894,
          -0.045808933675289154,
          -0.05728069692850113,
          -0.005325707606971264,
          -0.06254172325134277,
          0.031858351081609726,
          -0.03052116185426712,
          -0.022288570180535316,
          0.02152642421424389,
          0.02505473978817463,
          0.04192498326301575,
          -0.020436342805624008,
          0.0314263179898262,
          0.07850928604602814,
          0.05774813890457153,
          0.01648327149450779,
          0.006266764365136623,
          0.06055738031864166,
          -0.01954297535121441,
          -0.009164352901279926,
          -0.013431091792881489,
          -0.046087734401226044,
          -0.04341883212327957,
          0.03528377413749695,
          -0.03126384690403938,
          0.050613369792699814,
          -0.04079177603125572,
          -0.02519524283707142,
          -0.03319238871335983,
          0.014150766655802727,
          -0.03044818714261055,
          -0.05919529125094414,
          0.029861299321055412,
          0.03733794763684273,
          -0.03314748778939247,
          -0.016818223521113396,
          -0.0031153918243944645,
          0.006461263168603182,
          0.027781866490840912,
          0.037362173199653625,
          -0.05764520913362503,
          0.001550969434902072,
          0.020474718883633614,
          -0.0008145131869241595,
          -0.051427483558654785,
          0.0326961949467659,
          -0.0289404708892107,
          -0.041232842952013016,
          0.05099857598543167,
          -0.02307737059891224,
          -0.06616879999637604,
          0.046462282538414,
          -0.010844397358596325,
          0.06427856534719467,
          0.061784036457538605,
          -0.027091236785054207,
          -0.004279824439436197,
          0.04683341085910797,
          0.07266048341989517,
          0.06781470030546188,
          -0.024764763191342354,
          0.029494034126400948,
          -0.027162080630660057,
          0.019222216680645943,
          -0.057026252150535583,
          -0.028901655226945877,
          0.01209949143230915,
          -0.026337051764130592,
          0.023685557767748833,
          -0.013960162177681923,
          0.010550894774496555,
          0.030010024085640907,
          -0.003313430119305849,
          0.053681887686252594,
          0.030008137226104736,
          -0.012495486065745354,
          -0.02590210922062397,
          0.018583903089165688,
          0.01798214763402939,
          0.038410499691963196,
          -0.012286578305065632,
          0.022506682202219963,
          -0.04144750535488129,
          0.026983188465237617,
          -0.05601061135530472,
          -0.0040420484729111195,
          -0.019224975258111954,
          0.03469158709049225,
          -0.0034745344892144203,
          0.0038930349983274937,
          0.0297339279204607,
          -0.037440359592437744,
          -0.04497765749692917,
          -0.02500254474580288,
          -0.0162957813590765,
          -0.031510718166828156,
          0.0025232580956071615,
          -0.04023284092545509,
          0.010080913081765175,
          0.024693815037608147,
          -0.041510209441185,
          -0.055635716766119,
          -0.00030921227880753577,
          0.02704336866736412,
          0.06249179318547249,
          0.013557050377130508,
          -0.02007361128926277,
          0.032108381390571594,
          0.009380849078297615,
          -0.010698308236896992,
          -0.05113336443901062,
          -0.0009045119513757527,
          -0.041376013308763504,
          -0.026691049337387085
        ],
        [
          -0.07271091639995575,
          -0.04754390940070152,
          0.059588707983493805,
          -0.07215573638677597,
          -0.003775077173486352,
          0.05943291634321213,
          0.0198157150298357,
          -0.058877699077129364,
          0.04676077887415886,
          -0.009975793771445751,
          -0.06826532632112503,
          -0.08102061599493027,
          -0.07508384436368942,
          0.05298277735710144,
          0.010211987420916557,
          0.0010755739640444517,
          0.019542375579476357,
          -0.02388046868145466,
          0.043291255831718445,
          0.017734574154019356,
          0.0886945128440857,
          -0.044286131858825684,
          0.06675281375646591,
          0.013233764097094536,
          0.004225845914334059,
          0.06153734773397446,
          0.009411142207682133,
          0.010971714742481709,
          -0.13593623042106628,
          0.057918570935726166,
          0.01633836328983307,
          0.019107680767774582,
          0.02711879462003708,
          -0.0003315922513138503,
          -0.10478559136390686,
          -0.05364193394780159,
          0.023042825981974602,
          -0.015772465616464615,
          -0.025997977703809738,
          0.03206305578351021,
          0.020807603374123573,
          0.02145274542272091,
          0.0750126838684082,
          -0.022470703348517418,
          -0.0807499811053276,
          -0.023625286296010017,
          -0.06266529858112335,
          -0.10923367738723755,
          0.008506054058670998,
          -0.021515265107154846,
          -0.011222638189792633,
          0.033825114369392395,
          0.0014504059217870235,
          -0.00822882167994976,
          -0.003119231667369604,
          0.0009961540345102549,
          0.014196294359862804,
          -0.03314104676246643,
          0.025299161672592163,
          0.003860304830595851,
          0.055030129849910736,
          -0.03212501481175423,
          0.003321516327559948,
          -0.06031598150730133,
          -0.04676637053489685,
          0.024807030335068703,
          -0.0996951162815094,
          -0.08421856164932251,
          -0.002313331002369523,
          0.018871761858463287,
          -0.0015925891930237412,
          -0.06957847625017166,
          -0.014709477312862873,
          0.053195253014564514,
          0.048028554767370224,
          0.04326067119836807,
          -0.012867294251918793,
          0.08784998953342438,
          0.013955402188003063,
          -0.05320943519473076,
          -0.009535777382552624,
          -0.0946451723575592,
          -0.03154980018734932,
          -0.04750366881489754,
          0.04440626502037048,
          0.008384265936911106,
          0.018707435578107834,
          0.014287520200014114,
          0.0004922383232042193,
          -0.06346982717514038,
          0.014404038898646832,
          0.009790136478841305,
          0.023745670914649963,
          0.037201471626758575,
          0.0423567108809948,
          0.08502358198165894,
          -0.0020616455003619194,
          0.03171222284436226,
          -0.03198149427771568,
          -0.04161825776100159,
          -0.02827797830104828,
          0.09246598929166794,
          -0.04903416708111763,
          0.043478600680828094,
          -0.06800118088722229,
          0.009029609151184559,
          -0.028470169752836227,
          0.01174064539372921,
          0.07286828756332397,
          0.024205513298511505,
          0.07683874666690826,
          -0.0824282094836235,
          0.08970896899700165,
          0.04613552987575531,
          -0.02960287220776081,
          0.07465768605470657,
          -0.006477986462414265,
          0.014012896455824375,
          0.011101402342319489,
          0.048615776002407074,
          0.035113703459501266,
          0.03831293061375618,
          0.023358846083283424,
          -0.014913318678736687,
          -0.02031957171857357,
          0.0726313367486,
          -0.06695596873760223,
          -0.018639320507645607
        ],
        [
          0.04578728228807449,
          -0.03799840435385704,
          -0.02104100026190281,
          0.04220627248287201,
          0.06848566234111786,
          -0.014829572290182114,
          -0.03350566327571869,
          0.00776951527222991,
          -0.0724649652838707,
          0.043194886296987534,
          -0.04563654586672783,
          0.0553450845181942,
          0.05990859121084213,
          0.023883629590272903,
          0.029104046523571014,
          -0.02054554969072342,
          -0.07623353600502014,
          0.00807203445583582,
          -0.013525431044399738,
          -0.04585795849561691,
          -0.04502398520708084,
          -0.027335619553923607,
          -0.028522759675979614,
          -0.0034440699964761734,
          0.049868904054164886,
          -0.008820146322250366,
          -0.11399366706609726,
          -0.053849585354328156,
          0.030135726556181908,
          -0.0165314432233572,
          -0.02356569841504097,
          0.015369500033557415,
          0.04333411157131195,
          0.04348500072956085,
          0.003239368787035346,
          0.007846228778362274,
          0.0555184967815876,
          -0.08854001760482788,
          0.07572101056575775,
          -0.04374454915523529,
          0.07186106592416763,
          -0.05690642446279526,
          -0.007023368496447802,
          -0.041126929223537445,
          -0.09152331203222275,
          -0.09414689242839813,
          0.03369550779461861,
          0.0016458602622151375,
          -0.09026957303285599,
          0.06313735991716385,
          0.02932008169591427,
          0.0033110298682004213,
          0.021359829232096672,
          0.015216001309454441,
          0.1000036746263504,
          0.004699514247477055,
          0.05350012332201004,
          -0.06621446460485458,
          -0.04089289531111717,
          -0.01854870654642582,
          0.03573945164680481,
          -0.03244989737868309,
          -0.05844029411673546,
          0.028904153034090996,
          -0.061394102871418,
          -0.0684405043721199,
          0.031023841351270676,
          -0.09538309276103973,
          -0.0662604346871376,
          0.08484561741352081,
          0.007822837680578232,
          -0.017146578058600426,
          -0.06638672947883606,
          -0.13287994265556335,
          0.026214679703116417,
          -0.09071729332208633,
          0.023928474634885788,
          -0.04693308845162392,
          0.08791562169790268,
          -0.07115688174962997,
          0.07669565081596375,
          -0.040436532348394394,
          0.05324837937951088,
          -0.0059881252236664295,
          -1.2041291483910754e-05,
          -0.035167720168828964,
          -0.08897581696510315,
          -0.016816381365060806,
          0.02039395458996296,
          0.0680394098162651,
          0.08441033214330673,
          0.014912046492099762,
          0.031677961349487305,
          -0.06820891797542572,
          0.06932908296585083,
          -0.01621514931321144,
          -0.09979796409606934,
          0.04633650928735733,
          0.03699900209903717,
          0.057484813034534454,
          -0.03105052001774311,
          0.033538900315761566,
          -0.03676716983318329,
          -0.05308053269982338,
          0.02818315289914608,
          0.07027668505907059,
          0.07224531471729279,
          0.02496975287795067,
          0.0413101390004158,
          -0.024626675993204117,
          -0.020847579464316368,
          0.022650523111224174,
          -0.016399677842855453,
          0.060598310083150864,
          0.025497084483504295,
          -0.016252098605036736,
          0.05869627371430397,
          0.029207339510321617,
          0.07859835773706436,
          -0.03712853416800499,
          0.05905115604400635,
          -0.009374373592436314,
          0.01635890081524849,
          0.019827984273433685,
          -0.016740117222070694,
          0.07343482971191406,
          0.03219170495867729,
          -0.03446171060204506
        ],
        [
          -0.018037982285022736,
          -0.04734765738248825,
          -0.006382244173437357,
          0.02666347660124302,
          0.06827566772699356,
          0.009796942584216595,
          -0.0057742539793252945,
          -0.02943154238164425,
          -0.02481139823794365,
          0.04152486100792885,
          0.009332415647804737,
          0.043378330767154694,
          -0.03389303758740425,
          -0.023349152877926826,
          -0.0217734444886446,
          0.03701775521039963,
          -0.05182301625609398,
          0.010924317874014378,
          -0.06976357847452164,
          -0.03906657174229622,
          0.015885623171925545,
          0.06398362666368484,
          -0.07155346125364304,
          -0.0005311256390996277,
          0.007303331978619099,
          -0.050316717475652695,
          0.03544343262910843,
          0.012998776510357857,
          0.0014965777518227696,
          0.06449247896671295,
          -0.04389333352446556,
          0.02880476787686348,
          0.030870722606778145,
          -0.06511184573173523,
          -0.03646226227283478,
          0.08588000386953354,
          -0.08983948081731796,
          0.02879975363612175,
          0.06978796422481537,
          -0.012975347228348255,
          0.006344649940729141,
          0.044861115515232086,
          -0.018277646973729134,
          -0.04940471798181534,
          -0.000869335257448256,
          0.008069480769336224,
          -0.03562700375914574,
          -0.0004404648207128048,
          -0.03231848031282425,
          0.012055415660142899,
          0.06369851529598236,
          0.00028939428739249706,
          0.02334609068930149,
          -0.02668503299355507,
          -0.012929624877870083,
          -0.03422333300113678,
          0.05866483598947525,
          -0.08664512634277344,
          0.06750994920730591,
          0.050055380910634995,
          -0.0581868439912796,
          -0.014460896141827106,
          0.014895142056047916,
          0.08685874938964844,
          0.031418442726135254,
          0.03962109610438347,
          0.05950235202908516,
          -0.02712595835328102,
          0.016991499811410904,
          -0.02375774271786213,
          0.04392319545149803,
          -0.043279826641082764,
          -0.06144538149237633,
          -0.016995182260870934,
          0.044163141399621964,
          -0.0433836430311203,
          -0.052843812853097916,
          -0.04651728272438049,
          -0.04160827770829201,
          -0.029125025495886803,
          0.07608110457658768,
          0.0350477434694767,
          -0.0023996762465685606,
          -0.01706313155591488,
          -0.035038914531469345,
          0.018549328669905663,
          -0.004145238548517227,
          0.05153827369213104,
          -0.07096876204013824,
          -0.010684109292924404,
          -0.005926888901740313,
          -0.046971000730991364,
          0.045495741069316864,
          -0.043778520077466965,
          0.06420330703258514,
          -0.04548649862408638,
          -0.06611896306276321,
          0.039253171533346176,
          0.04265473410487175,
          -0.05632896348834038,
          -0.045444097369909286,
          0.016277022659778595,
          -0.014459197409451008,
          0.09242435544729233,
          0.005783397238701582,
          0.015136257745325565,
          0.034444406628608704,
          0.02038337104022503,
          0.00043459469452500343,
          0.05510450899600983,
          0.022415243089199066,
          0.03968362510204315,
          0.04473037272691727,
          -0.012587194330990314,
          0.04187314957380295,
          -0.013469523750245571,
          -0.021425358951091766,
          -0.031464189291000366,
          0.02103518508374691,
          -0.032181017100811005,
          -0.0017869126750156283,
          -0.03393115848302841,
          -0.03402711823582649,
          0.07313280552625656,
          0.0928068533539772,
          -0.016228392720222473,
          -0.05070369690656662,
          0.04313715547323227
        ],
        [
          -0.018248137086629868,
          -0.08529896289110184,
          0.07441091537475586,
          -0.04647964611649513,
          -0.04976815730333328,
          -0.05634684860706329,
          0.055069804191589355,
          -0.05506129935383797,
          -0.02519245631992817,
          0.01967223547399044,
          -0.043020423501729965,
          -0.04440360516309738,
          0.0478099063038826,
          -0.029285430908203125,
          0.07130436599254608,
          0.03513424098491669,
          -0.005185665097087622,
          -0.00034290464827790856,
          -0.03477509319782257,
          -0.006613755598664284,
          0.058887068182229996,
          -0.07008848339319229,
          0.011902637779712677,
          0.009183860383927822,
          -0.05608963593840599,
          0.05911947786808014,
          0.0001926972036017105,
          -0.10024167597293854,
          -0.030880330130457878,
          -0.11544937640428543,
          0.0673547089099884,
          0.003514440730214119,
          0.01626511476933956,
          -0.07357904314994812,
          -0.029310572892427444,
          0.029037974774837494,
          0.06674759835004807,
          -0.019224338233470917,
          0.04597945883870125,
          0.1111767441034317,
          -0.029131045565009117,
          -0.02295062132179737,
          -0.05743362382054329,
          -0.004339428618550301,
          -0.05251186713576317,
          -0.06201368197798729,
          0.0393422394990921,
          -0.027671393007040024,
          0.07087401300668716,
          -0.04924041032791138,
          0.037825457751750946,
          -0.01420792005956173,
          0.014422299340367317,
          -0.05139986798167229,
          -0.043594591319561005,
          -0.07563728094100952,
          0.05949760973453522,
          0.03803246468305588,
          -0.06636004149913788,
          -0.044777434319257736,
          0.06416132301092148,
          -0.003767283633351326,
          -0.06038742512464523,
          -0.035196851938962936,
          -0.05651659145951271,
          -0.026390697807073593,
          0.006055157165974379,
          -0.04609166085720062,
          0.039008066058158875,
          -0.1053406298160553,
          -0.06235722824931145,
          -0.03569876402616501,
          -0.0031966811511665583,
          0.016142945736646652,
          -0.00601720018312335,
          0.06377529352903366,
          0.0923219546675682,
          -0.03273424878716469,
          -0.11010037362575531,
          -0.040263693779706955,
          0.034162361174821854,
          0.057973891496658325,
          -0.009417364373803139,
          0.07327590882778168,
          -0.043018221855163574,
          -0.050318628549575806,
          -0.03882327675819397,
          0.021380165591835976,
          0.04345794767141342,
          -0.06723988801240921,
          0.037458691745996475,
          -0.0018308343132957816,
          0.03748849034309387,
          0.09663214534521103,
          -0.03416956961154938,
          0.012980043888092041,
          -0.026777224615216255,
          -0.04240019991993904,
          -0.03214394301176071,
          -0.03024880774319172,
          0.049094196408987045,
          -0.025936760008335114,
          -0.002266417723149061,
          0.012075993232429028,
          0.05010128766298294,
          0.00450889253988862,
          -0.08949021250009537,
          0.025707295164465904,
          0.010573708452284336,
          -0.013460539281368256,
          -0.07440963387489319,
          -0.024345265701413155,
          -0.08124572038650513,
          0.01962161250412464,
          0.09674383699893951,
          -0.03204294666647911,
          0.000923437881283462,
          -0.0515742264688015,
          0.08223669975996017,
          -0.011196202598512173,
          -0.001319867791607976,
          -0.024262141436338425,
          0.055159538984298706,
          -0.011349812150001526,
          0.03566502779722214,
          -0.07460769265890121,
          0.011413157917559147,
          -0.0913635641336441
        ],
        [
          0.010999377816915512,
          0.009744093753397465,
          -0.05877966806292534,
          -0.0992494747042656,
          0.01084839180111885,
          0.0005924299475736916,
          -0.03920750692486763,
          0.058636803179979324,
          0.019084462895989418,
          -0.0074241445399820805,
          0.05583451688289642,
          -0.002486283192411065,
          0.08034685999155045,
          0.044021569192409515,
          0.027957333251833916,
          0.06960730254650116,
          0.028154071420431137,
          0.058899667114019394,
          -0.015238860622048378,
          0.03767223283648491,
          0.07038525491952896,
          0.018002856522798538,
          0.04385699704289436,
          -0.0701453760266304,
          -0.060844842344522476,
          0.04669317230582237,
          0.040028609335422516,
          -0.008360438980162144,
          0.026368221268057823,
          0.023019645363092422,
          -0.048524729907512665,
          -0.03255361318588257,
          0.058202434331178665,
          0.04291263222694397,
          0.036988817155361176,
          -0.009855082258582115,
          -0.08040852844715118,
          -0.0054446323774755,
          0.07055985182523727,
          0.06290393322706223,
          -0.025593997910618782,
          0.05731896683573723,
          -0.02302974835038185,
          0.014818704687058926,
          -0.06236208975315094,
          0.08180972188711166,
          -0.03140714764595032,
          -0.020717300474643707,
          -0.009533515200018883,
          0.03048410639166832,
          -0.009938628412783146,
          -0.0190834179520607,
          -0.06782285869121552,
          0.022600356489419937,
          0.04279286041855812,
          0.026354437693953514,
          0.024094637483358383,
          -0.050928495824337006,
          -0.03981730714440346,
          0.012536314316093922,
          -0.042541954666376114,
          -0.05259769409894943,
          -0.020516447722911835,
          -0.07973310351371765,
          0.002991928020492196,
          0.020456770434975624,
          -0.028845451772212982,
          -0.09151574224233627,
          0.07772283256053925,
          -0.08093789964914322,
          0.06420012563467026,
          -0.056592073291540146,
          -0.03353430703282356,
          -0.0004501816292759031,
          0.0216840710490942,
          -0.09746871143579483,
          -0.061332423239946365,
          0.08603554219007492,
          0.01241324283182621,
          -0.011332566849887371,
          0.023943619802594185,
          -0.0738893672823906,
          -0.02266949787735939,
          -0.015260875225067139,
          -0.06612947583198547,
          -0.06879527866840363,
          0.03636591508984566,
          0.03915899991989136,
          0.07778727263212204,
          -0.05359068512916565,
          0.01780109666287899,
          -0.043361350893974304,
          0.035556860268116,
          0.03458809852600098,
          -0.06786873936653137,
          0.0045404075644910336,
          0.012342969886958599,
          -0.012841899879276752,
          0.054756272584199905,
          0.08079313486814499,
          -0.07981999963521957,
          0.05129542201757431,
          0.053399987518787384,
          0.00256884447298944,
          -0.02507081627845764,
          0.0008749953121878207,
          0.006752486806362867,
          -0.012601525522768497,
          -0.008556936867535114,
          -0.06517799198627472,
          0.010018007829785347,
          -0.05997755378484726,
          0.10668537020683289,
          -0.014688021503388882,
          -0.06301120668649673,
          -0.009811153635382652,
          -0.07774247229099274,
          -0.08263811469078064,
          -0.022831063717603683,
          -0.025649208575487137,
          0.026254193857312202,
          0.07994811981916428,
          -0.061193812638521194,
          0.0621228963136673,
          0.06617659330368042,
          0.01394398882985115,
          0.0333804227411747,
          0.0076367915607988834
        ],
        [
          -0.03182229772210121,
          0.020140498876571655,
          0.013546657748520374,
          0.001558205927722156,
          0.06616756319999695,
          -0.03690995275974274,
          -0.08717657625675201,
          0.021324386820197105,
          -0.07535933703184128,
          0.06359260529279709,
          0.013650570064783096,
          0.08562567830085754,
          0.07553980499505997,
          -0.06411667913198471,
          0.0259217731654644,
          -0.07601802051067352,
          -0.10564600676298141,
          -0.11133511364459991,
          0.0295786764472723,
          -0.005765195470303297,
          -0.042745478451251984,
          -0.055033281445503235,
          -0.011514023877680302,
          -0.022555697709321976,
          -0.00835579913109541,
          -0.02497476525604725,
          0.06698416918516159,
          0.03979695215821266,
          -0.046242885291576385,
          -0.10581870377063751,
          0.07477448880672455,
          -0.029946114867925644,
          0.017009278759360313,
          0.036910805851221085,
          0.03634723275899887,
          -0.06702431291341782,
          -0.020362040027976036,
          0.04412028193473816,
          -0.05703018978238106,
          -0.051540639251470566,
          0.009745278395712376,
          -0.07008226960897446,
          0.027386385947465897,
          0.004330631345510483,
          -0.1037478819489479,
          0.02568891830742359,
          0.03892465680837631,
          0.037010036408901215,
          0.027681902050971985,
          -0.007227894384413958,
          0.05839380621910095,
          -0.01372524630278349,
          0.0267319492995739,
          -0.07436420023441315,
          0.0005962445866316557,
          -0.01454935222864151,
          -0.01479439064860344,
          0.10092049092054367,
          0.04775385931134224,
          0.03051908314228058,
          0.013834750279784203,
          -0.0632404163479805,
          -0.033002011477947235,
          -0.06868767738342285,
          -0.033747512847185135,
          -0.02389056794345379,
          -0.012816513888537884,
          -0.02756097912788391,
          0.03995263949036598,
          0.021163800731301308,
          -0.015131835825741291,
          0.06895424425601959,
          -0.022344429045915604,
          -0.05485443398356438,
          0.006505441851913929,
          0.04162990301847458,
          -0.03806595876812935,
          -0.03907002881169319,
          -0.052307140082120895,
          0.04018833860754967,
          0.040552668273448944,
          -0.01591362990438938,
          0.050272826105356216,
          -0.01923978514969349,
          -0.006350471172481775,
          -0.011599252000451088,
          0.015091975219547749,
          0.034821685403585434,
          -0.024346163496375084,
          -0.048208191990852356,
          0.052203282713890076,
          -0.01961624063551426,
          0.03524051234126091,
          0.015124847181141376,
          0.018006742000579834,
          -0.06722453236579895,
          0.022334560751914978,
          0.042023200541734695,
          -0.03595000132918358,
          -0.06127651408314705,
          -0.01968999020755291,
          -0.0009502703906036913,
          0.0028873393312096596,
          0.012483349069952965,
          -0.011122402735054493,
          0.06156668812036514,
          -0.046821098774671555,
          0.009198240004479885,
          -0.008989558555185795,
          0.013012946583330631,
          0.02761010453104973,
          0.04322817921638489,
          0.07871241122484207,
          0.08171998709440231,
          0.02971617691218853,
          -0.008645487949252129,
          -6.940103776287287e-05,
          0.04437865689396858,
          0.013476831838488579,
          0.037829797714948654,
          0.05184976011514664,
          -0.022983690723776817,
          -0.019609840586781502,
          0.0029922188259661198,
          0.06276682764291763,
          0.03669318929314613,
          -0.010904126800596714,
          -0.033591460436582565
        ],
        [
          0.03207601606845856,
          0.11411463469266891,
          0.01759713515639305,
          0.0362611785531044,
          -0.038532450795173645,
          0.020442025735974312,
          -0.048972807824611664,
          -0.014525791630148888,
          0.01469118706882,
          0.038414210081100464,
          -0.08721130341291428,
          -0.053489334881305695,
          0.010267218574881554,
          -0.041831232607364655,
          0.031389251351356506,
          0.051889073103666306,
          -0.06314881145954132,
          0.04859953373670578,
          0.08455722033977509,
          -0.0013064269442111254,
          0.04446973651647568,
          0.025964433327317238,
          -0.008461564779281616,
          0.017669066786766052,
          0.04366552084684372,
          -0.01987123116850853,
          -0.03339981287717819,
          0.10181153565645218,
          -0.046982988715171814,
          -0.0020899365190416574,
          0.027860987931489944,
          0.025424186140298843,
          0.038281504064798355,
          -0.07371876388788223,
          -0.015152319334447384,
          0.058688241988420486,
          -0.04888387396931648,
          -0.052018068730831146,
          -0.04393640533089638,
          0.01226472482085228,
          0.08980832993984222,
          0.03872474282979965,
          -0.05380556359887123,
          -0.04117590934038162,
          -0.039865653961896896,
          -0.02027454599738121,
          -0.0451681911945343,
          -0.04229719936847687,
          -0.024638839066028595,
          -0.021610843017697334,
          0.07720454782247543,
          0.017382875084877014,
          0.030393468216061592,
          -0.09207263588905334,
          0.049523357301950455,
          -0.041192516684532166,
          -0.08793658018112183,
          0.025290602818131447,
          -0.0066292439587414265,
          -0.08397303521633148,
          0.021598095074295998,
          -0.008704484440386295,
          0.03912278264760971,
          0.09272176027297974,
          -0.06891218572854996,
          -0.008578570559620857,
          0.0032686321064829826,
          -0.027219882234930992,
          -0.03716857731342316,
          -0.0785197988152504,
          0.01942337118089199,
          -0.011823917739093304,
          0.04467511922121048,
          -0.044448330998420715,
          0.006515763234347105,
          0.035763218998909,
          -0.029956799000501633,
          -0.0074532958678901196,
          0.05523484945297241,
          0.013919706456363201,
          -0.061621908098459244,
          0.07477103173732758,
          0.0414908267557621,
          -0.0003522994520608336,
          -0.05441592261195183,
          -0.0663159042596817,
          -0.06863753497600555,
          0.015000419691205025,
          0.03442755341529846,
          -0.06088079884648323,
          -0.038216784596443176,
          0.012880911119282246,
          0.015552830882370472,
          -0.018824098631739616,
          0.057556334882974625,
          -0.038845498114824295,
          0.0680389255285263,
          0.04991446062922478,
          0.010484067723155022,
          0.0053566694259643555,
          -0.0324336402118206,
          -0.0536685548722744,
          0.03611525148153305,
          -0.028488384559750557,
          0.019539061933755875,
          0.02627727761864662,
          0.035017210990190506,
          -0.031977783888578415,
          -0.05832472816109657,
          0.08560842275619507,
          -0.04293132200837135,
          -0.0003219688660465181,
          -0.04337546229362488,
          -0.03803454339504242,
          0.0321136936545372,
          -0.010277112945914268,
          0.04689675569534302,
          0.0324738584458828,
          0.033807870000600815,
          0.13423505425453186,
          -0.008130712434649467,
          -0.025686750188469887,
          -0.009007420390844345,
          -0.06433221697807312,
          0.04701559990644455,
          0.0003269324079155922,
          -0.01523666176944971,
          -0.005255057476460934
        ],
        [
          0.00436351727694273,
          0.031102025881409645,
          -0.052803345024585724,
          0.05003189668059349,
          -0.0029281415045261383,
          0.023359227925539017,
          0.03264189884066582,
          0.0187977384775877,
          0.0013642904814332724,
          0.04978426918387413,
          0.055310316383838654,
          0.07428199052810669,
          0.03488202393054962,
          -0.0637325793504715,
          -0.017055237665772438,
          0.05498672276735306,
          -0.01780729554593563,
          -0.012449093163013458,
          0.04323349520564079,
          -0.04194240644574165,
          -0.07513377070426941,
          -0.001504388521425426,
          0.046645428985357285,
          -0.016320260241627693,
          -0.01579703576862812,
          0.05937885865569115,
          -0.002249077195301652,
          0.03193873539566994,
          0.04875325784087181,
          -0.04184051975607872,
          0.0407341904938221,
          -0.011452892795205116,
          -0.0592915304005146,
          0.013554579578340054,
          0.031549468636512756,
          -0.0566142313182354,
          -0.042537081986665726,
          -0.027014436200261116,
          -0.07616718113422394,
          0.01529922615736723,
          -0.05093047022819519,
          -0.04903688654303551,
          -0.05287005752325058,
          -0.006472356617450714,
          0.010056457482278347,
          -0.03519975021481514,
          0.06279749423265457,
          -0.04115242511034012,
          0.043945055454969406,
          0.05327705293893814,
          -0.026659900322556496,
          -0.0062329876236617565,
          0.017434868961572647,
          0.02932652272284031,
          -0.04591638222336769,
          0.02300051413476467,
          -0.04631137475371361,
          0.07218406349420547,
          0.026633266359567642,
          -0.04308696091175079,
          -0.0871163010597229,
          0.003927262034267187,
          0.022949296981096268,
          0.019201096147298813,
          0.05238398537039757,
          0.05074895918369293,
          0.03647039458155632,
          0.036218445748090744,
          0.0056386953219771385,
          0.10760152339935303,
          0.054854199290275574,
          -0.006574754603207111,
          -0.023166358470916748,
          -0.03245680034160614,
          0.012780250981450081,
          -0.002228278201073408,
          0.010065325535833836,
          -0.0632045716047287,
          -0.057250797748565674,
          0.05169139429926872,
          -0.04349252209067345,
          0.031465064734220505,
          -0.021969975903630257,
          0.02400689572095871,
          0.016218744218349457,
          -0.03242148458957672,
          0.006009868811815977,
          0.018970107659697533,
          0.010530903935432434,
          -0.015626374632120132,
          -0.058861393481492996,
          0.032645221799612045,
          -0.0456269197165966,
          0.03231315314769745,
          0.014792854897677898,
          -0.05131864547729492,
          -0.02831568941473961,
          0.05306320637464523,
          0.024356216192245483,
          -0.05507319048047066,
          -0.08061976730823517,
          -0.007086485158652067,
          -0.003548298729583621,
          -0.0016952205915004015,
          0.016076479107141495,
          0.0006574614089913666,
          -0.04498744755983353,
          -0.034750498831272125,
          -0.006335200276225805,
          -0.003914237022399902,
          -0.0883120521903038,
          0.027515370398759842,
          -0.04063840210437775,
          0.03742659091949463,
          -0.09750101715326309,
          -0.024190662428736687,
          -0.05997016280889511,
          0.002600338775664568,
          -0.008629830554127693,
          0.0010477552423253655,
          0.02842841111123562,
          0.008634226396679878,
          -0.04250078275799751,
          0.0032569938339293003,
          0.042937278747558594,
          -0.02428591065108776,
          0.01437782496213913,
          0.027355123311281204
        ],
        [
          -0.05357892066240311,
          0.024853989481925964,
          0.01737391948699951,
          -0.03521153703331947,
          -0.03007684461772442,
          0.06734933704137802,
          0.07037051767110825,
          -0.04799399897456169,
          -0.025175003334879875,
          0.06716097891330719,
          0.010395270772278309,
          0.00126023986376822,
          0.051492758095264435,
          -0.10504402965307236,
          -0.05352376773953438,
          -0.012607453390955925,
          -0.016738003119826317,
          0.020137980580329895,
          -0.03055005520582199,
          0.07461050152778625,
          -0.016560103744268417,
          -0.032556645572185516,
          -0.06848900765180588,
          -0.01264660432934761,
          -0.013734884560108185,
          -0.01660251058638096,
          -0.056764476001262665,
          -0.06222020462155342,
          0.008769226260483265,
          -0.03462560102343559,
          -0.0238493699580431,
          -0.0437454953789711,
          0.013366330415010452,
          -0.03065044991672039,
          0.032576922327280045,
          0.03597317263484001,
          -0.004183844197541475,
          -0.010910244658589363,
          -0.014694967307150364,
          -0.0669909119606018,
          0.009736396372318268,
          0.059426914900541306,
          0.08140208572149277,
          0.0322391502559185,
          0.03137335181236267,
          0.012515918351709843,
          -0.06103316694498062,
          0.0024457185063511133,
          -0.015936166048049927,
          -0.050001006573438644,
          -0.08006640523672104,
          -0.06801687926054001,
          -0.040271446108818054,
          0.03741264343261719,
          -0.09403254836797714,
          0.037261780351400375,
          0.0249014925211668,
          -0.07587435096502304,
          0.0006125496001914144,
          0.030114227905869484,
          0.009796286933124065,
          0.07551095634698868,
          -0.08374686539173126,
          -0.029365891590714455,
          -0.04715782776474953,
          -0.05326838791370392,
          0.00912391021847725,
          0.018343687057495117,
          0.01312810555100441,
          0.015000241808593273,
          -0.052044577896595,
          -0.01799439825117588,
          -0.029987964779138565,
          -0.09068194776773453,
          -0.03615390509366989,
          0.025475293397903442,
          0.031325336545705795,
          -0.025782978162169456,
          0.03659211844205856,
          -0.03628510609269142,
          0.03215625509619713,
          0.03910316899418831,
          -0.07390803843736649,
          -0.020969588309526443,
          -0.043957024812698364,
          0.0568176694214344,
          -0.008879336528480053,
          0.05354702100157738,
          0.03304101899266243,
          0.012195811606943607,
          0.04859120026230812,
          -0.059274014085531235,
          0.016236478462815285,
          -0.026643671095371246,
          -0.09004863351583481,
          -0.030469097197055817,
          -0.04594514146447182,
          -0.09503001719713211,
          0.009265972301363945,
          -0.04693378135561943,
          0.04390845075249672,
          0.05204164609313011,
          0.016669586300849915,
          -0.10077686607837677,
          0.047762803733348846,
          -0.0027781648095697165,
          -0.04502205178141594,
          -0.02161850593984127,
          -0.08290432393550873,
          -0.02822839468717575,
          -0.03938644006848335,
          -0.00859094224870205,
          -0.0641411617398262,
          0.014037376269698143,
          0.02493356540799141,
          -0.003626491641625762,
          0.04312407597899437,
          -0.012588457204401493,
          0.03312615305185318,
          -0.07106497883796692,
          0.010979626327753067,
          0.04424824193120003,
          -0.008583650924265385,
          -0.053387969732284546,
          0.06455620378255844,
          0.096112921833992,
          -0.053025227040052414,
          0.04260624200105667
        ],
        [
          0.030335424467921257,
          -0.04119359701871872,
          -0.031687457114458084,
          -0.021747972816228867,
          0.08704352378845215,
          0.030727596953511238,
          -0.018663037568330765,
          -0.010195276699960232,
          0.008048012852668762,
          0.0003550653927959502,
          0.00438319705426693,
          0.011095790192484856,
          -0.0694025531411171,
          0.006312539801001549,
          -0.055120717734098434,
          0.0025174024049192667,
          0.039632197469472885,
          0.008603231981396675,
          0.01940091699361801,
          -0.05275353416800499,
          -0.030481183901429176,
          0.03265552222728729,
          0.06994880735874176,
          0.013405832462012768,
          -0.06744062155485153,
          0.04745422303676605,
          0.0199058149009943,
          0.08373428881168365,
          0.018021728843450546,
          -0.014091821387410164,
          0.08378352969884872,
          0.0034517315216362476,
          -0.05810953304171562,
          -0.05648399144411087,
          0.029581662267446518,
          -0.013222909532487392,
          -0.04205670952796936,
          0.055742330849170685,
          -0.013154923915863037,
          -0.011524708941578865,
          -0.017482126131653786,
          0.04539894685149193,
          0.05477277189493179,
          0.056302428245544434,
          0.04082769155502319,
          0.0652814731001854,
          0.058274075388908386,
          -0.027840856462717056,
          -0.03569631278514862,
          0.013172944076359272,
          0.019832083955407143,
          -0.016234219074249268,
          0.04175928980112076,
          -0.046409670263528824,
          -0.026106879115104675,
          -0.013136900961399078,
          -0.037456899881362915,
          -0.018997017294168472,
          0.0032000800129026175,
          0.045456670224666595,
          0.005988286342471838,
          0.05786478519439697,
          0.05556927248835564,
          0.00190843571908772,
          0.036643385887145996,
          0.1069520115852356,
          0.04498596489429474,
          0.03269056975841522,
          -0.1037195548415184,
          0.0035368776880204678,
          -0.024663956835865974,
          -0.05341663956642151,
          -0.03919711336493492,
          -0.0017976448871195316,
          -0.02848108299076557,
          0.0816602036356926,
          0.043087370693683624,
          -0.0580010823905468,
          0.008824583142995834,
          -0.01389291975647211,
          0.0023033861070871353,
          0.07263195514678955,
          -0.06125597655773163,
          -0.05538969486951828,
          -0.04672856628894806,
          -0.006875287741422653,
          0.019341228529810905,
          -0.021209072321653366,
          0.03281427174806595,
          0.08582661300897598,
          -0.04561423882842064,
          0.011660667136311531,
          0.00858699157834053,
          -0.028096923604607582,
          -0.002111008856445551,
          0.06944411993026733,
          0.006397265940904617,
          0.015291763469576836,
          -0.07050877064466476,
          -0.006235706154257059,
          -0.011902129277586937,
          0.06116195395588875,
          -0.022339902818202972,
          -0.002863776870071888,
          0.10602616518735886,
          -0.02648116648197174,
          0.016193900257349014,
          -0.06279461830854416,
          0.022948872298002243,
          0.0524919331073761,
          0.09283819049596786,
          0.06223869323730469,
          0.0741628035902977,
          -0.01671343855559826,
          0.09720901399850845,
          -0.1292872428894043,
          -0.042234037071466446,
          0.004360790364444256,
          -0.10472947359085083,
          -0.001537571894004941,
          -0.05586979538202286,
          0.02990715764462948,
          0.0026608165353536606,
          -0.030396154150366783,
          0.011088801547884941,
          0.006452853791415691,
          -0.005266519263386726,
          0.014647015370428562
        ],
        [
          -0.0513896569609642,
          -0.02678786963224411,
          0.0011390340514481068,
          -0.056786417961120605,
          0.04459653049707413,
          0.05668918043375015,
          -0.014170660637319088,
          0.043939683586359024,
          -0.033735524863004684,
          -0.07646726816892624,
          -0.0028750081546604633,
          0.019011713564395905,
          0.01684265397489071,
          -0.0003918693691957742,
          0.036479610949754715,
          -0.01790785603225231,
          -0.05007931962609291,
          0.014029158279299736,
          0.06990468502044678,
          -0.04412129148840904,
          -0.047269560396671295,
          -0.057963866740465164,
          0.07655114680528641,
          -0.05481358990073204,
          0.05707010254263878,
          -0.030617065727710724,
          0.06246919557452202,
          0.05220833420753479,
          -0.08088936656713486,
          -0.03576125577092171,
          -0.015296019613742828,
          -0.06764857470989227,
          0.040095169097185135,
          0.019610892981290817,
          -0.0785752534866333,
          0.10021521896123886,
          0.007725491654127836,
          -0.006682772655040026,
          0.038408804684877396,
          0.07668714225292206,
          -0.02906642109155655,
          -0.04008587449789047,
          -0.03004814125597477,
          0.0660848394036293,
          0.07484488189220428,
          0.06996171176433563,
          -0.01267574168741703,
          0.07422696053981781,
          -0.09738660603761673,
          -0.01717745140194893,
          -0.05213024094700813,
          -0.016784947365522385,
          0.033392760902643204,
          -0.03530567139387131,
          0.052624188363552094,
          -0.0662536770105362,
          -0.039565280079841614,
          -0.06557468324899673,
          0.08668740838766098,
          0.042444005608558655,
          -0.008658332750201225,
          -0.01977437734603882,
          0.07316254824399948,
          0.042577698826789856,
          -0.004686812404543161,
          0.023260338231921196,
          0.003425488481298089,
          0.02903704345226288,
          -0.04247116297483444,
          0.02174253761768341,
          0.0987071767449379,
          0.04867423325777054,
          0.03611891344189644,
          0.028005342930555344,
          -0.06724756956100464,
          0.016085650771856308,
          -0.03097909316420555,
          0.04283033311367035,
          0.021920304745435715,
          -0.04143856465816498,
          0.01649828627705574,
          -0.046684764325618744,
          -0.04431242495775223,
          0.020070502534508705,
          0.006504192482680082,
          0.034014370292425156,
          0.07196221500635147,
          -0.013374228030443192,
          -0.03315725177526474,
          -0.0295786801725626,
          0.05000706762075424,
          -0.03185441344976425,
          -0.07640525698661804,
          -0.016955235973000526,
          -0.020737774670124054,
          -0.01746712066233158,
          0.01841801404953003,
          -0.006036569830030203,
          -0.07328425347805023,
          0.09629455208778381,
          0.00245844479650259,
          0.021765001118183136,
          0.06297619640827179,
          0.03631646931171417,
          0.05337519571185112,
          0.051040031015872955,
          -0.02437995746731758,
          0.01977994292974472,
          -0.0352514423429966,
          0.04818986356258392,
          0.014308310113847256,
          0.005045682191848755,
          0.009881606325507164,
          -0.030378514900803566,
          -0.055653076618909836,
          0.030104774981737137,
          -0.04306952282786369,
          -0.026198429986834526,
          -0.05820690095424652,
          -0.0029697713907808065,
          -0.009998206049203873,
          0.03157526254653931,
          0.047294359654188156,
          0.034343618899583817,
          0.03065376915037632,
          0.02186494693160057,
          0.017379015684127808,
          -0.003879661438986659
        ],
        [
          -0.08149688690900803,
          0.06207020580768585,
          0.016769180074334145,
          0.05391441285610199,
          0.07495433837175369,
          -0.05286223813891411,
          0.044559068977832794,
          0.07017472386360168,
          -0.03474299609661102,
          -0.021818118169903755,
          -0.0019820567686110735,
          -0.05374367535114288,
          -0.07133006304502487,
          0.04430282860994339,
          -0.020246755331754684,
          -0.08722290396690369,
          -0.04440029338002205,
          -0.023490238934755325,
          -0.03345287963747978,
          -0.06467930972576141,
          0.013686531223356724,
          -0.06234390288591385,
          0.07991524785757065,
          -0.03436329960823059,
          0.08293670415878296,
          0.06201134994626045,
          -0.041172001510858536,
          -0.01515528466552496,
          -0.02887335792183876,
          -0.03227946162223816,
          0.04420136660337448,
          0.014915571548044682,
          -0.008104878477752209,
          -0.026914404705166817,
          0.030330069363117218,
          0.02720062993466854,
          0.07102721184492111,
          0.10571856051683426,
          -0.005908378399908543,
          -0.03518570959568024,
          0.060848135501146317,
          0.004640374332666397,
          -0.015705883502960205,
          0.07014097273349762,
          0.030566230416297913,
          0.06559739261865616,
          1.044707460096106e-05,
          -0.005195315927267075,
          0.02284208871424198,
          0.04228717088699341,
          0.02960490621626377,
          -0.048391927033662796,
          0.027986401692032814,
          -0.056704435497522354,
          0.10198624432086945,
          0.04639142379164696,
          0.009800322353839874,
          -0.03847489506006241,
          0.09665411710739136,
          0.04329410567879677,
          0.07017311453819275,
          0.0012234197929501534,
          0.031496915966272354,
          -0.04491187632083893,
          -0.0746864601969719,
          -0.0034565820824354887,
          -0.07140284776687622,
          0.022919613867998123,
          0.03659220412373543,
          -0.0467555932700634,
          -0.04637349024415016,
          0.03571048006415367,
          -0.06609316915273666,
          0.09357092529535294,
          0.06599050760269165,
          -0.023700276389718056,
          -0.024185290560126305,
          0.033351972699165344,
          0.05497293174266815,
          -0.010141273029148579,
          0.005530016962438822,
          0.08984553813934326,
          -0.04440481215715408,
          0.00435617845505476,
          -0.025720106437802315,
          -0.0018979344749823213,
          0.027835996821522713,
          0.039636701345443726,
          0.028553877025842667,
          0.04945683106780052,
          0.016268016770482063,
          0.02951551415026188,
          -0.058061275631189346,
          0.07997608184814453,
          0.0292428657412529,
          0.052712105214595795,
          -0.015969382598996162,
          0.05851973593235016,
          -0.012335284613072872,
          -0.003374739084392786,
          0.06167386472225189,
          -0.01754305697977543,
          0.045907508581876755,
          0.03856164589524269,
          -0.009554964490234852,
          0.07898124307394028,
          -0.00028227188158780336,
          0.09782624244689941,
          -0.03090120479464531,
          -0.010098693892359734,
          -0.04449634626507759,
          -0.039454374462366104,
          -0.04631677269935608,
          0.05672667920589447,
          -0.01962105929851532,
          -0.06011313572525978,
          -0.04323898255825043,
          0.020884497091174126,
          -0.024230144917964935,
          0.055628158152103424,
          0.010622256435453892,
          0.07511952519416809,
          0.01034133043140173,
          0.01835043542087078,
          0.010406768880784512,
          0.01938103511929512,
          -0.01937752217054367,
          0.020807044580578804
        ],
        [
          -0.019679220393300056,
          -0.030866673216223717,
          -0.07575040310621262,
          0.04578549042344093,
          -0.06584561616182327,
          -0.025325927883386612,
          0.03429563343524933,
          -0.028531106188893318,
          -0.08990053087472916,
          -0.03298644721508026,
          -0.015705285593867302,
          0.04900704324245453,
          0.03739486262202263,
          0.08587580919265747,
          0.08195235580205917,
          -0.04869876056909561,
          0.018791429698467255,
          0.018676165491342545,
          -0.03703385964035988,
          -0.0252193883061409,
          0.0501737967133522,
          0.07615175098180771,
          0.01587512716650963,
          0.04024232551455498,
          0.11717620491981506,
          0.011791059747338295,
          -0.07638735324144363,
          -0.004802926443517208,
          0.024167556315660477,
          0.014819309115409851,
          0.03584786877036095,
          -0.05237875133752823,
          0.046280715614557266,
          -0.033472899347543716,
          0.06825479120016098,
          0.005873137153685093,
          -0.03832241892814636,
          -0.06558072566986084,
          0.03580653667449951,
          0.07100477069616318,
          0.016755446791648865,
          0.04061306640505791,
          0.0173916257917881,
          -0.04557250440120697,
          0.012489289976656437,
          -0.09262818843126297,
          0.04217352345585823,
          -0.018872803077101707,
          0.040015995502471924,
          -0.05743836984038353,
          -0.03278975933790207,
          -0.04571832716464996,
          0.08739340305328369,
          -0.06323327124118805,
          0.030756190419197083,
          0.04326528683304787,
          -0.09610171616077423,
          0.04099027067422867,
          0.06475390493869781,
          -0.03244165703654289,
          -0.05051076412200928,
          -0.03302155062556267,
          0.0019344884203746915,
          -0.011508597061038017,
          -0.039605848491191864,
          -0.04185215383768082,
          0.034151624888181686,
          -0.04599824175238609,
          -0.10407739132642746,
          -0.010333653539419174,
          0.01614036224782467,
          0.028386881574988365,
          -0.024840638041496277,
          0.06597749888896942,
          -0.025152750313282013,
          -0.08051816374063492,
          0.047232095152139664,
          -0.022811250761151314,
          0.01187689695507288,
          0.06920159608125687,
          0.007940046489238739,
          -0.037908490747213364,
          -0.08383746445178986,
          -0.004756394773721695,
          0.007503528147935867,
          0.01346693467348814,
          -0.044730789959430695,
          0.04775227606296539,
          -0.02575775422155857,
          -0.0008092190837487578,
          -0.027976227924227715,
          0.09391769021749496,
          -0.03916693851351738,
          0.07605783641338348,
          0.07025987654924393,
          -0.01606360822916031,
          -0.01538894698023796,
          0.023909246549010277,
          0.017544612288475037,
          0.04695504903793335,
          0.05528431385755539,
          0.08079870045185089,
          -0.048721153289079666,
          -0.03461968153715134,
          -0.024859799072146416,
          -0.04115257412195206,
          0.0010730053763836622,
          0.041366275399923325,
          0.023412350565195084,
          -0.03519032895565033,
          0.055238090455532074,
          -0.030174721032381058,
          0.00020513551135081798,
          -0.09009144455194473,
          0.05850495770573616,
          0.03759359195828438,
          0.009629313834011555,
          0.08231159299612045,
          0.019791297614574432,
          0.04015177860856056,
          0.02763470448553562,
          -0.021855611354112625,
          0.1107468456029892,
          0.0669991597533226,
          -0.048620227724313736,
          0.04935804381966591,
          0.010544037446379662,
          -0.005671664606779814
        ],
        [
          0.009775165468454361,
          0.023101452738046646,
          -0.0008334593148902059,
          0.01965431682765484,
          -0.06579335033893585,
          0.07125008851289749,
          -0.03717447817325592,
          -0.0495128370821476,
          -0.042279232293367386,
          0.002850314835086465,
          -0.026476940140128136,
          0.026755787432193756,
          -0.032613255083560944,
          -0.002932882634922862,
          0.060478031635284424,
          -0.011787854135036469,
          0.05882196128368378,
          -0.0301049817353487,
          -0.0732894167304039,
          -0.01008652988821268,
          0.06441131234169006,
          -0.04287431016564369,
          0.017856081947684288,
          -0.025627359747886658,
          -0.03926011919975281,
          -0.038476016372442245,
          -0.07038000226020813,
          0.04921310395002365,
          0.026396488770842552,
          0.04792829975485802,
          -0.022143566980957985,
          0.030059751123189926,
          0.07609168440103531,
          0.031697627156972885,
          -0.051148202270269394,
          -0.00402749702334404,
          -0.0721408873796463,
